{"learner":{"attributes":{},"feature_names":["Education","JoiningYear","PaymentTier","Age","Gender"],"feature_types":["int","int","int","int","int"],"gradient_booster":{"model":{"gbtree_model_param":{"num_parallel_tree":"1","num_trees":"3"},"iteration_indptr":[0,1,2,3],"tree_info":[0,0,0],"trees":[{"base_weights":[-2.6345437E-2,-2.878748E-1,1.3827902E-1,3.1606305E-1,-6.956007E-1,4.9472725E-1,1.7492257E-2,-9.2666E-1,1.5481313E-1,2.040798E-1,9.278434E-1,4.1647828E-1,-8.017898E-2,-8.2556534E-1,-1.0163202E0,4.556901E-1,-5.5746287E-2,4.559014E-3,4.379143E-2,6.658206E-2,-3.3298608E-2,-2.7325253E-3,2.7594537E-2,8.8089015E-3,-9.966957E-3,1.91998E-2,-4.2002913E-2,-3.8515553E-2,-5.355496E-2,5.8292624E-2,-1.0571844E-2],"categories":[],"categories_nodes":[],"categories_segments":[],"categories_sizes":[],"default_left":[0,0,0,0,0,0,0,0,0,0,0,0,0,0,0,0,0,0,0,0,0,0,0,0,0,0,0,0,0,0,0],"id":0,"left_children":[1,3,-1,5,7,9,11,13,15,17,19,21,23,25,27,29,-1,-1,-1,-1,-1,-1,-1,-1,-1,-1,-1,-1,-1,-1,-1],"loss_changes":[4.9259634E2,1.5209108E2,0E0,1.3287668E1,7.255255E1,1.9436588E1,3.71023E0,1.7888031E0,3.0913515E1,7.0930166E0,4.099854E1,1.2242053E0,2.376141E0,2.8047638E0,1.1871338E0,3.1065891E1,0E0,0E0,0E0,0E0,0E0,0E0,0E0,0E0,0E0,0E0,0E0,0E0,0E0,0E0,0E0],"parents":[2147483647,0,0,1,1,3,3,4,4,5,5,6,6,7,7,8,8,9,9,10,10,11,11,12,12,13,13,14,14,15,15],"right_children":[2,4,-1,6,8,10,12,14,16,18,20,22,24,26,28,30,-1,-1,-1,-1,-1,-1,-1,-1,-1,-1,-1,-1,-1,-1,-1],"split_conditions":[2.018E3,1E0,1.3827902E-1,2.016E3,1E0,2.015E3,2.6E1,2.015E3,2E0,1E0,1E0,2.017E3,2.017E3,2.3E1,2.6E1,2.8E1,-5.5746287E-2,4.559014E-3,4.379143E-2,6.658206E-2,-3.3298608E-2,-2.7325253E-3,2.7594537E-2,8.8089015E-3,-9.966957E-3,1.91998E-2,-4.2002913E-2,-3.8515553E-2,-5.355496E-2,5.8292624E-2,-1.0571844E-2],"split_indices":[1,4,0,1,0,1,3,1,0,0,0,1,1,3,3,3,0,0,0,0,0,0,0,0,0,0,0,0,0,0,0],"split_type":[0,0,0,0,0,0,0,0,0,0,0,0,0,0,0,0,0,0,0,0,0,0,0,0,0,0,0,0,0,0,0],"sum_hessian":[6.7254156E2,6.1575824E2,5.678331E1,2.4825664E2,3.675016E2,1.5490488E2,9.335176E1,2.8891348E2,7.8588104E1,9.3578896E1,6.1325977E1,1.7716393E1,7.563537E1,1.4059547E2,1.4831801E2,6.4051575E1,1.4536528E1,8.108657E1,1.2492329E1,4.906078E1,1.2265195E1,4.0883985E0,1.3627995E1,2.3848991E1,5.178638E1,1.3627994E0,1.3923268E2,2.9754456E1,1.1856355E2,3.0662989E1,3.3388588E1],"tree_param":{"num_deleted":"0","num_feature":"5","num_nodes":"31","size_leaf_vector":"1"}},{"base_weights":[-3.1922307E-2,-2.7196196E-1,1.2725003E-1,8.269218E-1,-6.7261446E-1,1.6012381E0,-5.166462E-2,-7.9647714E-1,-1.8830592E-2,3.8724035E-1,2.1645598E0,3.4510806E-1,-4.1032705E-1,-4.3148065E-1,-4.868259E-2,3.4273008E-1,-5.7511926E-2,5.4877073E-2,-3.041615E-2,1.2636341E-1,3.524102E-2,3.7783828E-2,2.6611171E-3,-5.508169E-2,1.1778057E-3,-3.0070154E-2,-1.3477216E-2,4.323956E-2,1.2721314E-2],"categories":[],"categories_nodes":[],"categories_segments":[],"categories_sizes":[],"default_left":[0,0,0,0,0,0,0,0,0,0,0,0,0,0,0,0,0,0,0,0,0,0,0,0,0,0,0,0,0],"id":1,"left_children":[1,3,-1,5,7,9,11,13,15,17,19,21,23,25,-1,27,-1,-1,-1,-1,-1,-1,-1,-1,-1,-1,-1,-1,-1],"loss_changes":[4.1462247E2,2.7046887E2,0E0,1.11821815E2,3.6410538E1,5.8888626E1,1.1229135E1,2.4033646E1,3.0121445E1,2.110368E1,2.9688293E1,4.457837E0,1.2437235E1,3.2875996E0,0E0,2.3542604E0,0E0,0E0,0E0,0E0,0E0,0E0,0E0,0E0,0E0,0E0,0E0,0E0,0E0],"parents":[2147483647,0,0,1,1,3,3,4,4,5,5,6,6,7,7,8,8,9,9,10,10,11,11,12,12,13,13,15,15],"right_children":[2,4,-1,6,8,10,12,14,16,18,20,22,24,26,-1,28,-1,-1,-1,-1,-1,-1,-1,-1,-1,-1,-1,-1,-1],"split_conditions":[2.018E3,3E0,1.2725003E-1,2.017E3,1E0,2E0,1E0,1E0,2E0,1E0,1E0,1E0,1E0,2.015E3,-4.868259E-2,2.013E3,-5.7511926E-2,5.4877073E-2,-3.041615E-2,1.2636341E-1,3.524102E-2,3.7783828E-2,2.6611171E-3,-5.508169E-2,1.1778057E-3,-3.0070154E-2,-1.3477216E-2,4.323956E-2,1.2721314E-2],"split_indices":[1,2,0,1,0,2,4,4,0,4,0,0,0,1,0,1,0,0,0,0,0,0,0,0,0,0,0,0,0],"split_type":[0,0,0,0,0,0,0,0,0,0,0,0,0,0,0,0,0,0,0,0,0,0,0,0,0,0,0,0,0],"sum_hessian":[6.681798E2,6.12061E2,5.6118847E1,1.632488E2,4.488122E2,8.633631E1,7.691248E1,3.771424E2,7.16698E1,2.7899137E1,5.8437176E1,3.653414E1,4.0378345E1,1.24367966E2,2.5277443E2,5.484138E1,1.682842E1,1.6222496E1,1.1676641E1,4.6221092E1,1.2216083E1,1.4520526E1,2.2013615E1,1.4976791E1,2.5401552E1,5.936329E1,6.500467E1,6.6619396E0,4.8179443E1],"tree_param":{"num_deleted":"0","num_feature":"5","num_nodes":"29","size_leaf_vector":"1"}},{"base_weights":[-2.4187628E-2,-2.5376037E-1,1.1785181E-1,8.152436E-1,-6.5621597E-1,1.5500784E0,-3.0453749E-2,-7.989476E-1,1.2675926E-1,3.9740086E-1,2.0503118E0,6.2438375E-1,-3.9544216E-1,-3.0678019E-2,-8.4243774E-1,4.415874E-1,-1.0042626E0,-2.2665193E-2,2.7904635E-2,1.1858231E-1,3.8350835E-2,-5.175959E-3,5.4956105E-2,-9.339699E-3,-2.629732E-2,-5.194549E-2,-3.9783746E-2,5.3954013E-2,-2.872541E-3,-6.0716566E-2,5.6448916E-4],"categories":[],"categories_nodes":[],"categories_segments":[],"categories_sizes":[],"default_left":[0,0,0,0,0,0,0,0,0,0,0,0,0,0,0,0,0,0,0,0,0,0,0,0,0,0,0,0,0,0,0],"id":2,"left_children":[1,3,-1,5,7,9,11,13,15,17,19,21,23,-1,25,27,29,-1,-1,-1,-1,-1,-1,-1,-1,-1,-1,-1,-1,-1,-1],"loss_changes":[3.6897293E2,2.653431E2,0E0,1.049428E2,5.013594E1,5.1273193E1,1.9237803E1,2.5373535E0,2.5331474E1,4.159809E0,2.4059357E1,1.0074606E1,1.3076735E0,0E0,1.9678497E0,1.7677086E1,3.325697E0,0E0,0E0,0E0,0E0,0E0,0E0,0E0,0E0,0E0,0E0,0E0,0E0,0E0,0E0],"parents":[2147483647,0,0,1,1,3,3,4,4,5,5,6,6,7,7,8,8,9,9,10,10,11,11,12,12,14,14,15,15,16,16],"right_children":[2,4,-1,6,8,10,12,14,16,18,20,22,24,-1,26,28,30,-1,-1,-1,-1,-1,-1,-1,-1,-1,-1,-1,-1,-1,-1],"split_conditions":[2.018E3,3E0,1.1785181E-1,2.017E3,1E0,2E0,2.7E1,2.6E1,2E0,2.013E3,1E0,1E0,1E0,-3.0678019E-2,2.7E1,2.8E1,3.3E1,-2.2665193E-2,2.7904635E-2,1.1858231E-1,3.8350835E-2,-5.175959E-3,5.4956105E-2,-9.339699E-3,-2.629732E-2,-5.194549E-2,-3.9783746E-2,5.3954013E-2,-2.872541E-3,-6.0716566E-2,5.6448916E-4],"split_indices":[1,2,0,1,0,2,3,3,0,1,0,0,0,0,3,3,3,0,0,0,0,0,0,0,0,0,0,0,0,0,0],"split_type":[0,0,0,0,0,0,0,0,0,0,0,0,0,0,0,0,0,0,0,0,0,0,0,0,0,0,0,0,0,0,0],"sum_hessian":[6.7285956E2,6.145085E2,5.8351063E1,1.6779228E2,4.467162E2,8.9335175E1,7.8457115E1,3.7782126E2,6.889491E1,2.7579266E1,6.1755905E1,2.7824888E1,5.0632225E1,7.466252E1,3.0315875E2,5.4370155E1,1.4524759E1,4.092511E0,2.3486755E1,4.8710747E1,1.304516E1,1.1292444E1,1.6532444E1,2.0418602E1,3.0213625E1,5.4204433E1,2.4895432E2,2.336297E1,3.1007183E1,1.1873062E1,2.6516967E0],"tree_param":{"num_deleted":"0","num_feature":"5","num_nodes":"31","size_leaf_vector":"1"}}]},"name":"gbtree"},"learner_model_param":{"base_score":"3.4878242E-1","boost_from_average":"1","num_class":"0","num_feature":"5","num_target":"1"},"objective":{"name":"binary:logistic","reg_loss_param":{"scale_pos_weight":"1"}}},"version":[2,0,3]}