{"learner":{"attributes":{"best_iteration":"499","best_score":"0.7747955780218172","scikit_learn":"{\"_estimator_type\": \"classifier\"}"},"feature_names":["times_newly_15_dpd_in_90_days","fraud_model_q124","d30_90d_model_q124","num_missed_payments","total_past_due_amount_90d","pct_unpaid_over_total_due_90d"],"feature_types":["int","float","float","float","float","float"],"gradient_booster":{"model":{"gbtree_model_param":{"num_parallel_tree":"1","num_trees":"500"},"iteration_indptr":[0,1,2,3,4,5,6,7,8,9,10,11,12,13,14,15,16,17,18,19,20,21,22,23,24,25,26,27,28,29,30,31,32,33,34,35,36,37,38,39,40,41,42,43,44,45,46,47,48,49,50,51,52,53,54,55,56,57,58,59,60,61,62,63,64,65,66,67,68,69,70,71,72,73,74,75,76,77,78,79,80,81,82,83,84,85,86,87,88,89,90,91,92,93,94,95,96,97,98,99,100,101,102,103,104,105,106,107,108,109,110,111,112,113,114,115,116,117,118,119,120,121,122,123,124,125,126,127,128,129,130,131,132,133,134,135,136,137,138,139,140,141,142,143,144,145,146,147,148,149,150,151,152,153,154,155,156,157,158,159,160,161,162,163,164,165,166,167,168,169,170,171,172,173,174,175,176,177,178,179,180,181,182,183,184,185,186,187,188,189,190,191,192,193,194,195,196,197,198,199,200,201,202,203,204,205,206,207,208,209,210,211,212,213,214,215,216,217,218,219,220,221,222,223,224,225,226,227,228,229,230,231,232,233,234,235,236,237,238,239,240,241,242,243,244,245,246,247,248,249,250,251,252,253,254,255,256,257,258,259,260,261,262,263,264,265,266,267,268,269,270,271,272,273,274,275,276,277,278,279,280,281,282,283,284,285,286,287,288,289,290,291,292,293,294,295,296,297,298,299,300,301,302,303,304,305,306,307,308,309,310,311,312,313,314,315,316,317,318,319,320,321,322,323,324,325,326,327,328,329,330,331,332,333,334,335,336,337,338,339,340,341,342,343,344,345,346,347,348,349,350,351,352,353,354,355,356,357,358,359,360,361,362,363,364,365,366,367,368,369,370,371,372,373,374,375,376,377,378,379,380,381,382,383,384,385,386,387,388,389,390,391,392,393,394,395,396,397,398,399,400,401,402,403,404,405,406,407,408,409,410,411,412,413,414,415,416,417,418,419,420,421,422,423,424,425,426,427,428,429,430,431,432,433,434,435,436,437,438,439,440,441,442,443,444,445,446,447,448,449,450,451,452,453,454,455,456,457,458,459,460,461,462,463,464,465,466,467,468,469,470,471,472,473,474,475,476,477,478,479,480,481,482,483,484,485,486,487,488,489,490,491,492,493,494,495,496,497,498,499,500],"tree_info":[0,0,0,0,0,0,0,0,0,0,0,0,0,0,0,0,0,0,0,0,0,0,0,0,0,0,0,0,0,0,0,0,0,0,0,0,0,0,0,0,0,0,0,0,0,0,0,0,0,0,0,0,0,0,0,0,0,0,0,0,0,0,0,0,0,0,0,0,0,0,0,0,0,0,0,0,0,0,0,0,0,0,0,0,0,0,0,0,0,0,0,0,0,0,0,0,0,0,0,0,0,0,0,0,0,0,0,0,0,0,0,0,0,0,0,0,0,0,0,0,0,0,0,0,0,0,0,0,0,0,0,0,0,0,0,0,0,0,0,0,0,0,0,0,0,0,0,0,0,0,0,0,0,0,0,0,0,0,0,0,0,0,0,0,0,0,0,0,0,0,0,0,0,0,0,0,0,0,0,0,0,0,0,0,0,0,0,0,0,0,0,0,0,0,0,0,0,0,0,0,0,0,0,0,0,0,0,0,0,0,0,0,0,0,0,0,0,0,0,0,0,0,0,0,0,0,0,0,0,0,0,0,0,0,0,0,0,0,0,0,0,0,0,0,0,0,0,0,0,0,0,0,0,0,0,0,0,0,0,0,0,0,0,0,0,0,0,0,0,0,0,0,0,0,0,0,0,0,0,0,0,0,0,0,0,0,0,0,0,0,0,0,0,0,0,0,0,0,0,0,0,0,0,0,0,0,0,0,0,0,0,0,0,0,0,0,0,0,0,0,0,0,0,0,0,0,0,0,0,0,0,0,0,0,0,0,0,0,0,0,0,0,0,0,0,0,0,0,0,0,0,0,0,0,0,0,0,0,0,0,0,0,0,0,0,0,0,0,0,0,0,0,0,0,0,0,0,0,0,0,0,0,0,0,0,0,0,0,0,0,0,0,0,0,0,0,0,0,0,0,0,0,0,0,0,0,0,0,0,0,0,0,0,0,0,0,0,0,0,0,0,0,0,0,0,0,0,0,0,0,0,0,0,0,0,0,0,0,0,0,0,0,0,0,0,0,0,0,0,0,0,0,0,0,0,0,0,0,0,0,0,0,0,0,0,0,0,0,0,0,0,0,0,0,0,0,0,0,0,0,0,0,0,0,0,0,0,0,0,0,0,0,0,0,0,0,0,0,0,0],"trees":[{"base_weights":[-1.1812509E-1,-3.8610253E-1,2.2205148E0,-4.9003094E-1,1.0565267E0,1.5979278E0,2.834568E0,-7.668298E-1,-3.092477E-1,6.367305E-1,1.2712667E0,1.4831177E0,2.21489E-2,2.1759014E0,2.91994E-2,-4.0153125E-1,-8.6661994E-1,-1.1687615E-1,-5.166975E-1,4.1338152E-1,1.0636679E0,1.4870627E0,8.6674505E-1,1.8403696E0,1.2293806E0,1.3693566E0,2.5986009E0,-5.909886E-3,-1.7925416E-3,-8.881956E-3,2.321652E-3,-1.426746E-3,2.0723443E-2,-5.771544E-3,7.802068E-3,4.8416527E-3,-6.6339E-3,3.7760462E-3,1.4103996E-2,1.400206E-2,2.7024554E-2,-4.867681E-3,1.0777527E-2,1.609829E-2,2.3741638E-2,6.032631E-3,1.3796489E-2,3.9766515E-3,1.6479647E-2,2.7629217E-2,5.2722064E-3],"categories":[],"categories_nodes":[],"categories_segments":[],"categories_sizes":[],"default_left":[0,0,0,0,0,0,0,0,0,0,0,0,0,0,0,0,0,0,0,0,0,0,0,0,0,0,0,0,0,0,0,0,0,0,0,0,0,0,0,0,0,0,0,0,0,0,0,0,0,0,0],"id":0,"left_children":[1,3,5,7,9,11,13,15,17,19,21,23,-1,25,-1,27,29,31,33,35,37,39,41,43,45,47,49,-1,-1,-1,-1,-1,-1,-1,-1,-1,-1,-1,-1,-1,-1,-1,-1,-1,-1,-1,-1,-1,-1,-1,-1],"loss_changes":[2.1631777E3,4.6476904E2,1.3113513E2,1.443327E2,1.797696E1,9.358765E0,3.619995E0,4.1235657E1,6.975012E1,6.476431E0,1.0658905E1,1.1653839E1,0E0,4.7177353E0,0E0,1.0279842E1,2.142688E1,5.1630848E1,6.641998E1,4.0752335E0,5.242075E0,5.4906464E0,1.4807823E1,3.7761993E0,7.8967133E0,2.1768303E0,3.585556E0,0E0,0E0,0E0,0E0,0E0,0E0,0E0,0E0,0E0,0E0,0E0,0E0,0E0,0E0,0E0,0E0,0E0,0E0,0E0,0E0,0E0,0E0,0E0,0E0],"parents":[2147483647,0,0,1,1,2,2,3,3,4,4,5,5,6,6,7,7,8,8,9,9,10,10,11,11,13,13,15,15,16,16,17,17,18,18,19,19,20,20,21,21,22,22,23,23,24,24,25,25,26,26],"right_children":[2,4,6,8,10,12,14,16,18,20,22,24,-1,26,-1,28,30,32,34,36,38,40,42,44,46,48,50,-1,-1,-1,-1,-1,-1,-1,-1,-1,-1,-1,-1,-1,-1,-1,-1,-1,-1,-1,-1,-1,-1,-1,-1],"split_conditions":[9.097052E-2,1E0,2.0003587E-1,5.351802E-2,7.924507E-2,1.8431847E0,2.2929747E-1,2.3469587E-5,3.002269E-4,1.21419E-5,8.46731E-5,1.0000608E0,2.21489E-2,1.0833292E-1,2.91994E-2,2.9626168E-2,7.906603E-3,2.9941913E-4,1.2232459E-1,1.2698412E-5,3.6446396E-2,3.550536E-1,2.68749E-5,1.6667476E-1,5.6670673E-2,1E0,3E0,-5.909886E-3,-1.7925416E-3,-8.881956E-3,2.321652E-3,-1.426746E-3,2.0723443E-2,-5.771544E-3,7.802068E-3,4.8416527E-3,-6.6339E-3,3.7760462E-3,1.4103996E-2,1.400206E-2,2.7024554E-2,-4.867681E-3,1.0777527E-2,1.609829E-2,2.3741638E-2,6.032631E-3,1.3796489E-2,3.9766515E-3,1.6479647E-2,2.7629217E-2,5.2722064E-3],"split_indices":[5,0,5,2,2,3,5,3,3,5,3,3,0,2,0,2,3,3,3,3,2,2,5,5,2,0,0,0,0,0,0,0,0,0,0,0,0,0,0,0,0,0,0,0,0,0,0,0,0,0,0],"split_type":[0,0,0,0,0,0,0,0,0,0,0,0,0,0,0,0,0,0,0,0,0,0,0,0,0,0,0,0,0,0,0,0,0,0,0,0,0,0,0,0,0,0,0,0,0,0,0,0,0,0,0],"sum_hessian":[3.4493125E3,3.0954497E3,3.5386298E2,2.8880518E3,2.0739777E2,1.7749919E2,1.763638E2,1.1397416E3,1.7483103E3,7.1529526E1,1.3586826E2,1.5252063E2,2.4978563E1,2.327548E1,1.5308832E2,2.4562254E2,8.94119E2,9.079329E2,8.403773E2,4.8254044E1,2.327548E1,8.685728E1,4.901097E1,6.0743324E1,9.17773E1,9.461577E0,1.3813903E1,1.3170515E2,1.1391739E2,8.770882E2,1.703084E1,8.9828217E2,9.650808E0,8.034771E2,3.690015E1,4.5794033E1,2.46001E0,8.51542E0,1.476006E1,8.307265E1,3.7846308E0,6.4338727E0,4.25771E1,4.5226337E1,1.5516987E1,1.8733923E1,7.304337E1,2.6492417E0,6.8123355E0,1.2489282E1,1.3246208E0],"tree_param":{"num_deleted":"0","num_feature":"6","num_nodes":"51","size_leaf_vector":"1"}},{"base_weights":[-1.344269E-1,-3.9138234E-1,2.1135566E0,-4.9691832E-1,1.0052326E0,1.3041754E0,2.5681288E0,-6.579002E-1,-2.526838E-1,3.9966956E-1,1.0895057E0,1.1065269E0,1.8096312E0,2.0252554E0,2.7748656E0,-5.049864E-1,-8.689786E-1,7.641997E-2,-4.2359743E-1,8.472072E-1,-1.1212619E-1,1.1787304E0,6.2737304E-1,9.730452E-1,1.937356E-2,1.0231543E0,2.00542E0,1.2233694E0,2.2226948E-2,2.0838026E-3,2.7919723E-2,-5.443924E-3,1.3642547E-2,-9.000238E-3,6.990904E-4,3.8452228E-4,6.544595E-3,-4.676062E-3,6.088421E-3,1.6246086E-2,6.6917455E-3,-4.1748825E-3,5.2868705E-3,1.1036699E-2,1.81394E-2,2.5378831E-3,1.0890891E-2,1.3336592E-2,3.9794142E-3,-1.9301996E-3,1.3762749E-2,2.5538709E-2,1.5244348E-2,1.687157E-2,4.8281555E-3],"categories":[],"categories_nodes":[],"categories_segments":[],"categories_sizes":[],"default_left":[0,0,0,0,0,0,0,0,0,0,0,0,0,0,0,0,0,0,0,0,0,0,0,0,0,0,0,0,0,0,0,0,0,0,0,0,0,0,0,0,0,0,0,0,0,0,0,0,0,0,0,0,0,0,0],"id":1,"left_children":[1,3,5,7,9,11,13,15,17,19,21,23,25,27,29,31,33,35,37,39,41,43,45,47,-1,49,51,53,-1,-1,-1,-1,-1,-1,-1,-1,-1,-1,-1,-1,-1,-1,-1,-1,-1,-1,-1,-1,-1,-1,-1,-1,-1,-1,-1],"loss_changes":[2.0037229E3,4.5927292E2,1.27573364E2,1.13640564E2,1.0741257E1,1.0985779E1,1.9838257E1,5.5852356E1,6.480579E1,6.5849524E0,7.163971E0,8.765274E0,3.3333588E0,7.7715454E0,6.512085E0,7.541385E1,2.1378174E1,8.632183E0,3.4729736E1,1.0211544E0,2.9800878E0,5.6037445E0,5.442728E0,1.7045914E1,0E0,4.1361303E0,3.2188034E0,4.445694E0,0E0,0E0,0E0,0E0,0E0,0E0,0E0,0E0,0E0,0E0,0E0,0E0,0E0,0E0,0E0,0E0,0E0,0E0,0E0,0E0,0E0,0E0,0E0,0E0,0E0,0E0,0E0],"parents":[2147483647,0,0,1,1,2,2,3,3,4,4,5,5,6,6,7,7,8,8,9,9,10,10,11,11,12,12,13,13,14,14,15,15,16,16,17,17,18,18,19,19,20,20,21,21,22,22,23,23,25,25,26,26,27,27],"right_children":[2,4,6,8,10,12,14,16,18,20,22,24,26,28,30,32,34,36,38,40,42,44,46,48,-1,50,52,54,-1,-1,-1,-1,-1,-1,-1,-1,-1,-1,-1,-1,-1,-1,-1,-1,-1,-1,-1,-1,-1,-1,-1,-1,-1,-1,-1],"split_conditions":[4.63594E1,1E0,1E0,2.3162467E-2,8.441035E-3,4.889057E-2,1.0812637E0,3.0437586E-4,1.4665311E-4,5.530926E-3,2E0,1.8431847E0,1.0000285E0,7.0525E1,2.8786666E-3,2.9941913E-4,1.212E-1,1.7E-2,1.212E-1,2.105242E-3,1.05E-2,9.571098E-2,3.486248E-2,1.0002762E0,1.937356E-2,6.2587E1,1.0002762E0,9.3836963E-1,2.2226948E-2,2.0838026E-3,2.7919723E-2,-5.443924E-3,1.3642547E-2,-9.000238E-3,6.990904E-4,3.8452228E-4,6.544595E-3,-4.676062E-3,6.088421E-3,1.6246086E-2,6.6917455E-3,-4.1748825E-3,5.2868705E-3,1.1036699E-2,1.81394E-2,2.5378831E-3,1.0890891E-2,1.3336592E-2,3.9794142E-3,-1.9301996E-3,1.3762749E-2,2.5538709E-2,1.5244348E-2,1.687157E-2,4.8281555E-3],"split_indices":[4,0,0,1,1,1,3,3,3,1,0,3,3,4,1,3,4,4,4,1,4,1,1,3,0,4,3,3,0,0,0,0,0,0,0,0,0,0,0,0,0,0,0,0,0,0,0,0,0,0,0,0,0,0,0],"split_type":[0,0,0,0,0,0,0,0,0,0,0,0,0,0,0,0,0,0,0,0,0,0,0,0,0,0,0,0,0,0,0,0,0,0,0,0,0,0,0,0,0,0,0,0,0,0,0,0,0,0,0,0,0,0,0],"sum_hessian":[3.4664272E3,3.111584E3,3.548433E2,2.8935737E3,2.1801027E2,1.2900844E2,2.2583487E2,1.7430117E3,1.1505621E3,2.7334505E1,1.9067575E2,9.503574E1,3.3972687E1,6.526108E1,1.6057379E2,1.0127365E3,7.3027515E2,3.9346878E2,7.570933E2,1.4233083E1,1.3101422E1,1.585195E2,3.2156254E1,8.375136E1,1.1284391E1,8.012512E0,2.5960175E1,1.4315572E1,5.0945507E1,1.1504868E0,1.594233E2,9.9252167E2,2.0214884E1,7.0694086E2,2.3334293E1,3.7021802E2,2.3250746E1,7.266655E2,3.042777E1,1.1380978E0,1.3094985E1,9.109189E0,3.9922328E0,1.4421556E2,1.4303948E1,1.863109E1,1.3525165E1,5.0663948E1,3.308741E1,1.9049863E0,6.107526E0,1.0115805E1,1.584437E1,8.016705E0,6.298867E0],"tree_param":{"num_deleted":"0","num_feature":"6","num_nodes":"55","size_leaf_vector":"1"}},{"base_weights":[-1.4277157E-1,-4.2897803E-1,1.9347514E0,5.0025135E-2,-5.6308335E-1,1.3979198E0,2.6449401E0,-4.6569443E-1,1.6348639E-1,-7.9653245E-1,-3.424856E-1,1.6680243E0,9.001616E-1,5.829219E-1,2.6869268E0,-4.903684E-1,2.6086903E-1,8.632565E-2,7.792117E-1,-6.635338E-1,-9.441342E-1,-1.0436022E-1,-5.2628267E-1,1.3290902E0,1.9597725E0,6.0395E-1,1.5202206E0,-5.4373997E-3,1.5086738E-2,7.4437046E-3,2.7000202E-2,-8.387699E-3,-4.354614E-3,1.1655712E-2,-3.727081E-3,5.6227535E-4,4.1381237E-3,6.1269454E-3,1.7093355E-2,-7.461984E-3,4.4184993E-3,-9.57102E-3,3.464629E-3,-1.6401869E-3,7.863875E-3,-6.2180418E-3,-3.3498113E-3,1.4215516E-2,1.181591E-3,1.7245432E-2,2.5537994E-2,-1.9009438E-3,9.341E-3,7.5135133E-3,1.6737802E-2],"categories":[],"categories_nodes":[],"categories_segments":[],"categories_sizes":[],"default_left":[0,0,0,0,0,0,0,0,0,0,0,0,0,0,0,0,0,0,0,0,0,0,0,0,0,0,0,0,0,0,0,0,0,0,0,0,0,0,0,0,0,0,0,0,0,0,0,0,0,0,0,0,0,0,0],"id":2,"left_children":[1,3,5,7,9,11,13,15,17,19,21,23,25,27,29,31,33,35,37,39,41,43,45,47,49,51,53,-1,-1,-1,-1,-1,-1,-1,-1,-1,-1,-1,-1,-1,-1,-1,-1,-1,-1,-1,-1,-1,-1,-1,-1,-1,-1,-1,-1],"loss_changes":[2.048373E3,1.9450049E2,1.5533679E2,3.887733E1,1.2153711E2,3.0723236E1,1.3883789E1,2.2762985E0,2.5790823E1,2.191809E1,5.3248016E1,1.2643036E1,1.496624E1,5.866597E0,2.4313965E0,1.8585815E0,3.0647087E0,4.755104E0,8.320847E0,5.583734E1,9.402039E0,2.8388155E1,1.2347458E1,8.16655E0,6.880829E0,1.5955172E1,1.9655647E0,0E0,0E0,0E0,0E0,0E0,0E0,0E0,0E0,0E0,0E0,0E0,0E0,0E0,0E0,0E0,0E0,0E0,0E0,0E0,0E0,0E0,0E0,0E0,0E0,0E0,0E0,0E0,0E0],"parents":[2147483647,0,0,1,1,2,2,3,3,4,4,5,5,6,6,7,7,8,8,9,9,10,10,11,11,12,12,13,13,14,14,15,15,16,16,17,17,18,18,19,19,20,20,21,21,22,22,23,23,24,24,25,25,26,26],"right_children":[2,4,6,8,10,12,14,16,18,20,22,24,26,28,30,32,34,36,38,40,42,44,46,48,50,52,54,-1,-1,-1,-1,-1,-1,-1,-1,-1,-1,-1,-1,-1,-1,-1,-1,-1,-1,-1,-1,-1,-1,-1,-1,-1,-1,-1,-1],"split_conditions":[1.44133E1,7E-4,1.3418448E0,2.9626168E-2,6.956803E-2,1.0002762E0,4.63594E1,2.3162467E-2,2.1548659E-1,3.2076033E-4,3.1749325E-4,1.0337763E-1,8.2128E1,1.5331712E-1,1.2671985E-2,7.7494388E-3,2.6948292E-2,6.346884E-2,4.0306902E-1,2.960946E-4,1.212E-1,2.9941913E-4,4.889057E-2,9.423922E-2,7.592233E-2,1.8054985E-2,1.0003352E0,-5.4373997E-3,1.5086738E-2,7.4437046E-3,2.7000202E-2,-8.387699E-3,-4.354614E-3,1.1655712E-2,-3.727081E-3,5.6227535E-4,4.1381237E-3,6.1269454E-3,1.7093355E-2,-7.461984E-3,4.4184993E-3,-9.57102E-3,3.464629E-3,-1.6401869E-3,7.863875E-3,-6.2180418E-3,-3.3498113E-3,1.4215516E-2,1.181591E-3,1.7245432E-2,2.5537994E-2,-1.9009438E-3,9.341E-3,7.5135133E-3,1.6737802E-2],"split_indices":[4,4,3,2,2,3,4,1,2,3,3,2,4,2,2,2,1,1,2,3,4,3,1,2,1,1,3,0,0,0,0,0,0,0,0,0,0,0,0,0,0,0,0,0,0,0,0,0,0,0,0,0,0,0,0],"split_type":[0,0,0,0,0,0,0,0,0,0,0,0,0,0,0,0,0,0,0,0,0,0,0,0,0,0,0,0,0,0,0,0,0,0,0,0,0,0,0,0,0,0,0,0,0,0,0,0,0,0,0,0,0,0,0],"sum_hessian":[3.4425613E3,3.0264246E3,4.1613675E2,6.6210754E2,2.364317E3,2.3868393E2,1.7745282E2,1.1883915E2,5.432684E2,1.1474302E3,1.2168867E3,1.5320006E2,8.548387E1,3.8381834E0,1.7361464E2,1.1525036E2,3.588795E0,4.837825E2,5.9485878E1,6.064632E2,5.4096704E2,5.307808E2,6.861059E2,7.343902E1,7.976105E1,5.9184536E1,2.6299334E1,1.9173607E0,1.9208227E0,1.5497077E0,1.7206493E2,1.3746771E1,1.01503586E2,1.1322939E0,2.456501E0,4.441353E2,3.964717E1,5.186023E1,7.625649E0,5.645677E2,4.189548E1,5.358414E2,5.1256804E0,4.9822754E2,3.2553284E1,4.5610907E2,2.2999684E2,6.806773E1,5.3712835E0,5.993176E1,1.9829285E1,1.7505718E1,4.1678818E1,5.3591423E0,2.0940191E1],"tree_param":{"num_deleted":"0","num_feature":"6","num_nodes":"55","size_leaf_vector":"1"}},{"base_weights":[-1.2869723E-1,-3.883827E-1,2.041732E0,-4.949423E-1,1.0621517E0,1.3125392E0,2.6330364E0,-6.427434E-1,-2.4247071E-1,4.575476E-1,1.1459795E0,1.68239E0,1.0972561E0,1.9254533E0,2.7030343E-2,-2.9294893E-1,-7.2177136E-1,7.810791E-2,-4.041282E-1,8.1708455E-1,-2.7940895E-3,1.2401457E0,6.517095E-1,1.2423078E0,1.8656454E0,8.703621E-1,1.8999975E0,8.1918573E-1,2.498764E0,-8.739643E-3,-2.4613058E-3,-7.436336E-3,2.8667557E-3,8.034478E-5,2.4178703E-3,-4.3318155E-3,5.0860588E-3,4.307638E-3,1.6909637E-2,1.1898072E-2,2.1312999E-2,3.7104108E-3,1.0434246E-2,1.3864353E-2,2.7273728E-3,1.4704493E-2,2.2111062E-2,1.015918E-2,4.5036376E-3,2.0137466E-2,5.549235E-4,1.435595E-2,-4.4212774E-3,7.973632E-3,2.710512E-2],"categories":[],"categories_nodes":[],"categories_segments":[],"categories_sizes":[],"default_left":[0,0,0,0,0,0,0,0,0,0,0,0,0,0,0,0,0,0,0,0,0,0,0,0,0,0,0,0,0,0,0,0,0,0,0,0,0,0,0,0,0,0,0,0,0,0,0,0,0,0,0,0,0,0,0],"id":3,"left_children":[1,3,5,7,9,11,13,15,17,19,21,23,25,27,-1,29,31,33,35,37,-1,39,41,43,45,47,49,51,53,-1,-1,-1,-1,-1,-1,-1,-1,-1,-1,-1,-1,-1,-1,-1,-1,-1,-1,-1,-1,-1,-1,-1,-1,-1,-1],"loss_changes":[1.9472037E3,4.7739453E2,1.5572949E2,1.0711578E2,1.0192566E1,1.1475891E1,4.843872E0,4.989569E1,5.512541E1,7.491529E0,7.804138E0,2.495575E0,1.8131958E1,1.1740845E1,0E0,8.917517E0,3.279602E1,4.095148E0,1.8965424E1,5.577465E0,0E0,4.3868256E0,3.1000824E0,2.492052E0,2.2292786E0,4.8327866E0,4.733383E0,7.5607505E0,2.8215866E0,0E0,0E0,0E0,0E0,0E0,0E0,0E0,0E0,0E0,0E0,0E0,0E0,0E0,0E0,0E0,0E0,0E0,0E0,0E0,0E0,0E0,0E0,0E0,0E0,0E0,0E0],"parents":[2147483647,0,0,1,1,2,2,3,3,4,4,5,5,6,6,7,7,8,8,9,9,10,10,11,11,12,12,13,13,15,15,16,16,17,17,18,18,19,19,21,21,22,22,23,23,24,24,25,25,26,26,27,27,28,28],"right_children":[2,4,6,8,10,12,14,16,18,20,22,24,26,28,-1,30,32,34,36,38,-1,40,42,44,46,48,50,52,54,-1,-1,-1,-1,-1,-1,-1,-1,-1,-1,-1,-1,-1,-1,-1,-1,-1,-1,-1,-1,-1,-1,-1,-1,-1,-1],"split_conditions":[8.351982E-2,1E0,1.8209808E-1,2.4998501E-2,8.333308E-3,1.0000608E0,1E0,5.85343E-6,1.436311E-4,6.0417233E-3,2E0,1.8460343E-2,1.8431847E0,2.1079933E-2,2.7030343E-2,2.4969622E-3,7.906603E-3,5.810459E-2,7.906603E-3,2.3469587E-5,-2.7940895E-3,1.2998232E-1,3.486248E-2,1.6697653E-2,1E0,1.6671869E-1,9.571098E-2,1.0002762E0,1.0000285E0,-8.739643E-3,-2.4613058E-3,-7.436336E-3,2.8667557E-3,8.034478E-5,2.4178703E-3,-4.3318155E-3,5.0860588E-3,4.307638E-3,1.6909637E-2,1.1898072E-2,2.1312999E-2,3.7104108E-3,1.0434246E-2,1.3864353E-2,2.7273728E-3,1.4704493E-2,2.2111062E-2,1.015918E-2,4.5036376E-3,2.0137466E-2,5.549235E-4,1.435595E-2,-4.4212774E-3,7.973632E-3,2.710512E-2],"split_indices":[5,0,5,1,1,3,0,3,3,1,0,1,3,1,0,1,3,1,3,3,0,1,1,1,0,5,1,3,3,0,0,0,0,0,0,0,0,0,0,0,0,0,0,0,0,0,0,0,0,0,0,0,0,0,0],"split_type":[0,0,0,0,0,0,0,0,0,0,0,0,0,0,0,0,0,0,0,0,0,0,0,0,0,0,0,0,0,0,0,0,0,0,0,0,0,0,0,0,0,0,0,0,0,0,0,0,0,0,0,0,0,0,0],"sum_hessian":[3.4523545E3,3.0841643E3,3.6819012E2,2.8737136E3,2.1045084E2,1.6631328E2,2.0187685E2,1.811617E3,1.0620967E3,2.6412222E1,1.840386E2,5.8682877E1,1.0763041E2,2.073924E1,1.811376E2,3.3473154E2,1.4768854E3,3.5621436E2,7.058823E2,1.7678656E1,8.733565E0,1.5331976E2,3.071885E1,1.9539204E1,3.9143673E1,8.5537544E1,2.209286E1,7.9082494E0,1.283099E1,2.3643892E1,3.1108765E2,1.4458042E3,3.1081177E1,2.501644E2,1.0604995E2,6.846156E2,2.1266685E1,1.329444E1,4.384216E0,1.4733255E2,5.9872127E0,1.9030497E1,1.1688352E1,1.6636261E1,2.9029431E0,2.0709341E1,1.8434332E1,6.246917E1,2.3068377E1,2.0723125E1,1.3697324E0,5.219354E0,2.6888952E0,1.9475988E0,1.0883391E1],"tree_param":{"num_deleted":"0","num_feature":"6","num_nodes":"55","size_leaf_vector":"1"}},{"base_weights":[-1.2300883E-1,-3.8474095E-1,2.0611866E0,-4.8585227E-1,9.834261E-1,1.3247833E0,2.6229732E0,-6.316155E-1,-2.4048886E-1,4.3696412E-1,1.0656129E0,1.2171812E0,1.899635E0,2.211996E0,2.7209523E0,-2.9774255E-1,-7.092916E-1,6.823785E-2,-3.9109367E-1,7.622943E-1,-3.4201232E-1,1.1749654E0,5.761056E-1,1.3891221E0,8.422169E-1,2.0249136E-2,-2.7376062E-3,1.7154002E0,2.5540048E-2,6.3608065E-3,2.732183E0,-3.220801E-3,9.74509E-3,-7.387537E-3,4.8079104E-3,3.8834775E-4,6.2807673E-3,-4.20901E-3,4.7963248E-3,3.8066085E-3,1.5118607E-2,-6.0284524E-3,3.7773752E-3,1.0954616E-2,2.6801057E-2,-4.3675373E-4,1.4501632E-2,1.0362551E-2,1.571363E-2,4.698898E-3,1.6164338E-2,2.0130187E-2,1.1707304E-2,2.7429905E-2,8.657964E-3],"categories":[],"categories_nodes":[],"categories_segments":[],"categories_sizes":[],"default_left":[0,0,0,0,0,0,0,0,0,0,0,0,0,0,0,0,0,0,0,0,0,0,0,0,0,0,0,0,0,0,0,0,0,0,0,0,0,0,0,0,0,0,0,0,0,0,0,0,0,0,0,0,0,0,0],"id":4,"left_children":[1,3,5,7,9,11,13,15,17,19,21,23,25,27,29,31,33,35,37,39,41,43,45,47,49,-1,-1,51,-1,-1,53,-1,-1,-1,-1,-1,-1,-1,-1,-1,-1,-1,-1,-1,-1,-1,-1,-1,-1,-1,-1,-1,-1,-1,-1],"loss_changes":[1.9675316E3,4.255904E2,1.488899E2,1.0221509E2,9.047028E0,7.671173E0,2.3526611E0,4.6338196E1,4.9697636E1,7.7077837E0,9.141373E0,7.774521E0,6.9976273E0,3.3242188E0,2.0908203E0,1.0856888E1,5.1385803E1,5.7554E0,1.8841286E1,5.442724E0,1.982541E0,1.4889969E1,1.9270088E1,4.3894043E0,1.2545673E1,0E0,0E0,1.1363373E0,0E0,0E0,8.9990234E-1,0E0,0E0,0E0,0E0,0E0,0E0,0E0,0E0,0E0,0E0,0E0,0E0,0E0,0E0,0E0,0E0,0E0,0E0,0E0,0E0,0E0,0E0,0E0,0E0],"parents":[2147483647,0,0,1,1,2,2,3,3,4,4,5,5,6,6,7,7,8,8,9,9,10,10,11,11,12,12,13,13,14,14,15,15,16,16,17,17,18,18,19,19,20,20,21,21,22,22,23,23,24,24,27,27,30,30],"right_children":[2,4,6,8,10,12,14,16,18,20,22,24,26,28,30,32,34,36,38,40,42,44,46,48,50,-1,-1,52,-1,-1,54,-1,-1,-1,-1,-1,-1,-1,-1,-1,-1,-1,-1,-1,-1,-1,-1,-1,-1,-1,-1,-1,-1,-1,-1],"split_conditions":[9.097052E-2,1E0,1.8209808E-1,2.4998501E-2,8.133388E-3,1.8431847E0,2.2929747E-1,5.85343E-6,1.3455235E-4,6.0417233E-3,3.4228188E-4,1.0002762E0,1.2393194E-1,2.3162467E-2,2.2390904E-3,9.944E-7,7.906603E-3,2.19282E-5,7.906603E-3,1.67271E-5,4.31389E-5,2.907623E-4,5.3172205E-3,1.9219862E-2,1E0,2.0249136E-2,-2.7376062E-3,1.0002762E0,2.5540048E-2,6.3608065E-3,2.3716187E-1,-3.220801E-3,9.74509E-3,-7.387537E-3,4.8079104E-3,3.8834775E-4,6.2807673E-3,-4.20901E-3,4.7963248E-3,3.8066085E-3,1.5118607E-2,-6.0284524E-3,3.7773752E-3,1.0954616E-2,2.6801057E-2,-4.3675373E-4,1.4501632E-2,1.0362551E-2,1.571363E-2,4.698898E-3,1.6164338E-2,2.0130187E-2,1.1707304E-2,2.7429905E-2,8.657964E-3],"split_indices":[5,0,5,1,1,3,5,3,3,1,3,3,1,1,1,5,3,5,3,5,5,3,3,1,0,0,0,3,0,0,1,0,0,0,0,0,0,0,0,0,0,0,0,0,0,0,0,0,0,0,0,0,0,0,0],"split_type":[0,0,0,0,0,0,0,0,0,0,0,0,0,0,0,0,0,0,0,0,0,0,0,0,0,0,0,0,0,0,0,0,0,0,0,0,0,0,0,0,0,0,0,0,0,0,0,0,0,0,0,0,0,0,0],"sum_hessian":[3.4393145E3,3.0720183E3,3.672961E2,2.861212E3,2.1080653E2,1.6039925E2,2.0689687E2,1.7939213E3,1.0672906E3,2.8385748E1,1.8242078E2,1.3773505E2,2.2664196E1,4.436833E1,1.6252853E2,3.3949814E2,1.4544231E3,3.5012067E2,7.171699E2,2.0038376E1,8.347372E0,1.4796594E2,3.445485E1,9.257835E1,4.5156704E1,2.1493584E1,1.1706116E0,2.0548145E1,2.3820185E1,1.1796181E0,1.6134892E2,3.3385843E2,5.6397114E0,1.4196567E3,3.4766323E1,3.336657E2,1.6454956E1,6.9393134E2,2.3238565E1,1.427716E1,5.761216E0,6.246208E0,2.1011634E0,1.4218341E2,5.78253E0,2.0715694E1,1.3739153E1,3.380639E1,5.8771957E1,3.1577675E1,1.357903E1,1.15442705E1,9.003874E0,1.5995302E2,1.3959087E0],"tree_param":{"num_deleted":"0","num_feature":"6","num_nodes":"55","size_leaf_vector":"1"}},{"base_weights":[-1.2314538E-1,-3.8106218E-1,2.0093472E0,-6.2106556E-1,-1.3525179E-1,1.3945929E0,2.5183384E0,-1.9059122E-1,-7.537941E-1,2.0963761E-1,-3.3157572E-1,1.2723122E0,2.000482E0,1.2997923E0,2.5409622E0,-4.3077546E-1,-4.190024E-2,-7.844708E-1,3.3372012E-1,1.71827E-1,1.3213618E0,-3.934824E-1,9.39228E-1,1.5280906E0,1.0176233E0,7.239347E-1,2.1873648E0,1.596639E-2,3.1838794E-3,2.46825E0,3.1520788E-2,-9.960362E-3,-3.4052976E-3,-1.2633122E-4,-4.137873E-3,-6.4789127E-3,-9.3218E-3,1.1829779E-2,-1.1070817E-3,-8.404362E-4,2.7765548E-3,1.4995883E-2,-7.1251057E-3,-1.533228E-3,-4.9512833E-3,1.4463796E-2,1.7275164E-3,9.88377E-3,1.733924E-2,8.9008855E-3,1.8071046E-2,-2.850784E-3,1.1167676E-2,2.2455193E-2,6.125323E-3,1.9493377E-2,2.5338007E-2],"categories":[],"categories_nodes":[],"categories_segments":[],"categories_sizes":[],"default_left":[0,0,0,0,0,0,0,0,0,0,0,0,0,0,0,0,0,0,0,0,0,0,0,0,0,0,0,0,0,0,0,0,0,0,0,0,0,0,0,0,0,0,0,0,0,0,0,0,0,0,0,0,0,0,0,0,0],"id":5,"left_children":[1,3,5,7,9,11,13,15,17,19,21,23,25,27,29,31,33,35,37,39,41,43,45,47,49,51,53,-1,-1,55,-1,-1,-1,-1,-1,-1,-1,-1,-1,-1,-1,-1,-1,-1,-1,-1,-1,-1,-1,-1,-1,-1,-1,-1,-1,-1,-1],"loss_changes":[1.9048333E3,1.821654E2,1.1341626E2,8.91485E1,1.034915E2,1.0160919E1,2.2988281E0,1.3182913E1,4.0100464E1,2.3089016E1,7.697508E1,7.9199524E0,4.8702316E0,1.1670341E0,1.0374756E0,6.8651714E0,2.491688E0,2.2832153E1,1.2760782E1,1.4580342E1,7.6278057E0,2.2607376E1,1.744748E1,6.126465E0,6.0308075E0,2.2801487E0,7.4040985E-1,0E0,0E0,1.2497559E0,0E0,0E0,0E0,0E0,0E0,0E0,0E0,0E0,0E0,0E0,0E0,0E0,0E0,0E0,0E0,0E0,0E0,0E0,0E0,0E0,0E0,0E0,0E0,0E0,0E0,0E0,0E0],"parents":[2147483647,0,0,1,1,2,2,3,3,4,4,5,5,6,6,7,7,8,8,9,9,10,10,11,11,12,12,13,13,14,14,15,15,16,16,17,17,18,18,19,19,20,20,21,21,22,22,23,23,24,24,25,25,26,26,29,29],"right_children":[2,4,6,8,10,12,14,16,18,20,22,24,26,28,30,32,34,36,38,40,42,44,46,48,50,52,54,-1,-1,56,-1,-1,-1,-1,-1,-1,-1,-1,-1,-1,-1,-1,-1,-1,-1,-1,-1,-1,-1,-1,-1,-1,-1,-1,-1,-1,-1],"split_conditions":[9.097052E-2,7.487738E-2,2.0000684E-1,2.1065936E-5,1.3455235E-4,1.8431847E0,4.63594E1,2.9626168E-2,1.212E-1,3.550536E-1,1.212E-1,1.0000975E0,5.88875E1,1.0011063E0,3.1268114E-1,7.7494388E-3,5.85343E-6,4.84604E-5,4.393673E-1,1.0337763E-1,7.8E-3,3.1749325E-4,1.0003352E0,6.2587E1,2.4960186E-1,9.61064E-2,1.8209808E-1,1.596639E-2,3.1838794E-3,8.66236E1,3.1520788E-2,-9.960362E-3,-3.4052976E-3,-1.2633122E-4,-4.137873E-3,-6.4789127E-3,-9.3218E-3,1.1829779E-2,-1.1070817E-3,-8.404362E-4,2.7765548E-3,1.4995883E-2,-7.1251057E-3,-1.533228E-3,-4.9512833E-3,1.4463796E-2,1.7275164E-3,9.88377E-3,1.733924E-2,8.9008855E-3,1.8071046E-2,-2.850784E-3,1.1167676E-2,2.2455193E-2,6.125323E-3,1.9493377E-2,2.5338007E-2],"split_indices":[5,2,5,3,3,3,4,2,4,2,4,3,4,3,2,2,3,5,3,2,4,3,3,4,2,2,5,0,0,4,0,0,0,0,0,0,0,0,0,0,0,0,0,0,0,0,0,0,0,0,0,0,0,0,0,0,0],"split_type":[0,0,0,0,0,0,0,0,0,0,0,0,0,0,0,0,0,0,0,0,0,0,0,0,0,0,0,0,0,0,0,0,0,0,0,0,0,0,0,0,0,0,0,0,0,0,0,0,0,0,0,0,0,0,0,0,0],"sum_hessian":[3.4609053E3,3.0882185E3,3.7268686E2,1.5617938E3,1.5264247E3,1.704994E2,2.0218747E2,3.6863788E2,1.1931559E3,5.5368256E2,9.727422E2,1.4444698E2,2.605243E1,4.750881E0,1.9743658E2,1.4022762E2,2.2841026E2,1.1606936E3,3.2462303E1,5.365874E2,1.70952E1,9.282149E2,4.4527245E1,6.9574745E1,7.487223E1,3.9493282E0,2.2103102E1,3.1662798E0,1.5846013E0,1.8094614E2,1.6490458E1,1.792377E1,1.2230384E2,2.127046E2,1.5705655E1,6.058656E2,5.54828E2,1.0581096E1,2.1881207E1,1.5705876E2,3.7952863E2,1.5959384E1,1.1358147E0,2.76778E2,6.514369E2,2.6262907E1,1.8264336E1,2.0810257E1,4.8764484E1,6.629088E1,8.581356E0,1.1835682E0,2.76576E0,2.0905247E1,1.1978548E0,2.3741497E1,1.5720464E2],"tree_param":{"num_deleted":"0","num_feature":"6","num_nodes":"57","size_leaf_vector":"1"}},{"base_weights":[-1.1870282E-1,-3.7007648E-1,1.9441699E0,-4.7138557E-1,9.95013E-1,1.2831951E0,2.420454E0,-5.890172E-1,-1.7404816E-1,3.7890172E-1,1.0814193E0,7.951116E-1,1.4495901E0,2.2965229E0,2.837386E0,-4.6450478E-1,-7.7021164E-1,1.0534664E-1,-3.2253063E-1,6.4275E-1,-1.7069918E-1,1.1490538E0,7.334585E-1,6.317701E-2,1.0791652E0,4.9859935E-1,1.5030788E0,1.4231994E0,2.3703523E0,2.9115107E-2,1.1926255E0,-5.1121516E-3,7.7092256E-3,-8.187364E-3,2.45655E-3,-1.2512209E-3,1.7008627E-3,-3.616704E-3,6.597669E-3,3.1012883E-3,1.4833946E-2,-6.592354E-3,8.518066E-4,1.22680515E-2,7.1809315E-3,3.7088767E-3,1.2051882E-2,6.56936E-3,-6.6762515E-3,1.3322377E-2,4.441707E-3,1.6555445E-2,-1.259805E-3,1.3186014E-2,1.792817E-2,1.5846966E-2,-2.9791987E-3,1.4652713E-2,2.4559246E-2,-1.941235E-3,1.7953679E-2],"categories":[],"categories_nodes":[],"categories_segments":[],"categories_sizes":[],"default_left":[0,0,0,0,0,0,0,0,0,0,0,0,0,0,0,0,0,0,0,0,0,0,0,0,0,0,0,0,0,0,0,0,0,0,0,0,0,0,0,0,0,0,0,0,0,0,0,0,0,0,0,0,0,0,0,0,0,0,0,0,0],"id":6,"left_children":[1,3,5,7,9,11,13,15,17,19,21,23,25,27,29,31,33,35,37,39,41,43,45,47,49,51,53,55,57,-1,59,-1,-1,-1,-1,-1,-1,-1,-1,-1,-1,-1,-1,-1,-1,-1,-1,-1,-1,-1,-1,-1,-1,-1,-1,-1,-1,-1,-1,-1,-1],"loss_changes":[1.7731238E3,4.2193506E2,1.1382202E2,9.91496E1,1.081604E1,1.1653351E1,4.579834E0,4.55058E1,3.3463776E1,4.0939302E0,3.4967499E0,8.727087E0,5.1703186E0,7.6380615E0,2.0089417E0,7.007089E1,4.09411E1,4.204856E0,2.0478321E1,4.789264E0,1.2689605E0,4.2329865E0,5.158392E0,6.031626E0,4.2957687E0,5.767887E0,3.4985504E0,4.8679657E0,8.48114E0,0E0,3.3848734E0,0E0,0E0,0E0,0E0,0E0,0E0,0E0,0E0,0E0,0E0,0E0,0E0,0E0,0E0,0E0,0E0,0E0,0E0,0E0,0E0,0E0,0E0,0E0,0E0,0E0,0E0,0E0,0E0,0E0,0E0],"parents":[2147483647,0,0,1,1,2,2,3,3,4,4,5,5,6,6,7,7,8,8,9,9,10,10,11,11,12,12,13,13,14,14,15,15,16,16,17,17,18,18,19,19,20,20,21,21,22,22,23,23,24,24,25,25,26,26,27,27,28,28,30,30],"right_children":[2,4,6,8,10,12,14,16,18,20,22,24,26,28,30,32,34,36,38,40,42,44,46,48,50,52,54,56,58,-1,60,-1,-1,-1,-1,-1,-1,-1,-1,-1,-1,-1,-1,-1,-1,-1,-1,-1,-1,-1,-1,-1,-1,-1,-1,-1,-1,-1,-1,-1,-1],"split_conditions":[9.097052E-2,1E0,1.8209808E-1,3.245874E-2,8.225314E-3,5.88875E1,6.693067E-2,4.84604E-5,2.63443E-5,6.0417233E-3,2E0,2.199483E-2,5.9509855E-3,7.0525E1,3E0,4.61261E-5,1.212E-1,3.9581176E-2,1.212E-1,1.05E-2,6.7526E-3,3E-2,3.486248E-2,1.3216662E-2,1.6671869E-1,3.2300192E-3,1E0,6.1101943E-2,1E0,2.9115107E-2,1.105057E2,-5.1121516E-3,7.7092256E-3,-8.187364E-3,2.45655E-3,-1.2512209E-3,1.7008627E-3,-3.616704E-3,6.597669E-3,3.1012883E-3,1.4833946E-2,-6.592354E-3,8.518066E-4,1.22680515E-2,7.1809315E-3,3.7088767E-3,1.2051882E-2,6.56936E-3,-6.6762515E-3,1.3322377E-2,4.441707E-3,1.6555445E-2,-1.259805E-3,1.3186014E-2,1.792817E-2,1.5846966E-2,-2.9791987E-3,1.4652713E-2,2.4559246E-2,-1.941235E-3,1.7953679E-2],"split_indices":[5,0,5,1,1,4,1,5,5,1,0,1,1,4,0,5,4,1,4,4,1,4,1,1,5,1,0,1,0,0,4,0,0,0,0,0,0,0,0,0,0,0,0,0,0,0,0,0,0,0,0,0,0,0,0,0,0,0,0,0,0],"split_type":[0,0,0,0,0,0,0,0,0,0,0,0,0,0,0,0,0,0,0,0,0,0,0,0,0,0,0,0,0,0,0,0,0,0,0,0,0,0,0,0,0,0,0,0,0,0,0,0,0,0,0,0,0,0,0,0,0,0,0,0,0],"sum_hessian":[3.416988E3,3.046566E3,3.7042212E2,2.8366973E3,2.0986864E2,1.5667995E2,2.1374217E2,2.0318733E3,8.048241E2,2.6475199E1,1.8339343E2,4.1303505E1,1.1537644E2,1.6978311E2,4.3959057E1,1.2064165E3,8.2545685E2,2.793918E2,5.2543225E2,1.777326E1,8.70194E0,1.5162022E2,3.1773212E1,1.1889551E1,2.9413956E1,6.6934457E0,1.08683E2,1.4814927E1,1.5496819E2,4.1326416E1,2.632639E0,1.1630295E3,4.33869E1,7.880101E2,3.7446774E1,6.1066486E1,2.1832532E2,5.0590616E2,1.9526098E1,1.3715364E1,4.0578957E0,2.4492958E0,6.2526436E0,1.26882195E2,2.4738035E1,1.8975159E1,1.2798054E1,6.6156073E0,5.2739444E0,2.0246737E1,9.167219E0,1.7679385E0,4.9255075E0,6.979517E1,3.888782E1,1.3616517E1,1.1984107E0,1.4951612E1,1.4001659E2,1.0029808E0,1.629658E0],"tree_param":{"num_deleted":"0","num_feature":"6","num_nodes":"61","size_leaf_vector":"1"}},{"base_weights":[-1.2257533E-1,-3.769594E-1,1.971957E0,-6.278381E-1,-1.315867E-1,1.3709222E0,2.4477427E0,-2.1375215E-1,-7.3822683E-1,2.423971E-1,-3.3756647E-1,1.2369776E0,2.0740917E0,1.6355902E0,2.493762E0,-4.9837375E-1,-4.447221E-2,-7.678433E-1,3.3722988E-1,-6.0822563E-3,4.6468323E-1,-3.9626905E-1,8.62671E-1,1.1274393E0,1.8557664E0,2.1624155E-2,1.6140945E-3,1.1643728E0,2.3265416E-2,4.3575424E-3,2.506557E0,-1.01782745E-2,-4.063906E-3,1.5932245E-3,-1.9329952E-3,-6.4034965E-3,-9.152845E-3,1.1624958E-2,-6.8946596E-4,2.4814596E-3,-6.9750776E-4,3.9956244E-3,1.8228188E-2,-5.097504E-3,-2.471787E-3,1.25375325E-2,3.3928102E-3,1.2702742E-2,8.0941245E-3,1.986568E-2,6.982252E-3,6.848444E-3,1.5608677E-2,2.3782061E-2,2.8551456E-2],"categories":[],"categories_nodes":[],"categories_segments":[],"categories_sizes":[],"default_left":[0,0,0,0,0,0,0,0,0,0,0,0,0,0,0,0,0,0,0,0,0,0,0,0,0,0,0,0,0,0,0,0,0,0,0,0,0,0,0,0,0,0,0,0,0,0,0,0,0,0,0,0,0,0,0],"id":7,"left_children":[1,3,5,7,9,11,13,15,17,19,21,23,25,27,29,31,33,35,37,39,41,43,45,47,49,-1,-1,51,-1,-1,53,-1,-1,-1,-1,-1,-1,-1,-1,-1,-1,-1,-1,-1,-1,-1,-1,-1,-1,-1,-1,-1,-1,-1,-1],"loss_changes":[1.8328912E3,1.8872162E2,1.0318225E2,6.915051E1,1.1962243E2,1.3152588E1,3.6455078E0,1.542168E1,3.837567E1,3.0476376E1,7.0875435E1,7.577362E0,3.9123993E0,1.845581E0,4.0078125E0,5.293585E0,6.160361E0,2.1312317E1,1.1063834E1,4.2500234E0,2.5028244E1,1.6033173E1,9.19376E0,4.5933075E0,1.6270981E0,0E0,0E0,8.9293957E-1,0E0,0E0,1.8125E0,0E0,0E0,0E0,0E0,0E0,0E0,0E0,0E0,0E0,0E0,0E0,0E0,0E0,0E0,0E0,0E0,0E0,0E0,0E0,0E0,0E0,0E0,0E0,0E0],"parents":[2147483647,0,0,1,1,2,2,3,3,4,4,5,5,6,6,7,7,8,8,9,9,10,10,11,11,12,12,13,13,14,14,15,15,16,16,17,17,18,18,19,19,20,20,21,21,22,22,23,23,24,24,27,27,30,30],"right_children":[2,4,6,8,10,12,14,16,18,20,22,24,26,28,30,32,34,36,38,40,42,44,46,48,50,-1,-1,52,-1,-1,54,-1,-1,-1,-1,-1,-1,-1,-1,-1,-1,-1,-1,-1,-1,-1,-1,-1,-1,-1,-1,-1,-1,-1,-1],"split_conditions":[9.097052E-2,7.396779E-2,2.0000684E-1,5.85343E-6,1.3208431E-4,1.8431847E0,1.0000975E0,2.9626168E-2,7.906603E-3,3.245874E-2,7.906603E-3,2.391444E-1,1.2393194E-1,2.500357E-1,2.8786666E-3,7.7494388E-3,1.1335005E-2,4.84604E-5,4.393673E-1,8.5159756E-2,2.1609E-5,1.5042607E-1,1.0000608E0,1.0002762E0,1.0011063E0,2.1624155E-2,1.6140945E-3,2.4998501E-2,2.3265416E-2,4.3575424E-3,6.2362175E-2,-1.01782745E-2,-4.063906E-3,1.5932245E-3,-1.9329952E-3,-6.4034965E-3,-9.152845E-3,1.1624958E-2,-6.8946596E-4,2.4814596E-3,-6.9750776E-4,3.9956244E-3,1.8228188E-2,-5.097504E-3,-2.471787E-3,1.25375325E-2,3.3928102E-3,1.2702742E-2,8.0941245E-3,1.986568E-2,6.982252E-3,6.848444E-3,1.5608677E-2,2.3782061E-2,2.8551456E-2],"split_indices":[5,2,5,3,3,3,3,2,3,1,3,2,1,5,1,2,1,5,3,2,5,2,3,3,3,0,0,1,0,0,1,0,0,0,0,0,0,0,0,0,0,0,0,0,0,0,0,0,0,0,0,0,0,0,0],"split_type":[0,0,0,0,0,0,0,0,0,0,0,0,0,0,0,0,0,0,0,0,0,0,0,0,0,0,0,0,0,0,0,0,0,0,0,0,0,0,0,0,0,0,0,0,0,0,0,0,0,0,0,0,0,0,0],"sum_hessian":[3.4376145E3,3.0660571E3,3.7155722E2,1.5152489E3,1.5508083E3,1.6588498E2,2.0567224E2,3.1953986E2,1.1957091E3,5.5072205E2,1.0000863E3,1.4165976E2,2.422522E1,1.2988653E1,1.926836E2,1.1844549E2,2.0109436E2,1.1639419E3,3.1767197E1,2.604993E2,2.9022275E2,9.540923E2,4.5993996E1,1.2275213E2,1.890763E1,2.3031122E1,1.1940966E0,9.318657E0,3.6699963E0,1.4071413E0,1.9127646E2,1.6304447E1,1.02141045E2,8.484393E1,1.1625042E2,6.270606E2,5.368812E2,9.863853E0,2.1903343E1,5.1592625E1,2.0890668E2,2.7817865E2,1.2044096E1,5.403679E2,4.1372443E2,2.552558E1,2.0468416E1,8.264131E1,4.0110817E1,1.6344511E1,2.5631201E0,5.4520683E0,3.8665886E0,1.4551877E2,4.575769E1],"tree_param":{"num_deleted":"0","num_feature":"6","num_nodes":"55","size_leaf_vector":"1"}},{"base_weights":[-1.1779785E-1,-3.7120864E-1,1.9450983E0,-6.4119E-1,-1.5562408E-1,1.3221458E0,2.3867805E0,-2.218959E-1,-7.582807E-1,1.5592673E-1,-3.383023E-1,1.2509307E0,2.0398593E0,1.9566008E0,2.4994445E0,-4.143125E-1,-8.156672E-2,-7.9096925E-1,4.5648184E-1,-6.2954593E-3,3.6899945E-1,-3.9353243E-1,8.63769E-1,1.1636648E0,1.5492104E0,7.3616207E-3,2.216616E-2,1.3183317E0,2.4744121E-2,2.9903706E-3,2.5108434E-2,-4.52017E-3,6.3936566E-3,1.6404323E-3,-2.971244E-3,-6.5640216E-3,-9.469765E-3,-6.574495E-3,8.326201E-3,9.807568E-3,-3.3539775E-4,3.3150013E-3,1.9154651E-2,-1.8584932E-3,-4.847972E-3,1.3439572E-2,2.3197471E-3,1.2461336E-2,7.491185E-3,1.681932E-2,1.0878108E-3,1.503871E-2,4.374953E-3],"categories":[],"categories_nodes":[],"categories_segments":[],"categories_sizes":[],"default_left":[0,0,0,0,0,0,0,0,0,0,0,0,0,0,0,0,0,0,0,0,0,0,0,0,0,0,0,0,0,0,0,0,0,0,0,0,0,0,0,0,0,0,0,0,0,0,0,0,0,0,0,0,0],"id":8,"left_children":[1,3,5,7,9,11,13,15,17,19,21,23,25,27,29,31,33,35,37,39,41,43,45,47,49,-1,-1,51,-1,-1,-1,-1,-1,-1,-1,-1,-1,-1,-1,-1,-1,-1,-1,-1,-1,-1,-1,-1,-1,-1,-1,-1,-1],"loss_changes":[1.7919697E3,1.7756662E2,1.0003308E2,6.635321E1,9.672304E1,5.5152893E0,5.6849365E0,7.9908905E0,4.2402832E1,2.1726698E1,7.144686E1,2.001999E0,1.2858772E0,1.3226944E1,3.4958496E0,5.2586327E0,9.213311E0,2.1030457E1,1.2437492E1,9.655115E0,1.5120689E1,1.9331818E1,1.40566635E1,3.0699005E0,5.564987E0,0E0,0E0,3.3438873E0,0E0,0E0,0E0,0E0,0E0,0E0,0E0,0E0,0E0,0E0,0E0,0E0,0E0,0E0,0E0,0E0,0E0,0E0,0E0,0E0,0E0,0E0,0E0,0E0,0E0],"parents":[2147483647,0,0,1,1,2,2,3,3,4,4,5,5,6,6,7,7,8,8,9,9,10,10,11,11,12,12,13,13,14,14,15,15,16,16,17,17,18,18,19,19,20,20,21,21,22,22,23,23,24,24,27,27],"right_children":[2,4,6,8,10,12,14,16,18,20,22,24,26,28,30,32,34,36,38,40,42,44,46,48,50,-1,-1,52,-1,-1,-1,-1,-1,-1,-1,-1,-1,-1,-1,-1,-1,-1,-1,-1,-1,-1,-1,-1,-1,-1,-1,-1,-1],"split_conditions":[9.097052E-2,6.408893E-2,1.8209808E-1,1.2698412E-5,1.3455235E-4,2.8792876E-1,2.2929747E-1,2.9626168E-2,7.906603E-3,3.5897758E-2,1.2232459E-1,1.0812637E0,4.616717E-2,1.1528676E-1,2.105242E-3,2.053E-6,1.1335005E-2,3.2937806E-4,2.081992E-2,6.5286584E-2,2.68749E-5,3.1749325E-4,1.0003352E0,1.0003937E0,2.1548659E-1,7.3616207E-3,2.216616E-2,9.701568E-2,2.4744121E-2,2.9903706E-3,2.5108434E-2,-4.52017E-3,6.3936566E-3,1.6404323E-3,-2.971244E-3,-6.5640216E-3,-9.469765E-3,-6.574495E-3,8.326201E-3,9.807568E-3,-3.3539775E-4,3.3150013E-3,1.9154651E-2,-1.8584932E-3,-4.847972E-3,1.3439572E-2,2.3197471E-3,1.2461336E-2,7.491185E-3,1.681932E-2,1.0878108E-3,1.503871E-2,4.374953E-3],"split_indices":[5,2,5,3,3,2,5,2,3,1,3,3,1,2,1,5,1,3,2,2,5,3,3,3,2,0,0,2,0,0,0,0,0,0,0,0,0,0,0,0,0,0,0,0,0,0,0,0,0,0,0,0,0],"split_type":[0,0,0,0,0,0,0,0,0,0,0,0,0,0,0,0,0,0,0,0,0,0,0,0,0,0,0,0,0,0,0,0,0,0,0,0,0,0,0,0,0,0,0,0,0,0,0,0,0,0,0,0,0],"sum_hessian":[3.4255195E3,3.0514878E3,3.7403156E2,1.353942E3,1.6975459E3,1.5683025E2,2.172013E2,2.9619223E2,1.0577498E3,6.2750555E2,1.0700404E3,1.4516882E2,1.1661433E1,4.889069E1,1.6831061E2,1.2409003E2,1.7210222E2,1.030372E3,2.7377829E1,3.568156E2,2.7068994E2,1.02367926E3,4.6361122E1,1.1610263E2,2.9066183E1,2.0089486E0,9.652485E0,2.3486507E1,2.540418E1,1.0077839E0,1.6730283E2,1.2035432E2,3.7357132E0,8.0555244E1,9.1546974E1,5.559951E2,4.7437674E2,6.722194E0,2.0655636E1,8.644103E0,3.481715E2,2.6546713E2,5.2227874E0,3.1344247E2,7.102368E2,2.5700521E1,2.0660603E1,9.516476E1,2.0937872E1,2.6460447E1,2.6057365E0,1.881582E1,4.6706877E0],"tree_param":{"num_deleted":"0","num_feature":"6","num_nodes":"53","size_leaf_vector":"1"}},{"base_weights":[-1.1513738E-1,-3.8849494E-1,1.6486717E0,-4.844942E-1,9.748784E-1,1.0048916E0,2.0963714E0,-6.812326E-1,-2.7535465E-1,9.244288E-1,2.173059E0,8.6862755E-1,1.8735017E0,1.6038173E0,2.33197E0,-2.926178E-1,-7.9001105E-1,2.651602E-2,-4.3079248E-1,9.906892E-1,3.3049306E-1,4.4792206E-3,2.7376644E-2,-1.399379E-1,9.3910074E-1,1.400536E0,2.2069847E-2,1.6546075E0,-3.131735E-3,2.9733884E-3,2.341754E0,-5.1379236E-3,-1.4065339E-3,-9.299402E-3,-6.629333E-3,-9.445128E-4,2.3097843E-3,-4.5385435E-3,2.386228E-3,9.19698E-3,2.310231E-2,1.5004612E-2,1.0115374E-3,3.320455E-3,-4.8052166E-3,1.2046329E-2,6.4788014E-3,1.8078601E-2,-5.799419E-3,1.0566553E-2,1.7090466E-2,2.2298532E-2,2.7120395E-2],"categories":[],"categories_nodes":[],"categories_segments":[],"categories_sizes":[],"default_left":[0,0,0,0,0,0,0,0,0,0,0,0,0,0,0,0,0,0,0,0,0,0,0,0,0,0,0,0,0,0,0,0,0,0,0,0,0,0,0,0,0,0,0,0,0,0,0,0,0,0,0,0,0],"id":9,"left_children":[1,3,5,7,9,11,13,15,17,19,21,23,25,27,29,31,33,35,37,39,41,-1,-1,43,45,47,-1,49,-1,-1,51,-1,-1,-1,-1,-1,-1,-1,-1,-1,-1,-1,-1,-1,-1,-1,-1,-1,-1,-1,-1,-1,-1],"loss_changes":[1.6506877E3,3.883904E2,1.3030408E2,1.1376807E2,9.796494E0,2.0903595E1,2.7597656E1,6.0067444E1,6.3081673E1,7.1163635E0,5.7384415E0,1.1959328E1,8.4412384E-1,9.337296E0,2.8963013E0,1.0466042E1,1.9190308E1,1.1345049E1,1.3806946E1,1.3768646E1,5.3445807E0,0E0,0E0,2.0465586E0,1.12574005E1,1.1578703E1,0E0,1.0717163E0,0E0,0E0,1.3886108E0,0E0,0E0,0E0,0E0,0E0,0E0,0E0,0E0,0E0,0E0,0E0,0E0,0E0,0E0,0E0,0E0,0E0,0E0,0E0,0E0,0E0,0E0],"parents":[2147483647,0,0,1,1,2,2,3,3,4,4,5,5,6,6,7,7,8,8,9,9,10,10,11,11,12,12,13,13,14,14,15,15,16,16,17,17,18,18,19,19,20,20,23,23,24,24,25,25,27,27,30,30],"right_children":[2,4,6,8,10,12,14,16,18,20,22,24,26,28,30,32,34,36,38,40,42,-1,-1,44,46,48,-1,50,-1,-1,52,-1,-1,-1,-1,-1,-1,-1,-1,-1,-1,-1,-1,-1,-1,-1,-1,-1,-1,-1,-1,-1,-1],"split_conditions":[7.906603E-3,1E0,1E0,7.487738E-2,3.550536E-1,2.3507647E-1,1.0019565E0,2.3469587E-5,1.3455235E-4,3.506209E-4,1.1787723E-1,2.278585E-2,8.509183E-2,1.0007468E0,2.105242E-3,2.9626168E-2,3.2169912E-2,1.5502787E-1,3.550536E-1,2.907623E-4,1.16109885E-2,4.4792206E-3,2.7376644E-2,1.3651275E-2,1.0002762E0,7.306309E-2,2.2069847E-2,3.4338377E-2,-3.131735E-3,2.9733884E-3,6.693067E-2,-5.1379236E-3,-1.4065339E-3,-9.299402E-3,-6.629333E-3,-9.445128E-4,2.3097843E-3,-4.5385435E-3,2.386228E-3,9.19698E-3,2.310231E-2,1.5004612E-2,1.0115374E-3,3.320455E-3,-4.8052166E-3,1.2046329E-2,6.4788014E-3,1.8078601E-2,-5.799419E-3,1.0566553E-2,1.7090466E-2,2.2298532E-2,2.7120395E-2],"split_indices":[3,0,0,2,2,2,3,3,3,3,1,2,1,3,1,2,2,2,2,3,1,0,0,2,3,1,0,2,0,0,1,0,0,0,0,0,0,0,0,0,0,0,0,0,0,0,0,0,0,0,0,0,0],"split_type":[0,0,0,0,0,0,0,0,0,0,0,0,0,0,0,0,0,0,0,0,0,0,0,0,0,0,0,0,0,0,0,0,0,0,0,0,0,0,0,0,0,0,0,0,0,0,0,0,0,0,0,0,0],"sum_hessian":[3.4212656E3,2.9628577E3,4.5840802E2,2.7685596E3,1.9429808E2,1.8935918E2,2.6904883E2,1.425412E3,1.3431476E3,1.8814763E2,6.1504593E0,1.654103E2,2.3948887E1,8.957868E1,1.7947015E2,3.1254062E2,1.1128713E3,4.5681387E2,8.8633374E2,1.6866327E2,1.948436E1,1.9587837E0,4.191675E0,1.0738752E1,1.5467154E2,1.2053548E1,1.1895339E1,8.7399925E1,2.1787636E0,1.0091094E0,1.7846104E2,1.2631545E2,1.8622516E2,5.266468E2,5.8622455E2,2.8734708E2,1.6946678E2,8.57127E2,2.9206709E1,1.6166281E2,7.000458E0,2.284993E0,1.7199366E1,4.5116057E0,6.227146E0,7.926341E1,7.540812E1,1.006968E1,1.9838679E0,8.996237E0,7.840369E1,1.424381E2,3.6022945E1],"tree_param":{"num_deleted":"0","num_feature":"6","num_nodes":"53","size_leaf_vector":"1"}},{"base_weights":[-1.0180746E-1,-3.787187E-1,1.7024584E0,9.173542E-2,-5.146141E-1,1.1615832E0,2.318802E0,-8.385092E-2,4.894695E-1,-7.337672E-1,-2.9138544E-1,7.245608E-1,1.4266716E0,2.1678746E0,2.7481131E-2,-4.012717E-1,2.1540876E-2,4.291511E-1,2.0041754E-2,-8.719485E-1,-5.8905756E-1,-7.340685E-2,-4.3962368E-1,-1.0294236E-1,9.4830716E-1,7.5469476E-1,1.5019172E0,2.20081E0,7.615045E-1,-8.741106E-3,-3.192601E-3,5.4836804E-3,-1.4516163E-5,-2.7342718E-3,4.9348176E-3,-7.554521E-3,-9.992437E-3,-4.3721045E-3,-7.549357E-3,-1.3247358E-3,1.6210992E-2,-5.2878335E-3,-2.7341046E-3,7.4598496E-3,-4.4022603E-3,6.660392E-3,1.2491209E-2,-3.3449288E-3,1.0352706E-2,1.5840555E-2,1.17091155E-2,1.6955176E-2,2.305675E-2,1.40478145E-2,-2.4193788E-3],"categories":[],"categories_nodes":[],"categories_segments":[],"categories_sizes":[],"default_left":[0,0,0,0,0,0,0,0,0,0,0,0,0,0,0,0,0,0,0,0,0,0,0,0,0,0,0,0,0,0,0,0,0,0,0,0,0,0,0,0,0,0,0,0,0,0,0,0,0,0,0,0,0,0,0],"id":10,"left_children":[1,3,5,7,9,11,13,15,17,19,21,23,25,27,-1,29,31,33,-1,35,37,39,41,43,45,47,49,51,53,-1,-1,-1,-1,-1,-1,-1,-1,-1,-1,-1,-1,-1,-1,-1,-1,-1,-1,-1,-1,-1,-1,-1,-1,-1,-1],"loss_changes":[1.7039714E3,1.8905981E2,1.4858691E2,4.6373978E1,1.1201099E2,2.7198853E1,7.720459E0,1.5434478E1,1.771753E1,2.2619995E1,3.674244E1,1.75098E1,6.4842224E0,5.777954E0,0E0,4.1800213E0,4.2055173E0,9.030685E0,0E0,7.990326E0,1.3981445E1,4.6443638E1,9.891327E0,6.317865E0,5.4620056E0,5.5968666E0,1.8013611E0,4.3946533E0,3.7038429E0,0E0,0E0,0E0,0E0,0E0,0E0,0E0,0E0,0E0,0E0,0E0,0E0,0E0,0E0,0E0,0E0,0E0,0E0,0E0,0E0,0E0,0E0,0E0,0E0,0E0,0E0],"parents":[2147483647,0,0,1,1,2,2,3,3,4,4,5,5,6,6,7,7,8,8,9,9,10,10,11,11,12,12,13,13,15,15,16,16,17,17,19,19,20,20,21,21,22,22,23,23,24,24,25,25,26,26,27,27,28,28],"right_children":[2,4,6,8,10,12,14,16,18,20,22,24,26,28,-1,30,32,34,-1,36,38,40,42,44,46,48,50,52,54,-1,-1,-1,-1,-1,-1,-1,-1,-1,-1,-1,-1,-1,-1,-1,-1,-1,-1,-1,-1,-1,-1,-1,-1,-1,-1],"split_conditions":[1.44133E1,7E-4,2.0000684E-1,3.3217136E-2,7.396779E-2,5.88875E1,6.2362175E-2,2.9626168E-2,4.0306902E-1,3.4338377E-2,4.71156E-5,6.738765E-2,8.351982E-2,5.7325553E-2,2.7481131E-2,7.7494388E-3,3.2671783E-2,7.560922E-2,2.0041754E-2,4.63834E-5,4.84604E-5,4.61261E-5,4.889057E-2,4.769907E-2,1.5900943E-1,2.8073888E-2,1.556925E2,2.2929747E-1,1.820018E-1,-8.741106E-3,-3.192601E-3,5.4836804E-3,-1.4516163E-5,-2.7342718E-3,4.9348176E-3,-7.554521E-3,-9.992437E-3,-4.3721045E-3,-7.549357E-3,-1.3247358E-3,1.6210992E-2,-5.2878335E-3,-2.7341046E-3,7.4598496E-3,-4.4022603E-3,6.660392E-3,1.2491209E-2,-3.3449288E-3,1.0352706E-2,1.5840555E-2,1.17091155E-2,1.6955176E-2,2.305675E-2,1.40478145E-2,-2.4193788E-3],"split_indices":[4,4,5,1,2,4,1,2,2,2,5,2,5,1,0,2,2,2,0,5,5,5,1,5,2,2,4,5,2,0,0,0,0,0,0,0,0,0,0,0,0,0,0,0,0,0,0,0,0,0,0,0,0,0,0],"split_type":[0,0,0,0,0,0,0,0,0,0,0,0,0,0,0,0,0,0,0,0,0,0,0,0,0,0,0,0,0,0,0,0,0,0,0,0,0,0,0,0,0,0,0,0,0,0,0,0,0,0,0,0,0,0,0],"sum_hessian":[3.4082344E3,2.9554363E3,4.5279803E2,6.62447E2,2.2929893E3,2.427001E2,2.1009793E2,4.6011206E2,2.0233496E2,1.1559031E3,1.1370863E3,9.30432E1,1.496569E2,1.5992479E2,5.0173138E1,1.1398941E2,3.4612265E2,1.9582036E2,6.514607E0,5.887185E2,5.671846E2,4.6087808E2,6.762082E2,1.991809E1,7.312511E1,1.618122E1,1.3347568E2,1.557133E2,4.2114916E0,1.5421005E1,9.8568405E1,1.35187E1,3.3260394E2,1.6153358E1,1.79667E2,3.1101898E2,2.7769952E2,2.9801413E2,2.6917044E2,4.4624478E2,1.46332855E1,4.387002E2,2.37508E2,5.318907E0,1.4599184E1,3.9383656E1,3.3741447E1,3.2751215E0,1.2906098E1,1.0390606E2,2.956962E1,2.9712461E1,1.2600083E2,2.3225875E0,1.888904E0],"tree_param":{"num_deleted":"0","num_feature":"6","num_nodes":"55","size_leaf_vector":"1"}},{"base_weights":[-1.2871629E-1,-3.70095E-1,1.7938331E0,5.196082E-2,-4.8801866E-1,1.1396092E0,2.268446E0,-1.016972E-1,4.181656E-1,-7.4247617E-1,-3.272857E-1,6.954048E-1,1.297095E0,1.8975853E0,2.3680236E-2,-4.5365393E-1,-4.2708043E-2,3.7604234E-1,1.0437043E-2,-7.711974E-1,3.3293927E-1,-3.6521503E-1,6.451011E-1,-1.1590378E-1,1.028484E0,1.1415539E0,1.9554805E0,1.25832E0,2.3070025E0,-3.6619785E-3,-7.7820746E-3,5.6983223E-3,-5.43218E-4,5.8544627E-3,2.9096454E-3,-6.3945386E-3,-9.179981E-3,1.3392259E-2,-1.6993779E-3,-1.6735087E-3,-5.312658E-3,1.06957955E-2,-7.4171304E-4,7.5620958E-3,-4.209048E-3,1.2603373E-2,4.775109E-3,1.0108978E-2,1.8577669E-2,2.0461844E-2,4.125259E-3,-2.3118444E-5,1.3450431E-2,3.926977E-3,2.3898073E-2],"categories":[],"categories_nodes":[],"categories_segments":[],"categories_sizes":[],"default_left":[0,0,0,0,0,0,0,0,0,0,0,0,0,0,0,0,0,0,0,0,0,0,0,0,0,0,0,0,0,0,0,0,0,0,0,0,0,0,0,0,0,0,0,0,0,0,0,0,0,0,0,0,0,0,0],"id":11,"left_children":[1,3,5,7,9,11,13,15,17,19,21,23,25,27,-1,29,31,33,-1,35,37,39,41,43,45,47,49,51,53,-1,-1,-1,-1,-1,-1,-1,-1,-1,-1,-1,-1,-1,-1,-1,-1,-1,-1,-1,-1,-1,-1,-1,-1,-1,-1],"loss_changes":[1.5785807E3,1.5041995E2,1.1523645E2,3.7226746E1,9.636029E1,1.0399307E1,3.5905762E0,9.661755E0,4.7592964E0,2.847528E1,5.3690826E1,1.2128065E1,9.862839E0,1.0541763E1,0E0,1.6119614E0,2.8798418E0,3.1209717E0,0E0,1.6628174E1,1.2606956E1,4.5763733E1,1.6802504E1,3.9978094E0,3.4357338E0,7.2871017E0,2.118431E0,2.4361572E0,3.8350525E0,0E0,0E0,0E0,0E0,0E0,0E0,0E0,0E0,0E0,0E0,0E0,0E0,0E0,0E0,0E0,0E0,0E0,0E0,0E0,0E0,0E0,0E0,0E0,0E0,0E0,0E0],"parents":[2147483647,0,0,1,1,2,2,3,3,4,4,5,5,6,6,7,7,8,8,9,9,10,10,11,11,12,12,13,13,15,15,16,16,17,17,19,19,20,20,21,21,22,22,23,23,24,24,25,25,26,26,27,27,28,28],"right_children":[2,4,6,8,10,12,14,16,18,20,22,24,26,28,-1,30,32,34,-1,36,38,40,42,44,46,48,50,52,54,-1,-1,-1,-1,-1,-1,-1,-1,-1,-1,-1,-1,-1,-1,-1,-1,-1,-1,-1,-1,-1,-1,-1,-1,-1,-1],"split_conditions":[9.097052E-2,7E-4,1.8209808E-1,3.3217136E-2,1.2716157E-2,5.88875E1,2.2929747E-1,4.5633786E-3,1.5101568E-1,1.212E-1,1.212E-1,2.0645628E-2,1.8431847E0,2.154967E-2,2.3680236E-2,3.929267E-3,4.9068267E-3,4.2727068E-2,1.0437043E-2,3.2527695E-4,4.393673E-1,3.1749325E-4,1.0002139E0,3.42458E1,1.6671869E-1,7.592233E-2,9.571098E-2,6.2587E1,3.7861E1,-3.6619785E-3,-7.7820746E-3,5.6983223E-3,-5.43218E-4,5.8544627E-3,2.9096454E-3,-6.3945386E-3,-9.179981E-3,1.3392259E-2,-1.6993779E-3,-1.6735087E-3,-5.312658E-3,1.06957955E-2,-7.4171304E-4,7.5620958E-3,-4.209048E-3,1.2603373E-2,4.775109E-3,1.0108978E-2,1.8577669E-2,2.0461844E-2,4.125259E-3,-2.3118444E-5,1.3450431E-2,3.926977E-3,2.3898073E-2],"split_indices":[5,4,5,1,1,4,5,1,1,4,4,1,3,1,0,1,1,1,0,3,3,3,3,4,5,1,1,4,4,0,0,0,0,0,0,0,0,0,0,0,0,0,0,0,0,0,0,0,0,0,0,0,0,0,0],"split_type":[0,0,0,0,0,0,0,0,0,0,0,0,0,0,0,0,0,0,0,0,0,0,0,0,0,0,0,0,0,0,0,0,0,0,0,0,0,0,0,0,0,0,0,0,0,0,0,0,0,0,0,0,0,0,0],"sum_hessian":[3.3992244E3,3.02077E3,3.7845435E2,6.598143E2,2.3609558E3,1.6054893E2,2.1790541E2,4.65299E2,1.9451524E2,9.125971E2,1.4483586E3,4.3439404E1,1.17109535E2,5.036934E1,1.6753607E2,6.583088E1,3.9946814E2,1.8374327E2,1.0771971E1,8.8913385E2,2.3463297E1,1.3945852E3,5.377337E1,1.2833005E1,3.0606398E1,9.694136E1,2.0168173E1,2.1255062E1,2.9114277E1,5.353369E1,1.2297189E1,6.538621E0,3.929295E2,5.1385536E1,1.3235774E2,4.714217E2,4.1771213E2,7.2641582E0,1.6199139E1,6.3725146E2,7.5733374E2,3.3510258E1,2.026311E1,2.9418309E0,9.891174E0,2.0635399E1,9.971E0,8.4024536E1,1.2916827E1,1.8740356E1,1.4278167E0,1.4307414E0,1.9824322E1,1.4452411E0,2.7669035E1],"tree_param":{"num_deleted":"0","num_feature":"6","num_nodes":"55","size_leaf_vector":"1"}},{"base_weights":[-1.05395176E-1,-3.6846378E-1,1.6084834E0,6.8829015E-2,-5.0105155E-1,1.0143933E0,2.2187545E0,-9.8750874E-2,4.585019E-1,-7.7102196E-1,-3.745325E-1,6.8604743E-1,1.2352444E0,1.7787061E0,2.3323053E-2,-6.5541184E-1,-6.501741E-2,2.8336146E-1,6.482389E-1,-6.3895786E-1,-9.160713E-1,-1.8380861E-1,-5.3435695E-1,1.1580744E0,1.6408536E-1,1.1166946E0,2.0972662E0,1.2886472E0,2.190797E0,-7.035612E-3,2.6244132E-3,-4.5685124E-4,-3.6132224E-3,4.1009695E-3,-7.526128E-3,5.570565E-3,1.0519204E-2,-8.400664E-3,-1.9973465E-3,-9.296659E-3,4.2988406E-3,-2.4380328E-3,7.3361006E-3,-6.254955E-3,-2.895927E-3,1.2022762E-2,-9.990685E-4,-1.8244387E-3,6.637587E-3,9.910215E-3,1.7363178E-2,8.384208E-3,2.2517659E-2,1.6114475E-2,8.144088E-3,5.558544E-3,2.2509063E-2],"categories":[],"categories_nodes":[],"categories_segments":[],"categories_sizes":[],"default_left":[0,0,0,0,0,0,0,0,0,0,0,0,0,0,0,0,0,0,0,0,0,0,0,0,0,0,0,0,0,0,0,0,0,0,0,0,0,0,0,0,0,0,0,0,0,0,0,0,0,0,0,0,0,0,0,0,0],"id":12,"left_children":[1,3,5,7,9,11,13,15,17,19,21,23,25,27,-1,29,31,33,35,37,39,41,43,45,47,49,51,53,55,-1,-1,-1,-1,-1,-1,-1,-1,-1,-1,-1,-1,-1,-1,-1,-1,-1,-1,-1,-1,-1,-1,-1,-1,-1,-1,-1,-1],"loss_changes":[1.5403788E3,1.7174283E2,1.625802E2,4.509697E1,7.733588E1,1.5991699E1,7.015381E0,9.032013E0,6.716614E0,1.3288116E1,4.7130386E1,2.3371426E1,1.1718002E1,7.2823334E0,0E0,1.4000568E0,2.599894E0,1.4718819E1,3.0541916E0,3.360991E1,6.6730347E0,3.9143333E1,1.861177E1,2.9032745E0,8.186183E0,7.864197E0,1.1256943E0,2.5585175E0,1.2797852E0,0E0,0E0,0E0,0E0,0E0,0E0,0E0,0E0,0E0,0E0,0E0,0E0,0E0,0E0,0E0,0E0,0E0,0E0,0E0,0E0,0E0,0E0,0E0,0E0,0E0,0E0,0E0,0E0],"parents":[2147483647,0,0,1,1,2,2,3,3,4,4,5,5,6,6,7,7,8,8,9,9,10,10,11,11,12,12,13,13,15,15,16,16,17,17,18,18,19,19,20,20,21,21,22,22,23,23,24,24,25,25,26,26,27,27,28,28],"right_children":[2,4,6,8,10,12,14,16,18,20,22,24,26,28,-1,30,32,34,36,38,40,42,44,46,48,50,52,54,56,-1,-1,-1,-1,-1,-1,-1,-1,-1,-1,-1,-1,-1,-1,-1,-1,-1,-1,-1,-1,-1,-1,-1,-1,-1,-1,-1,-1],"split_conditions":[1.44133E1,1.2698412E-5,1.8209808E-1,3.3217136E-2,1.034736E-2,5.88875E1,2.2929747E-1,2.4969622E-3,5.7325553E-2,4.96137E-5,3.1749325E-4,1.0002762E0,8.0978915E-2,2.4998501E-2,2.3323053E-2,9.677419E-6,2.997436E-2,5.3824358E-2,1.2998232E-1,2.88E-2,1.212E-1,2.9941913E-4,4.889057E-2,1.6676764E-1,4.0560752E-2,1.6179458E0,9.3836963E-1,1.404711E-2,3.7861E1,-7.035612E-3,2.6244132E-3,-4.5685124E-4,-3.6132224E-3,4.1009695E-3,-7.526128E-3,5.570565E-3,1.0519204E-2,-8.400664E-3,-1.9973465E-3,-9.296659E-3,4.2988406E-3,-2.4380328E-3,7.3361006E-3,-6.254955E-3,-2.895927E-3,1.2022762E-2,-9.990685E-4,-1.8244387E-3,6.637587E-3,9.910215E-3,1.7363178E-2,8.384208E-3,2.2517659E-2,1.6114475E-2,8.144088E-3,5.558544E-3,2.2509063E-2],"split_indices":[4,3,5,1,1,4,5,1,1,5,3,3,1,1,0,3,1,1,1,4,4,3,1,5,1,3,3,1,4,0,0,0,0,0,0,0,0,0,0,0,0,0,0,0,0,0,0,0,0,0,0,0,0,0,0,0,0],"split_type":[0,0,0,0,0,0,0,0,0,0,0,0,0,0,0,0,0,0,0,0,0,0,0,0,0,0,0,0,0,0,0,0,0,0,0,0,0,0,0,0,0,0,0,0,0,0,0,0,0,0,0,0,0,0,0,0,0],"sum_hessian":[3.4141619E3,2.9605264E3,4.536355E2,6.889046E2,2.2716218E3,2.3121411E2,2.2242139E2,4.8225577E2,2.0664883E2,7.2324493E2,1.5483768E3,9.463047E1,1.3658363E2,4.9039864E1,1.7338153E2,2.6501738E1,4.5575403E2,1.0875439E2,9.789444E1,3.8139697E2,3.4184796E2,7.0692706E2,8.4144977E2,4.905226E1,4.5578213E1,1.22088776E2,1.4494855E1,2.4286018E1,2.4753845E1,2.540262E1,1.0991172E0,4.289233E2,2.6830742E1,9.743844E1,1.131595E1,8.179807E1,1.6096365E1,2.6098593E2,1.2041106E2,3.387359E2,3.1120672E0,6.642243E2,4.270276E1,6.1201056E2,2.2943927E2,4.742999E1,1.6222737E0,2.7288322E1,1.828989E1,1.0366303E2,1.8425743E1,2.2870364E0,1.2207818E1,1.30233965E1,1.1262622E1,1.2411958E0,2.3512648E1],"tree_param":{"num_deleted":"0","num_feature":"6","num_nodes":"57","size_leaf_vector":"1"}},{"base_weights":[-1.0729916E-1,-3.7682092E-1,1.5669298E0,-4.6685308E-1,9.491676E-1,1.1307827E0,2.1967995E0,-7.5522214E-1,-3.252952E-1,3.603832E-1,1.182418E0,1.0365566E0,1.5769465E0,9.566522E-1,2.2138001E-2,-4.1405326E-1,-8.508114E-1,-1.6847417E-1,-5.2176976E-1,7.791745E-1,8.586442E-4,1.0295553E0,2.0219777E0,9.57612E-1,1.4689635E0,1.6207391E0,2.3704257E-3,-1.4395163E-3,1.6937647E-2,-8.495987E-3,-3.3970627E-3,-7.5116274E-3,-1.0149489E-2,-2.620989E-3,1.2748007E-3,-6.344279E-3,-3.318778E-3,-6.823153E-3,9.704976E-3,-1.8395922E-3,1.0458801E-2,5.4324022E-3,1.1661063E-2,1.0220091E-2,2.1609804E-2,1.0351745E-2,5.585709E-3,1.6563427E-2,9.795373E-3,9.2557585E-3,1.7390365E-2],"categories":[],"categories_nodes":[],"categories_segments":[],"categories_sizes":[],"default_left":[0,0,0,0,0,0,0,0,0,0,0,0,0,0,0,0,0,0,0,0,0,0,0,0,0,0,0,0,0,0,0,0,0,0,0,0,0,0,0,0,0,0,0,0,0,0,0,0,0,0,0],"id":13,"left_children":[1,3,5,7,9,11,13,15,17,19,21,23,25,27,-1,29,31,33,35,37,39,41,43,45,47,49,-1,-1,-1,-1,-1,-1,-1,-1,-1,-1,-1,-1,-1,-1,-1,-1,-1,-1,-1,-1,-1,-1,-1,-1,-1],"loss_changes":[1.5415034E3,3.5168002E2,1.2764783E2,1.12246216E2,2.5309464E1,1.02187195E1,1.9459229E0,2.9213867E1,5.6917435E1,8.221872E0,1.5087601E1,6.6394196E0,2.3880386E0,3.7870488E0,0E0,6.1995773E0,1.0805176E1,2.858375E1,1.7347992E1,7.715562E0,6.061078E0,7.017502E0,5.1153564E-1,5.6796875E0,1.5430069E0,2.1385422E0,0E0,0E0,0E0,0E0,0E0,0E0,0E0,0E0,0E0,0E0,0E0,0E0,0E0,0E0,0E0,0E0,0E0,0E0,0E0,0E0,0E0,0E0,0E0,0E0,0E0],"parents":[2147483647,0,0,1,1,2,2,3,3,4,4,5,5,6,6,7,7,8,8,9,9,10,10,11,11,12,12,13,13,15,15,16,16,17,17,18,18,19,19,20,20,21,21,22,22,23,23,24,24,25,25],"right_children":[2,4,6,8,10,12,14,16,18,20,22,24,26,28,-1,30,32,34,36,38,40,42,44,46,48,50,-1,-1,-1,-1,-1,-1,-1,-1,-1,-1,-1,-1,-1,-1,-1,-1,-1,-1,-1,-1,-1,-1,-1,-1,-1],"split_conditions":[1E0,1.44133E1,2.0000684E-1,4.434154E-2,9.097052E-2,7.0525E1,4.63594E1,4.9696E-6,4.84604E-5,8.337084E-2,2.4397743E-1,2.391444E-1,3E0,1.323335E-1,2.2138001E-2,1.0370663E-2,6.54279E-5,1.561952E-1,1.4607528E-1,2.081992E-2,7.84831E1,5.88875E1,1.5524338E-1,2E0,1.56E-2,4.3742307E-2,2.3704257E-3,-1.4395163E-3,1.6937647E-2,-8.495987E-3,-3.3970627E-3,-7.5116274E-3,-1.0149489E-2,-2.620989E-3,1.2748007E-3,-6.344279E-3,-3.318778E-3,-6.823153E-3,9.704976E-3,-1.8395922E-3,1.0458801E-2,5.4324022E-3,1.1661063E-2,1.0220091E-2,2.1609804E-2,1.0351745E-2,5.585709E-3,1.6563427E-2,9.795373E-3,9.2557585E-3,1.7390365E-2],"split_indices":[0,4,5,2,5,4,4,5,5,5,2,2,0,2,0,2,5,2,2,2,4,4,5,0,4,2,0,0,0,0,0,0,0,0,0,0,0,0,0,0,0,0,0,0,0,0,0,0,0,0,0],"split_type":[0,0,0,0,0,0,0,0,0,0,0,0,0,0,0,0,0,0,0,0,0,0,0,0,0,0,0,0,0,0,0,0,0,0,0,0,0,0,0,0,0,0,0,0,0,0,0,0,0,0,0],"sum_hessian":[3.4138325E3,2.9411355E3,4.726968E2,2.7547417E3,1.8639392E2,2.8095062E2,1.917462E2,9.0559985E2,1.8491418E3,5.361098E1,1.3278294E2,2.3470593E2,4.6244686E1,3.3675153E0,1.8837868E2,1.9936731E2,7.0623254E2,1.0293767E3,8.197651E2,2.4225145E1,2.9385836E1,1.1421378E2,1.8569157E1,2.0118933E2,3.3516598E1,4.4578125E1,1.6665592E0,1.6734891E0,1.6940262E0,2.7549152E1,1.7181816E2,4.4291382E2,2.633187E2,7.820809E2,2.472959E2,5.1304645E2,3.0671863E2,2.5071433E0,2.1718E1,2.5669931E1,3.7159045E0,2.6130503E1,8.808328E1,3.285578E0,1.5283579E1,1.6711298E2,3.4076347E1,2.2513092E1,1.1003507E1,7.766012E0,3.6812115E1],"tree_param":{"num_deleted":"0","num_feature":"6","num_nodes":"51","size_leaf_vector":"1"}},{"base_weights":[-1.0871473E-1,-3.8792837E-1,1.5692698E0,-4.7517645E-1,1.0148338E0,1.0384122E0,2.1455717E0,-3.2904094E-1,-6.750136E-1,8.9243966E-1,1.6797835E0,1.0674272E0,-3.0918624E-2,1.7469206E0,2.2690441E-2,-3.635751E-1,4.0825817E-1,-6.8644625E-1,2.2166398E-1,1.2199968E0,4.3189257E-1,1.1000265E0,2.1644818E-2,9.7630847E-1,1.4174275E0,4.2423573E-3,-5.5276334E-1,1.8802577E0,1.0551614E0,-1.8586401E-3,-4.912709E-3,1.7800122E-2,-3.5509341E-3,-6.674058E-3,-1.0034882E-2,3.7266721E-3,-3.966926E-3,4.717484E-3,1.2953003E-2,2.9150757E-3,1.4250122E-2,1.2726272E-2,-3.4288093E-3,1.0462483E-2,3.2932153E-3,2.083903E-2,1.2817537E-2,-9.2317145E-3,2.6573404E-3,1.5255964E-2,2.1801343E-2,4.928477E-3,1.5503012E-2],"categories":[],"categories_nodes":[],"categories_segments":[],"categories_sizes":[],"default_left":[0,0,0,0,0,0,0,0,0,0,0,0,0,0,0,0,0,0,0,0,0,0,0,0,0,0,0,0,0,0,0,0,0,0,0,0,0,0,0,0,0,0,0,0,0,0,0,0,0,0,0,0,0],"id":14,"left_children":[1,3,5,7,9,11,13,15,17,19,21,23,25,27,-1,29,31,33,35,37,39,41,-1,43,45,-1,47,49,51,-1,-1,-1,-1,-1,-1,-1,-1,-1,-1,-1,-1,-1,-1,-1,-1,-1,-1,-1,-1,-1,-1,-1,-1],"loss_changes":[1.5990348E3,3.5856235E2,1.4673376E2,8.023688E1,1.2469864E1,7.956665E0,7.4815674E0,4.071808E1,1.2072388E1,2.1662468E1,4.798195E0,6.5465393E0,2.0677555E0,3.4887543E0,0E0,3.4460526E1,7.5776245E1,6.2626953E0,1.5853169E0,4.201309E0,8.323767E0,3.8400059E0,0E0,8.7287445E0,1.7734299E0,0E0,1.4671117E0,1.8285675E0,2.5400457E0,0E0,0E0,0E0,0E0,0E0,0E0,0E0,0E0,0E0,0E0,0E0,0E0,0E0,0E0,0E0,0E0,0E0,0E0,0E0,0E0,0E0,0E0,0E0,0E0],"parents":[2147483647,0,0,1,1,2,2,3,3,4,4,5,5,6,6,7,7,8,8,9,9,10,10,11,11,12,12,13,13,15,15,16,16,17,17,18,18,19,19,20,20,21,21,23,23,24,24,26,26,27,27,28,28],"right_children":[2,4,6,8,10,12,14,16,18,20,22,24,26,28,-1,30,32,34,36,38,40,42,-1,44,46,-1,48,50,52,-1,-1,-1,-1,-1,-1,-1,-1,-1,-1,-1,-1,-1,-1,-1,-1,-1,-1,-1,-1,-1,-1,-1,-1],"split_conditions":[1E0,2.31361E1,7.0525E1,3.1749325E-4,1.3418448E0,3E0,2.000907E-1,2.960946E-4,7.906603E-3,1.0002762E0,8.2128E1,1.5279627E-2,4.6131152E-4,1.865369E2,2.2690441E-2,3.3641714E-5,4.63834E-5,2.684769E-4,1.0011063E0,7.693646E-2,1.8209808E-1,7.84831E1,2.1644818E-2,3.45E-2,4.393673E-1,4.2423573E-3,4.63594E1,1.041174E2,1.7090242E-1,-1.8586401E-3,-4.912709E-3,1.7800122E-2,-3.5509341E-3,-6.674058E-3,-1.0034882E-2,3.7266721E-3,-3.966926E-3,4.717484E-3,1.2953003E-2,2.9150757E-3,1.4250122E-2,1.2726272E-2,-3.4288093E-3,1.0462483E-2,3.2932153E-3,2.083903E-2,1.2817537E-2,-9.2317145E-3,2.6573404E-3,1.5255964E-2,2.1801343E-2,4.928477E-3,1.5503012E-2],"split_indices":[0,4,4,3,3,0,5,3,3,3,4,5,3,4,0,3,5,5,3,5,5,4,0,4,3,0,4,4,5,0,0,0,0,0,0,0,0,0,0,0,0,0,0,0,0,0,0,0,0,0,0,0,0],"split_type":[0,0,0,0,0,0,0,0,0,0,0,0,0,0,0,0,0,0,0,0,0,0,0,0,0,0,0,0,0,0,0,0,0,0,0,0,0,0,0,0,0,0,0,0,0,0,0,0,0,0,0,0,0],"sum_hessian":[3.4106777E3,2.92477E3,4.8590775E2,2.7541316E3,1.7063843E2,2.5438458E2,2.3152315E2,1.5923414E3,1.16179E3,1.4609038E2,2.4548046E1,2.4766628E2,6.718314E0,5.8333183E1,1.7318996E2,1.5215795E3,7.076198E1,1.1473951E3,1.4394913E1,8.440768E1,6.168271E1,1.2666687E1,1.188136E1,1.9951439E2,4.8151882E1,3.6883612E0,3.029953E0,4.7466E1,1.0867185E1,6.372248E2,8.843547E2,2.482294E1,4.5939034E1,1.0853196E3,6.207553E1,1.18889475E1,2.5059657E0,8.38228E0,7.602539E1,5.5176605E1,6.5061045E0,1.1418782E1,1.2479043E0,1.7949384E2,2.0020554E1,5.71554E0,4.243634E1,1.9979167E0,1.0320362E0,2.4535507E1,2.2930492E1,6.0227356E0,4.8444486E0],"tree_param":{"num_deleted":"0","num_feature":"6","num_nodes":"53","size_leaf_vector":"1"}},{"base_weights":[-1.13803536E-1,-3.5078007E-1,1.7038282E0,-4.4730678E-1,9.242747E-1,1.1236559E0,2.1187973E0,-7.1293175E-1,-2.897529E-1,6.819542E-1,1.1082653E0,1.0337026E0,1.8190438E0,1.9971163E0,2.5133425E-2,-3.303887E-1,-8.0326426E-1,-1.2883332E-1,-4.777133E-1,7.161049E-1,-8.2478495E-3,1.2837098E0,8.3009255E-1,8.48462E-1,1.3315498E0,8.338919E-1,1.9430702E0,2.3193127E-3,2.0063303E0,-5.630732E-3,-5.325731E-4,-8.213677E-3,9.939079E-4,-1.9793722E-3,2.93928E-3,-5.310567E-3,5.347848E-3,3.6089937E-3,8.497411E-3,1.1398712E-2,2.477852E-2,2.9686503E-3,1.112396E-2,9.870401E-3,5.288673E-3,1.3656252E-2,-2.3061438E-3,1.41580915E-2,-3.747092E-4,5.46224E-3,2.0306012E-2,2.0152679E-2,4.57143E-3],"categories":[],"categories_nodes":[],"categories_segments":[],"categories_sizes":[],"default_left":[0,0,0,0,0,0,0,0,0,0,0,0,0,0,0,0,0,0,0,0,0,0,0,0,0,0,0,0,0,0,0,0,0,0,0,0,0,0,0,0,0,0,0,0,0,0,0,0,0,0,0,0,0],"id":15,"left_children":[1,3,5,7,9,11,13,15,17,19,21,23,25,27,-1,29,31,33,35,37,-1,39,41,43,45,47,49,-1,51,-1,-1,-1,-1,-1,-1,-1,-1,-1,-1,-1,-1,-1,-1,-1,-1,-1,-1,-1,-1,-1,-1,-1,-1],"loss_changes":[1.4643971E3,3.7053397E2,9.202722E1,1.1681799E2,8.69455E0,8.481308E0,5.9018555E0,3.5686584E1,5.307773E1,5.4316673E0,4.7363586E0,7.0905304E0,5.37117E-1,2.4417725E0,0E0,1.2895447E1,1.3823853E1,2.7750309E1,4.4031235E1,4.0856133E0,0E0,9.383331E0,7.0172462E0,3.6684265E0,3.2625961E0,1.9424605E0,7.1640396E-1,0E0,1.5388184E0,0E0,0E0,0E0,0E0,0E0,0E0,0E0,0E0,0E0,0E0,0E0,0E0,0E0,0E0,0E0,0E0,0E0,0E0,0E0,0E0,0E0,0E0,0E0,0E0],"parents":[2147483647,0,0,1,1,2,2,3,3,4,4,5,5,6,6,7,7,8,8,9,9,10,10,11,11,12,12,13,13,15,15,16,16,17,17,18,18,19,19,21,21,22,22,23,23,24,24,25,25,26,26,28,28],"right_children":[2,4,6,8,10,12,14,16,18,20,22,24,26,28,-1,30,32,34,36,38,-1,40,42,44,46,48,50,-1,52,-1,-1,-1,-1,-1,-1,-1,-1,-1,-1,-1,-1,-1,-1,-1,-1,-1,-1,-1,-1,-1,-1,-1,-1],"split_conditions":[9.097052E-2,1E0,1.8209808E-1,5.0998393E-2,9.778139E-2,2.8792876E-1,6.693067E-2,1.5605E-6,4.84604E-5,3E0,4.4418E-6,1E0,4.6888497E-2,2.105242E-3,2.5133425E-2,2.9626168E-2,6.222455E-4,1.9764297E-1,1.5279627E-2,8.333308E-3,-8.2478495E-3,3.550536E-1,4.36831E-5,1.6671869E-1,1.2393194E-1,3.6312666E-2,1.0441963E-1,2.3193127E-3,6.559599E-2,-5.630732E-3,-5.325731E-4,-8.213677E-3,9.939079E-4,-1.9793722E-3,2.93928E-3,-5.310567E-3,5.347848E-3,3.6089937E-3,8.497411E-3,1.1398712E-2,2.477852E-2,2.9686503E-3,1.112396E-2,9.870401E-3,5.288673E-3,1.3656252E-2,-2.3061438E-3,1.41580915E-2,-3.747092E-4,5.46224E-3,2.0306012E-2,2.0152679E-2,4.57143E-3],"split_indices":[5,0,5,2,2,2,1,5,5,0,5,0,1,1,0,2,5,2,5,1,0,2,5,5,1,1,5,0,1,0,0,0,0,0,0,0,0,0,0,0,0,0,0,0,0,0,0,0,0,0,0,0,0],"split_type":[0,0,0,0,0,0,0,0,0,0,0,0,0,0,0,0,0,0,0,0,0,0,0,0,0,0,0,0,0,0,0,0,0,0,0,0,0,0,0,0,0,0,0,0,0,0,0,0,0,0,0,0,0],"sum_hessian":[3.3973672E3,3.0062322E3,3.9113516E2,2.7952686E3,2.1096371E2,1.6464758E2,2.2648756E2,1.0393951E3,1.7558733E3,9.308058E1,1.1788313E2,1.479905E2,1.6657085E1,1.7773462E2,4.8752953E1,1.9944347E2,8.3995166E2,9.468914E2,8.0898193E2,9.153074E1,1.5498427E0,7.007304E1,4.7810093E1,9.361623E1,5.437427E1,2.726196E0,1.393089E1,1.0588288E0,1.7667578E2,1.0785482E2,9.158864E1,8.235252E2,1.642645E1,8.1431635E2,1.3257507E2,7.6894556E2,4.0036373E1,2.6033695E1,6.549704E1,6.4284325E1,5.7887135E0,1.7260073E1,3.055002E1,6.3844482E1,2.9771746E1,5.333665E1,1.0376192E0,1.2599496E0,1.4662465E0,1.2484306E0,1.268246E1,1.7536322E2,1.3125591E0],"tree_param":{"num_deleted":"0","num_feature":"6","num_nodes":"53","size_leaf_vector":"1"}},{"base_weights":[-1.0946997E-1,-3.722142E-1,1.5042955E0,-4.5975325E-1,8.620162E-1,9.8332036E-1,2.068819E0,-7.266564E-1,-3.0021682E-1,7.339324E-1,1.7226489E0,5.087849E-1,1.0947285E0,1.5929397E0,2.1981563E-2,-4.236833E-1,-8.228312E-1,-1.2544365E-1,-5.148506E-1,4.160617E-1,9.8234826E-1,2.9747894E-1,2.0786254E-2,6.4315915E-1,-1.4182906E-1,1.1226285E0,2.8229406E-1,1.6951015E-2,8.9440864E-1,-8.163034E-3,-3.6591205E-3,-7.2600185E-3,-9.656864E-3,-2.2599935E-3,1.4801063E-3,-6.382138E-3,-3.2482948E-3,2.6238218E-3,1.3301464E-2,3.9429567E-3,1.113328E-2,7.91791E-3,-1.1920546E-3,-5.483471E-4,7.686451E-3,-3.5765644E-3,2.3718753E-3,1.0330848E-2,1.4582883E-2,-9.018687E-3,8.120918E-3,1.3889096E-2,2.4586646E-3],"categories":[],"categories_nodes":[],"categories_segments":[],"categories_sizes":[],"default_left":[0,0,0,0,0,0,0,0,0,0,0,0,0,0,0,0,0,0,0,0,0,0,0,0,0,0,0,0,0,0,0,0,0,0,0,0,0,0,0,0,0,0,0,0,0,0,0,0,0,0,0,0,0],"id":16,"left_children":[1,3,5,7,9,11,13,15,17,19,21,23,25,27,-1,29,31,33,35,37,39,41,-1,43,45,47,49,-1,51,-1,-1,-1,-1,-1,-1,-1,-1,-1,-1,-1,-1,-1,-1,-1,-1,-1,-1,-1,-1,-1,-1,-1,-1],"loss_changes":[1.4412655E3,3.1619363E2,1.3794519E2,1.1602527E2,2.0112778E1,1.2629684E1,1.0502197E1,2.9390137E1,6.4094284E1,1.3058304E1,1.1750267E1,4.400752E0,4.2422333E0,2.2129517E0,0E0,5.325947E0,1.0000244E1,2.5991867E1,1.777974E1,1.0404309E1,6.877968E0,1.3383641E0,0E0,3.636448E0,8.4210736E-1,4.3280334E0,5.7600274E0,0E0,2.47569E0,0E0,0E0,0E0,0E0,0E0,0E0,0E0,0E0,0E0,0E0,0E0,0E0,0E0,0E0,0E0,0E0,0E0,0E0,0E0,0E0,0E0,0E0,0E0,0E0],"parents":[2147483647,0,0,1,1,2,2,3,3,4,4,5,5,6,6,7,7,8,8,9,9,10,10,11,11,12,12,13,13,15,15,16,16,17,17,18,18,19,19,20,20,21,21,23,23,24,24,25,25,26,26,28,28],"right_children":[2,4,6,8,10,12,14,16,18,20,22,24,26,28,-1,30,32,34,36,38,40,42,-1,44,46,48,50,-1,52,-1,-1,-1,-1,-1,-1,-1,-1,-1,-1,-1,-1,-1,-1,-1,-1,-1,-1,-1,-1,-1,-1,-1,-1],"split_conditions":[1E0,1.212E-1,7.0525E1,5.0998393E-2,1.8209808E-1,5.2979134E-2,2.0003587E-1,6.7017E-6,4.84604E-5,5.88875E1,6.269064E-2,4.737748E-2,3E0,1.981697E2,2.1981563E-2,1.0370663E-2,6.15258E-5,1.5502787E-1,1.4607528E-1,2.4397743E-1,1.0441963E-1,3.70915E-2,2.0786254E-2,1.8776648E-2,5.0998393E-2,4.769907E-2,1.0056095E-1,1.6951015E-2,5.0998393E-2,-8.163034E-3,-3.6591205E-3,-7.2600185E-3,-9.656864E-3,-2.2599935E-3,1.4801063E-3,-6.382138E-3,-3.2482948E-3,2.6238218E-3,1.3301464E-2,3.9429567E-3,1.113328E-2,7.91791E-3,-1.1920546E-3,-5.483471E-4,7.686451E-3,-3.5765644E-3,2.3718753E-3,1.0330848E-2,1.4582883E-2,-9.018687E-3,8.120918E-3,1.3889096E-2,2.4586646E-3],"split_indices":[0,4,4,2,5,2,5,5,5,4,2,2,0,4,0,2,5,2,2,2,5,2,0,2,2,5,2,0,2,0,0,0,0,0,0,0,0,0,0,0,0,0,0,0,0,0,0,0,0,0,0,0,0],"split_type":[0,0,0,0,0,0,0,0,0,0,0,0,0,0,0,0,0,0,0,0,0,0,0,0,0,0,0,0,0,0,0,0,0,0,0,0,0,0,0,0,0,0,0,0,0,0,0,0,0,0,0,0,0],"sum_hessian":[3.39683E3,2.921876E3,4.749541E2,2.72895E3,1.9292604E2,2.4843015E2,2.2652394E2,1.01960474E3,1.7093452E3,1.6954608E2,2.3379953E1,4.829362E1,2.0013654E2,5.125483E1,1.7526912E2,2.4697652E2,7.7262823E2,9.430322E2,7.663129E2,7.554907E1,9.399701E1,5.039547E0,1.8340406E1,4.0036217E1,8.257404E0,1.9312267E2,7.013856E0,4.34705E1,7.784329E0,2.999526E1,2.1698126E2,4.641219E2,3.0850632E2,6.8961707E2,2.534152E2,4.6322504E2,3.0308792E2,6.577737E1,9.7717085E0,1.7853125E1,7.614388E1,1.8933048E0,3.146242E0,6.186715E0,3.3849503E1,5.297277E0,2.960127E0,1.5567204E2,3.7450634E1,1.9509518E0,5.0629044E0,3.7689724E0,4.0153565E0],"tree_param":{"num_deleted":"0","num_feature":"6","num_nodes":"53","size_leaf_vector":"1"}},{"base_weights":[-9.650121E-2,-3.6574888E-1,1.4872167E0,-4.558804E-1,9.0264505E-1,1.0522174E0,2.1142645E0,-7.0293266E-1,-2.9731107E-1,5.080489E-1,1.1149856E0,6.627698E-1,1.1822131E0,2.0372476E-2,2.5681421E-2,-5.4491997E-1,-9.532508E-1,-1.2109452E-1,-5.161195E-1,8.003407E-1,-3.555335E-1,9.874482E-1,1.882894E0,7.5080264E-1,-8.631567E-3,1.0319645E0,1.53986E0,-5.9885927E-3,1.6217291E-2,-1.042301E-2,-8.357069E-3,-2.2315744E-3,1.4154305E-3,-6.3745365E-3,-3.3193924E-3,-2.878502E-3,8.977569E-3,-6.678235E-3,-1.1196147E-3,-2.2433083E-5,1.0280346E-2,6.806868E-3,2.04952E-2,7.987928E-3,-8.4532825E-3,1.11753605E-2,5.0441776E-3,1.8761374E-2,1.2113504E-2],"categories":[],"categories_nodes":[],"categories_segments":[],"categories_sizes":[],"default_left":[0,0,0,0,0,0,0,0,0,0,0,0,0,0,0,0,0,0,0,0,0,0,0,0,0,0,0,0,0,0,0,0,0,0,0,0,0,0,0,0,0,0,0,0,0,0,0,0,0],"id":17,"left_children":[1,3,5,7,9,11,13,15,17,19,21,23,25,-1,-1,27,29,31,33,35,37,39,41,43,-1,45,47,-1,-1,-1,-1,-1,-1,-1,-1,-1,-1,-1,-1,-1,-1,-1,-1,-1,-1,-1,-1,-1,-1],"loss_changes":[1.4469142E3,3.3193268E2,1.322677E2,1.0588275E2,1.5582016E1,1.4055389E1,1.7930298E0,4.13266E1,6.3603546E1,1.7768127E1,1.0330414E1,1.0807369E1,1.0151001E1,0E0,0E0,7.703987E1,3.400299E0,2.4583277E1,1.6242142E1,5.7768173E0,1.3101957E0,4.374161E0,1.9351311E0,6.1932716E0,0E0,6.5182495E0,4.6427307E0,0E0,0E0,0E0,0E0,0E0,0E0,0E0,0E0,0E0,0E0,0E0,0E0,0E0,0E0,0E0,0E0,0E0,0E0,0E0,0E0,0E0,0E0],"parents":[2147483647,0,0,1,1,2,2,3,3,4,4,5,5,6,6,7,7,8,8,9,9,10,10,11,11,12,12,15,15,16,16,17,17,18,18,19,19,20,20,21,21,22,22,23,23,25,25,26,26],"right_children":[2,4,6,8,10,12,14,16,18,20,22,24,26,-1,-1,28,30,32,34,36,38,40,42,44,-1,46,48,-1,-1,-1,-1,-1,-1,-1,-1,-1,-1,-1,-1,-1,-1,-1,-1,-1,-1,-1,-1,-1,-1],"split_conditions":[1E0,7.906603E-3,2.0000684E-1,5.351802E-2,1.0441963E-1,6.408893E-2,2.6512164E-1,3.0437586E-4,3.1749325E-4,1.0011063E0,2.4960186E-1,6.1263792E-2,4.769907E-2,2.0372476E-2,2.5681421E-2,2.9941913E-4,2.9164584E-2,1.5502787E-1,1.4607528E-1,2.081992E-2,9.137729E-2,2.278585E-2,1.5524338E-1,3E0,-8.631567E-3,3.1749325E-4,9.777158E-1,-5.9885927E-3,1.6217291E-2,-1.042301E-2,-8.357069E-3,-2.2315744E-3,1.4154305E-3,-6.3745365E-3,-3.3193924E-3,-2.878502E-3,8.977569E-3,-6.678235E-3,-1.1196147E-3,-2.2433083E-5,1.0280346E-2,6.806868E-3,2.04952E-2,7.987928E-3,-8.4532825E-3,1.11753605E-2,5.0441776E-3,1.8761374E-2,1.2113504E-2],"split_indices":[0,3,5,2,5,2,2,3,3,3,2,2,5,0,0,3,2,2,2,2,2,2,5,0,0,3,3,0,0,0,0,0,0,0,0,0,0,0,0,0,0,0,0,0,0,0,0,0,0],"split_type":[0,0,0,0,0,0,0,0,0,0,0,0,0,0,0,0,0,0,0,0,0,0,0,0,0,0,0,0,0,0,0,0,0,0,0,0,0,0,0,0,0,0,0,0,0,0,0,0,0],"sum_hessian":[3.3909521E3,2.8988826E3,4.9206958E2,2.707154E3,1.917286E2,2.9210605E2,1.9996352E2,1.0569636E3,1.6501903E3,6.826437E1,1.2346423E2,7.462857E1,2.1747748E2,1.7564711E2,2.4316408E1,6.498956E2,4.07068E2,9.14918E2,7.352723E2,5.105673E1,1.7207645E1,1.0783967E2,1.5624567E1,7.1038246E1,3.590326E0,1.5587805E2,6.159943E1,6.348153E2,1.5080314E1,2.2712929E2,1.7993872E2,6.589827E2,2.5593532E2,4.4177734E2,2.9349493E2,4.0344863E0,4.702224E1,6.7769513E0,1.0430695E1,4.2854056E0,1.0355426E2,2.5209575E0,1.3103609E1,6.944968E1,1.5885682E0,1.3316023E2,2.2717812E1,2.8111822E1,3.348761E1],"tree_param":{"num_deleted":"0","num_feature":"6","num_nodes":"49","size_leaf_vector":"1"}},{"base_weights":[-1.0608848E-1,-3.6621052E-1,1.5032353E0,6.039818E-2,-4.921644E-1,1.032508E0,2.032597E0,-2.837248E-1,2.2674164E-1,-7.784206E-1,-3.168316E-1,7.3967624E-1,1.2119831E0,1.9091473E0,2.3954866E0,-9.143678E-1,-2.3265225E-1,1.305108E-1,5.995455E-1,-6.6265166E-1,-9.191813E-1,-1.3716552E-1,-4.564892E-1,6.3067794E-2,9.118315E-1,5.496679E-1,1.2880923E0,1.4620458E0,1.9719218E0,6.9675725E-3,2.4324965E-2,-5.242086E-6,-1.1290406E-2,-7.3219035E-3,-2.0359834E-3,1.6102771E-3,-6.243046E-3,5.3179124E-3,1.8168427E-2,-7.6284274E-3,4.5516402E-3,-9.691315E-3,-6.017599E-3,-1.9269647E-3,8.816913E-3,-5.5369087E-3,-2.3819946E-3,1.0660846E-2,-2.6795198E-3,1.3736343E-2,7.3506287E-3,-3.078892E-3,7.536854E-3,1.1136699E-2,1.5290385E-2,3.9208564E-4,1.538711E-2,1.9822156E-2,6.2405877E-3],"categories":[],"categories_nodes":[],"categories_segments":[],"categories_sizes":[],"default_left":[0,0,0,0,0,0,0,0,0,0,0,0,0,0,0,0,0,0,0,0,0,0,0,0,0,0,0,0,0,0,0,0,0,0,0,0,0,0,0,0,0,0,0,0,0,0,0,0,0,0,0,0,0,0,0,0,0,0,0],"id":18,"left_children":[1,3,5,7,9,11,13,15,17,19,21,23,25,27,29,31,33,35,37,39,41,43,45,47,49,51,53,55,57,-1,-1,-1,-1,-1,-1,-1,-1,-1,-1,-1,-1,-1,-1,-1,-1,-1,-1,-1,-1,-1,-1,-1,-1,-1,-1,-1,-1,-1,-1],"loss_changes":[1.430115E3,1.5803583E2,1.1635486E2,3.8484455E1,1.1370471E2,1.2434326E1,5.4039917E0,6.84606E0,1.6174007E1,1.3433228E1,3.5308746E1,1.1468601E1,7.1404114E0,1.9194336E0,1.6125488E0,3.153472E0,2.8128672E0,8.424198E0,6.676735E0,5.370349E1,5.541687E0,3.5132893E1,1.6688171E1,7.3061304E0,5.4235153E0,3.3448896E0,4.134857E0,2.6594963E0,8.0493164E-1,0E0,0E0,0E0,0E0,0E0,0E0,0E0,0E0,0E0,0E0,0E0,0E0,0E0,0E0,0E0,0E0,0E0,0E0,0E0,0E0,0E0,0E0,0E0,0E0,0E0,0E0,0E0,0E0,0E0,0E0],"parents":[2147483647,0,0,1,1,2,2,3,3,4,4,5,5,6,6,7,7,8,8,9,9,10,10,11,11,12,12,13,13,14,14,15,15,16,16,17,17,18,18,19,19,20,20,21,21,22,22,23,23,24,24,25,25,26,26,27,27,28,28],"right_children":[2,4,6,8,10,12,14,16,18,20,22,24,26,28,30,32,34,36,38,40,42,44,46,48,50,52,54,56,58,-1,-1,-1,-1,-1,-1,-1,-1,-1,-1,-1,-1,-1,-1,-1,-1,-1,-1,-1,-1,-1,-1,-1,-1,-1,-1,-1,-1,-1,-1],"split_conditions":[1.44133E1,7E-4,2.0000684E-1,4.986332E-2,5.2979134E-2,5.88875E1,6.2362175E-2,7.7494388E-3,5.810459E-2,5.01253E-5,4.84604E-5,6.738765E-2,8.351982E-2,8.66236E1,4.63594E1,2.9220122E-3,2.105242E-3,5.3824358E-2,5.300988E-1,4.55725E-5,9.01E-2,4.61261E-5,1.6769435E-1,4.769907E-2,8.337084E-2,2.8073888E-2,1.294771E-1,2.4345536E-2,5.9003346E-2,6.9675725E-3,2.4324965E-2,-5.242086E-6,-1.1290406E-2,-7.3219035E-3,-2.0359834E-3,1.6102771E-3,-6.243046E-3,5.3179124E-3,1.8168427E-2,-7.6284274E-3,4.5516402E-3,-9.691315E-3,-6.017599E-3,-1.9269647E-3,8.816913E-3,-5.5369087E-3,-2.3819946E-3,1.0660846E-2,-2.6795198E-3,1.3736343E-2,7.3506287E-3,-3.078892E-3,7.536854E-3,1.1136699E-2,1.5290385E-2,3.9208564E-4,1.538711E-2,1.9822156E-2,6.2405877E-3],"split_indices":[4,4,5,2,2,4,1,2,1,5,5,2,5,4,4,2,1,1,2,5,4,5,2,5,5,2,2,2,1,0,0,0,0,0,0,0,0,0,0,0,0,0,0,0,0,0,0,0,0,0,0,0,0,0,0,0,0,0,0],"split_type":[0,0,0,0,0,0,0,0,0,0,0,0,0,0,0,0,0,0,0,0,0,0,0,0,0,0,0,0,0,0,0,0,0,0,0,0,0,0,0,0,0,0,0,0,0,0,0,0,0,0,0,0,0,0,0,0,0,0,0],"sum_hessian":[3.4139404E3,2.9395764E3,4.743641E2,6.701804E2,2.2693958E3,2.5264952E2,2.2171458E2,2.181588E2,4.5202164E2,8.607147E2,1.4086812E3,9.795211E1,1.546974E2,1.7010748E2,5.1607098E1,1.5077603E1,2.030812E2,3.603544E2,9.166723E1,4.7541562E2,3.852991E2,6.169598E2,7.917214E2,2.0144825E1,7.780729E1,1.6792053E1,1.3790535E2,2.3933723E1,1.4617375E2,1.5231211E0,5.0083977E1,3.058837E0,1.2018766E1,9.832092E0,1.932491E2,3.4710764E2,1.3246772E1,8.819519E1,3.4720416E0,4.366002E2,3.881541E1,3.3113742E2,5.4161694E1,5.8584045E2,3.1119314E1,5.46732E2,2.4498938E2,4.447607E0,1.5697218E1,1.966424E1,5.8143047E1,3.1293151E0,1.3662739E1,8.325714E1,5.4648205E1,1.300939E0,2.2632786E1,1.445988E2,1.5749547E0],"tree_param":{"num_deleted":"0","num_feature":"6","num_nodes":"59","size_leaf_vector":"1"}},{"base_weights":[-1.0627508E-1,-3.6210692E-1,1.4253114E0,-4.434864E-1,8.6167246E-1,9.591758E-1,1.9231584E-2,-5.8551675E-1,-2.0843692E-1,7.49975E-1,1.6480594E0,9.853261E-1,1.2526593E-1,-2.18438E-1,-6.7577064E-1,7.602117E-2,-3.6136293E-1,6.166854E-1,1.4354801E0,1.9068413E0,1.0349998E0,8.972548E-1,1.3126148E0,5.841984E-1,-4.4212744E-1,-7.7501326E-3,-1.8031405E-3,-8.035953E-3,-5.420352E-3,-5.5984285E-4,1.7418023E-3,-3.7024224E-3,5.324587E-3,8.702132E-3,2.6311348E-3,1.6546115E-2,-6.60176E-3,5.4387585E-3,1.997088E-2,1.3640715E-3,1.2599002E-2,9.417112E-3,1.8113089E-4,2.7297873E-3,1.6228683E-2,1.2806447E-3,9.664595E-3,-8.935913E-3,1.8778102E-3],"categories":[],"categories_nodes":[],"categories_segments":[],"categories_sizes":[],"default_left":[0,0,0,0,0,0,0,0,0,0,0,0,0,0,0,0,0,0,0,0,0,0,0,0,0,0,0,0,0,0,0,0,0,0,0,0,0,0,0,0,0,0,0,0,0,0,0,0,0],"id":19,"left_children":[1,3,5,7,9,11,-1,13,15,17,19,21,23,25,27,29,31,33,35,37,39,41,43,45,47,-1,-1,-1,-1,-1,-1,-1,-1,-1,-1,-1,-1,-1,-1,-1,-1,-1,-1,-1,-1,-1,-1,-1,-1],"loss_changes":[1.3291442E3,2.8982303E2,1.1082977E2,9.0875E1,1.4711258E1,5.388214E0,0E0,5.6124878E1,4.475661E1,1.3807999E1,1.4762993E0,5.881897E0,2.5576952E0,7.004181E0,2.2861816E1,4.6788015E0,5.5058517E0,1.199659E1,1.276791E1,6.4863586E-1,1.5745659E0,7.6489716E0,1.5610603E1,8.0254817E-1,1.4525869E0,0E0,0E0,0E0,0E0,0E0,0E0,0E0,0E0,0E0,0E0,0E0,0E0,0E0,0E0,0E0,0E0,0E0,0E0,0E0,0E0,0E0,0E0,0E0,0E0],"parents":[2147483647,0,0,1,1,2,2,3,3,4,4,5,5,7,7,8,8,9,9,10,10,11,11,12,12,13,13,14,14,15,15,16,16,17,17,18,18,19,19,20,20,21,21,22,22,23,23,24,24],"right_children":[2,4,6,8,10,12,-1,14,16,18,20,22,24,26,28,30,32,34,36,38,40,42,44,46,48,-1,-1,-1,-1,-1,-1,-1,-1,-1,-1,-1,-1,-1,-1,-1,-1,-1,-1,-1,-1,-1,-1,-1,-1],"split_conditions":[1E0,2.31361E1,7.0525E1,2.4998501E-2,8.314807E-2,3E0,1.9231584E-2,5.85343E-6,1.4665311E-4,1.3418448E0,1.0003352E0,5.3172205E-3,4.49E-2,2.3707184E-3,1.034736E-2,3.9581176E-2,1.212E-1,1.0002762E0,6.559599E-2,5.862469E-1,4.15479E1,6.600783E-4,1.8647715E-2,5.85343E-6,4.63594E1,-7.7501326E-3,-1.8031405E-3,-8.035953E-3,-5.420352E-3,-5.5984285E-4,1.7418023E-3,-3.7024224E-3,5.324587E-3,8.702132E-3,2.6311348E-3,1.6546115E-2,-6.60176E-3,5.4387585E-3,1.997088E-2,1.3640715E-3,1.2599002E-2,9.417112E-3,1.8113089E-4,2.7297873E-3,1.6228683E-2,1.2806447E-3,9.664595E-3,-8.935913E-3,1.8778102E-3],"split_indices":[0,4,4,1,1,0,0,3,3,3,3,3,4,1,1,1,4,3,1,3,4,3,1,3,4,0,0,0,0,0,0,0,0,0,0,0,0,0,0,0,0,0,0,0,0,0,0,0,0],"split_type":[0,0,0,0,0,0,0,0,0,0,0,0,0,0,0,0,0,0,0,0,0,0,0,0,0,0,0,0,0,0,0,0,0,0,0,0,0,0,0,0,0,0,0,0,0,0,0,0,0],"sum_hessian":[3.3898398E3,2.9053088E3,4.845309E2,2.7247544E3,1.8055446E2,2.517465E2,2.3278441E2,1.6975228E3,1.0272316E3,1.5980908E2,2.0745386E1,2.4391606E2,7.8304405E0,3.3567838E2,1.3618445E3,3.5933484E2,6.678968E2,1.3538452E2,2.4424562E1,1.3103729E1,7.6416574E0,1.9514523E2,4.8770832E1,4.312602E0,3.5178387E0,2.0279997E1,3.153984E2,6.937486E2,6.680959E2,1.5343001E2,2.0590482E2,6.619071E2,5.9896784E0,7.799628E1,5.7388233E1,2.2302923E1,2.1216393E0,1.250122E0,1.1853608E1,1.851297E0,5.79036E0,1.8568439E2,9.460846E0,1.1641364E1,3.712947E1,2.574998E0,1.7376041E0,1.8053293E0,1.7125093E0],"tree_param":{"num_deleted":"0","num_feature":"6","num_nodes":"49","size_leaf_vector":"1"}},{"base_weights":[-8.821077E-2,-3.4652036E-1,1.4130886E0,-4.363909E-1,8.7783617E-1,9.3378055E-1,1.9222021E0,-6.4001304E-1,-2.4863346E-1,3.851516E-1,1.0690736E0,-9.068297E-2,9.7352487E-1,1.8192942E0,2.2544378E-2,-2.5869742E-1,-7.3402995E-1,-1.4164748E-2,-3.4983322E-1,6.919218E-2,9.028184E-1,7.519389E-1,1.3185532E0,1.1427656E-2,-5.825877E-1,9.108017E-1,1.4457883E0,1.8825777E-2,9.8609674E-1,-5.1147984E-3,-7.108953E-4,-8.368797E-3,-6.1330474E-3,-2.3727082E-3,1.0120719E-3,-3.5842329E-3,1.153792E-2,4.1730613E-3,-2.2652303E-3,1.9794898E-2,5.038027E-3,3.947098E-3,9.281477E-3,-8.023783E-4,1.362019E-2,-7.203032E-3,6.1545765E-4,-4.5767874E-3,9.227621E-3,1.5502431E-2,4.3749567E-3,-2.6117573E-3,1.1703403E-2],"categories":[],"categories_nodes":[],"categories_segments":[],"categories_sizes":[],"default_left":[0,0,0,0,0,0,0,0,0,0,0,0,0,0,0,0,0,0,0,0,0,0,0,0,0,0,0,0,0,0,0,0,0,0,0,0,0,0,0,0,0,0,0,0,0,0,0,0,0,0,0,0,0],"id":20,"left_children":[1,3,5,7,9,11,13,15,17,19,21,23,25,27,-1,29,31,33,35,37,39,41,43,-1,45,47,49,-1,51,-1,-1,-1,-1,-1,-1,-1,-1,-1,-1,-1,-1,-1,-1,-1,-1,-1,-1,-1,-1,-1,-1,-1,-1],"loss_changes":[1.3096178E3,3.1739233E2,1.1918158E2,1.02480286E2,1.8181992E1,1.05646515E1,4.0855713E0,4.5959717E1,3.3176216E1,9.218734E0,1.0211731E1,7.0510798E0,6.0227203E0,8.057007E0,0E0,1.2111771E1,1.2302307E1,1.0902788E1,1.3029442E1,3.8334267E0,8.206724E0,3.704647E0,4.8471985E0,0E0,7.704797E-1,4.046585E0,2.202034E0,0E0,3.8381376E0,0E0,0E0,0E0,0E0,0E0,0E0,0E0,0E0,0E0,0E0,0E0,0E0,0E0,0E0,0E0,0E0,0E0,0E0,0E0,0E0,0E0,0E0,0E0,0E0],"parents":[2147483647,0,0,1,1,2,2,3,3,4,4,5,5,6,6,7,7,8,8,9,9,10,10,11,11,12,12,13,13,15,15,16,16,17,17,18,18,19,19,20,20,21,21,22,22,24,24,25,25,26,26,28,28],"right_children":[2,4,6,8,10,12,14,16,18,20,22,24,26,28,-1,30,32,34,36,38,40,42,44,-1,46,48,50,-1,52,-1,-1,-1,-1,-1,-1,-1,-1,-1,-1,-1,-1,-1,-1,-1,-1,-1,-1,-1,-1,-1,-1,-1,-1],"split_conditions":[1E0,1.212E-1,7.0525E1,6.892392E-2,4.63594E1,2.0239085E-2,6.2362175E-2,7E-4,8.5E-3,4.0034737E-2,9.229482E-2,2.6228155E-3,8.7431096E-2,5.1251803E-2,2.2544378E-2,2.9626168E-2,3.4338377E-2,2.4998501E-2,5.300988E-1,2.93193E1,1.3103376E-1,8.2128E1,1.0750778E-2,1.1427656E-2,1.8776648E-2,2.9861536E-3,2.3716187E-1,1.8825777E-2,1.0056095E-1,-5.1147984E-3,-7.108953E-4,-8.368797E-3,-6.1330474E-3,-2.3727082E-3,1.0120719E-3,-3.5842329E-3,1.153792E-2,4.1730613E-3,-2.2652303E-3,1.9794898E-2,5.038027E-3,3.947098E-3,9.281477E-3,-8.023783E-4,1.362019E-2,-7.203032E-3,6.1545765E-4,-4.5767874E-3,9.227621E-3,1.5502431E-2,4.3749567E-3,-2.6117573E-3,1.1703403E-2],"split_indices":[0,4,4,2,4,2,1,4,4,1,2,1,1,1,0,2,2,1,2,4,2,4,1,0,2,1,1,0,2,0,0,0,0,0,0,0,0,0,0,0,0,0,0,0,0,0,0,0,0,0,0,0,0],"split_type":[0,0,0,0,0,0,0,0,0,0,0,0,0,0,0,0,0,0,0,0,0,0,0,0,0,0,0,0,0,0,0,0,0,0,0,0,0,0,0,0,0,0,0,0,0,0,0,0,0,0,0,0,0],"sum_hessian":[3.374782E3,2.8800222E3,4.947598E2,2.6836777E3,1.9634447E2,2.5629938E2,2.3846042E2,1.2862915E3,1.3973862E3,5.5744347E1,1.4060011E2,9.523993E0,2.4677538E2,1.8701093E2,5.14495E1,2.5516013E2,1.0311313E3,4.2163782E2,9.7574835E2,3.5320213E1,2.0424133E1,6.3673454E1,7.692666E1,2.3380926E0,7.1858997E0,2.2042805E2,2.6347328E1,1.7263908E2,1.4371832E1,1.0796372E2,1.471964E2,5.535834E2,4.7754797E2,1.4335722E2,2.7828058E2,9.70963E2,4.78538E0,1.6033964E1,1.928625E1,4.451536E0,1.5972597E1,2.2103306E1,4.157015E1,2.292871E0,7.463379E1,5.8227468E0,1.3631526E0,1.5869521E0,2.188411E2,2.3387035E1,2.960293E0,1.7959871E0,1.2575845E1],"tree_param":{"num_deleted":"0","num_feature":"6","num_nodes":"53","size_leaf_vector":"1"}},{"base_weights":[-1.042555E-1,-3.5076913E-1,1.4101869E0,-4.3842965E-1,8.007832E-1,9.00208E-1,1.9016757E0,-2.8700882E-1,-6.455378E-1,8.7781703E-1,2.6397884E-1,7.229312E-1,1.2780876E0,1.6179012E0,1.9743357E0,-3.1595746E-1,4.4646943E-1,-6.514606E-1,2.1775614E-1,8.0024093E-1,2.3767412E0,-8.339524E-3,3.6356467E-1,3.5711738E-1,9.6530414E-1,1.3716408E0,2.980541E-1,3.186391E-3,1.6489435E-2,1.9835083E-2,5.6943544E-3,-1.0215653E-3,-4.38094E-3,2.390764E-2,-4.428103E-3,-6.35097E-3,-8.808698E-3,5.4187207E-3,-3.9819856E-3,8.713672E-3,3.9239894E-3,2.6692549E-2,6.990058E-3,1.503481E-2,2.270244E-3,6.5060547E-3,-3.0707493E-3,8.278331E-3,1.622948E-2,1.41360415E-2,2.8661462E-3,-2.192561E-3,7.675405E-3],"categories":[],"categories_nodes":[],"categories_segments":[],"categories_sizes":[],"default_left":[0,0,0,0,0,0,0,0,0,0,0,0,0,0,0,0,0,0,0,0,0,0,0,0,0,0,0,0,0,0,0,0,0,0,0,0,0,0,0,0,0,0,0,0,0,0,0,0,0,0,0,0,0],"id":21,"left_children":[1,3,5,7,9,11,13,15,17,19,21,23,25,27,29,31,33,35,37,39,41,-1,43,45,47,49,51,-1,-1,-1,-1,-1,-1,-1,-1,-1,-1,-1,-1,-1,-1,-1,-1,-1,-1,-1,-1,-1,-1,-1,-1,-1,-1],"loss_changes":[1.2597024E3,2.9324857E2,1.1668634E2,8.439172E1,8.270462E0,1.4732864E1,1.7470093E0,3.3258713E1,5.96167E0,1.8955597E1,3.280758E0,1.3964661E1,6.3146057E0,1.6683044E0,1.270752E0,3.915271E1,1.04169235E2,3.6852112E0,1.9137539E0,4.6490707E0,2.2167778E0,0E0,3.6531744E0,1.3046601E1,7.3794937E0,2.6301346E0,2.0305662E0,0E0,0E0,0E0,0E0,0E0,0E0,0E0,0E0,0E0,0E0,0E0,0E0,0E0,0E0,0E0,0E0,0E0,0E0,0E0,0E0,0E0,0E0,0E0,0E0,0E0,0E0],"parents":[2147483647,0,0,1,1,2,2,3,3,4,4,5,5,6,6,7,7,8,8,9,9,10,10,11,11,12,12,13,13,14,14,15,15,16,16,17,17,18,18,19,19,20,20,22,22,23,23,24,24,25,25,26,26],"right_children":[2,4,6,8,10,12,14,16,18,20,22,24,26,28,30,32,34,36,38,40,42,-1,44,46,48,50,52,-1,-1,-1,-1,-1,-1,-1,-1,-1,-1,-1,-1,-1,-1,-1,-1,-1,-1,-1,-1,-1,-1,-1,-1,-1,-1],"split_conditions":[1.44133E1,1E0,1.8209808E-1,3.1749325E-4,3.4228188E-4,1E0,2.2929747E-1,2.9941913E-4,1.212E-1,2.907623E-4,4.31389E-5,5.88875E1,1.865369E2,3.7861E1,4E0,9.677419E-6,3.002269E-4,2.8405092E-3,1.5279627E-2,9.03037E-5,6.31484E-5,-8.339524E-3,5.38774E-5,1.0011063E0,1.8431847E0,3E0,1.0001351E0,3.186391E-3,1.6489435E-2,1.9835083E-2,5.6943544E-3,-1.0215653E-3,-4.38094E-3,2.390764E-2,-4.428103E-3,-6.35097E-3,-8.808698E-3,5.4187207E-3,-3.9819856E-3,8.713672E-3,3.9239894E-3,2.6692549E-2,6.990058E-3,1.503481E-2,2.270244E-3,6.5060547E-3,-3.0707493E-3,8.278331E-3,1.622948E-2,1.41360415E-2,2.8661462E-3,-2.192561E-3,7.675405E-3],"split_indices":[4,0,5,3,3,0,5,3,4,3,5,4,4,4,0,3,3,3,5,3,5,0,5,3,3,0,3,0,0,0,0,0,0,0,0,0,0,0,0,0,0,0,0,0,0,0,0,0,0,0,0,0,0],"split_type":[0,0,0,0,0,0,0,0,0,0,0,0,0,0,0,0,0,0,0,0,0,0,0,0,0,0,0,0,0,0,0,0,0,0,0,0,0,0,0,0,0,0,0,0,0,0,0,0,0,0,0,0,0],"sum_hessian":[3.3719019E3,2.9005352E3,4.7136676E2,2.69593E3,2.0460513E2,2.3272162E2,2.3864514E2,1.5587112E3,1.1372188E3,1.783726E2,2.6232533E1,1.6039006E2,7.233156E1,5.3391342E1,1.852538E2,1.500076E3,5.8635212E1,1.1297135E3,7.5051837E0,1.7105368E2,7.318921E0,1.5682632E0,2.466427E1,6.490391E1,9.548615E1,6.5663765E1,6.667795E0,1.508734E0,5.1882607E1,1.8364293E2,1.6108661E0,5.460493E2,9.540267E2,1.7871994E1,4.0763218E1,1.0580148E3,7.169873E1,4.9963646E0,2.5088186E0,1.4468463E2,2.6369043E1,5.7290683E0,1.5898528E0,1.567405E0,2.3096865E1,4.5027824E1,1.9876087E1,8.084537E1,1.4640783E1,6.2927223E1,2.7365398E0,3.425903E0,3.2418923E0],"tree_param":{"num_deleted":"0","num_feature":"6","num_nodes":"53","size_leaf_vector":"1"}},{"base_weights":[-1.15036614E-1,-3.652272E-1,1.3293197E0,-4.5141724E-1,8.065944E-1,9.588384E-1,1.8712045E0,-7.0968366E-1,-2.9754725E-1,3.4410074E-1,1.0609586E0,8.425578E-1,1.2472157E0,1.8143535E0,2.3171239E-2,-5.5979484E-1,-9.391749E-1,-1.2937053E-1,-5.00791E-1,5.862811E-1,-2.8184456E-1,8.953034E-1,2.0278253E-2,7.9997754E-1,1.7306577E0,1.6041951E0,8.9476126E-1,1.4214758E0,1.8591685E0,-6.146016E-3,2.646692E-2,-1.0204333E-2,-8.276175E-3,-1.5162225E-3,1.2364175E-2,-5.9816632E-3,-3.244723E-3,-5.452444E-3,7.0289094E-3,-7.541152E-3,7.1858935E-4,9.432058E-3,-2.3236582E-3,8.709661E-3,3.9045198E-3,2.2800582E-2,1.7667995E-3,6.6544013E-3,1.7021148E-2,-1.3957997E-3,1.1981992E-2,1.564128E-2,2.513277E-3,1.8684544E-2,5.7756836E-3],"categories":[],"categories_nodes":[],"categories_segments":[],"categories_sizes":[],"default_left":[0,0,0,0,0,0,0,0,0,0,0,0,0,0,0,0,0,0,0,0,0,0,0,0,0,0,0,0,0,0,0,0,0,0,0,0,0,0,0,0,0,0,0,0,0,0,0,0,0,0,0,0,0,0,0],"id":22,"left_children":[1,3,5,7,9,11,13,15,17,19,21,23,25,27,-1,29,31,33,35,37,39,41,-1,43,45,47,49,51,53,-1,-1,-1,-1,-1,-1,-1,-1,-1,-1,-1,-1,-1,-1,-1,-1,-1,-1,-1,-1,-1,-1,-1,-1,-1,-1],"loss_changes":[1.2183606E3,2.9057602E2,9.814508E1,1.0617853E2,2.2836716E1,8.932373E0,8.937988E-1,3.3830963E1,5.7338028E1,1.0998203E1,1.8487625E1,6.755234E0,9.066513E0,5.786743E-1,0E0,1.0823918E2,2.7192688E0,2.8156996E1,1.2855545E1,7.2247753E0,3.4971118E0,6.1617737E0,0E0,5.685318E0,7.2710724E0,2.5632477E0,1.4059105E1,3.4429893E0,8.366699E-1,0E0,0E0,0E0,0E0,0E0,0E0,0E0,0E0,0E0,0E0,0E0,0E0,0E0,0E0,0E0,0E0,0E0,0E0,0E0,0E0,0E0,0E0,0E0,0E0,0E0,0E0],"parents":[2147483647,0,0,1,1,2,2,3,3,4,4,5,5,6,6,7,7,8,8,9,9,10,10,11,11,12,12,13,13,15,15,16,16,17,17,18,18,19,19,20,20,21,21,23,23,24,24,25,25,26,26,27,27,28,28],"right_children":[2,4,6,8,10,12,14,16,18,20,22,24,26,28,-1,30,32,34,36,38,40,42,-1,44,46,48,50,52,54,-1,-1,-1,-1,-1,-1,-1,-1,-1,-1,-1,-1,-1,-1,-1,-1,-1,-1,-1,-1,-1,-1,-1,-1,-1,-1],"split_conditions":[1E0,7.906603E-3,2.0000684E-1,5.0998393E-2,1.0441963E-1,4.769907E-2,3.0305162E-1,3.002269E-4,3.0437586E-4,1.0011063E0,2.4960186E-1,3.550536E-1,1.0000285E0,2.2929747E-1,2.3171239E-2,2.9941913E-4,2.8691959E-2,2.9941913E-4,1.5331712E-1,2.081992E-2,9.137729E-2,2.2262916E-1,2.0278253E-2,2E0,7.40837E-5,3.86371E-2,1.0001743E0,3E0,4E0,-6.146016E-3,2.646692E-2,-1.0204333E-2,-8.276175E-3,-1.5162225E-3,1.2364175E-2,-5.9816632E-3,-3.244723E-3,-5.452444E-3,7.0289094E-3,-7.541152E-3,7.1858935E-4,9.432058E-3,-2.3236582E-3,8.709661E-3,3.9045198E-3,2.2800582E-2,1.7667995E-3,6.6544013E-3,1.7021148E-2,-1.3957997E-3,1.1981992E-2,1.564128E-2,2.513277E-3,1.8684544E-2,5.7756836E-3],"split_indices":[0,3,5,2,5,5,2,3,3,3,2,2,3,5,0,3,2,3,2,2,2,2,0,0,3,2,3,0,0,0,0,0,0,0,0,0,0,0,0,0,0,0,0,0,0,0,0,0,0,0,0,0,0,0,0],"split_type":[0,0,0,0,0,0,0,0,0,0,0,0,0,0,0,0,0,0,0,0,0,0,0,0,0,0,0,0,0,0,0,0,0,0,0,0,0,0,0,0,0,0,0,0,0,0,0,0,0,0,0,0,0,0,0],"sum_hessian":[3.3692136E3,2.8724043E3,4.9680914E2,2.6761804E3,1.9622409E2,2.9671646E2,2.0009268E2,9.9779584E2,1.6783845E3,7.046146E1,1.25762634E2,2.1424818E2,8.246827E1,1.8196272E2,1.8129969E1,6.056584E2,3.9213748E2,9.193186E2,7.590659E2,5.0850567E1,1.9610893E1,1.0901147E2,1.6751165E1,2.0625977E2,7.988415E0,3.9206722E1,4.326155E1,2.198111E1,1.5998161E2,5.9627484E2,9.38349E0,2.2216522E2,1.6997226E2,9.054557E2,1.38629E1,4.8746277E2,2.7160312E2,4.4074063E0,4.6443157E1,7.913116E0,1.1697777E1,1.0472636E2,4.285108E0,1.7482773E2,3.1432034E1,5.556651E0,2.4317636E0,4.4396505E0,3.476707E1,9.935165E0,3.3326385E1,1.929248E1,2.6886284E0,1.5837619E2,1.6054171E0],"tree_param":{"num_deleted":"0","num_feature":"6","num_nodes":"55","size_leaf_vector":"1"}},{"base_weights":[-1.0633656E-1,-3.3853304E-1,1.4972091E0,-4.285742E-1,7.841146E-1,1.0310606E0,1.850941E0,-5.800228E-1,-2.1500814E-1,7.196404E-1,1.2930396E0,8.9966655E-1,1.6025752E0,1.6051413E-3,1.858072E0,-2.416997E-1,-6.60988E-1,3.125522E-2,-3.4080365E-1,3.487798E-1,7.7990174E-1,1.3528281E-2,2.965883E-3,1.1306711E0,4.076237E-1,1.7117696E-2,9.282666E-1,1.7684749E0,2.1353633E0,-8.3873E-3,-2.041407E-3,-6.821901E-3,3.1532382E-3,-1.3702734E-4,6.3828803E-3,-3.7044112E-3,4.923873E-3,6.026669E-3,-1.0421872E-3,1.3939569E-2,7.187931E-3,1.9093968E-2,1.0398285E-2,1.5758579E-3,1.0362285E-2,5.168054E-4,1.4498817E-2,1.2921644E-2,1.8177379E-2,2.189417E-2,1.0413142E-2],"categories":[],"categories_nodes":[],"categories_segments":[],"categories_sizes":[],"default_left":[0,0,0,0,0,0,0,0,0,0,0,0,0,0,0,0,0,0,0,0,0,0,0,0,0,0,0,0,0,0,0,0,0,0,0,0,0,0,0,0,0,0,0,0,0,0,0,0,0,0,0],"id":23,"left_children":[1,3,5,7,9,11,13,15,17,19,21,23,25,-1,27,29,31,33,35,37,39,-1,-1,41,43,-1,45,47,49,-1,-1,-1,-1,-1,-1,-1,-1,-1,-1,-1,-1,-1,-1,-1,-1,-1,-1,-1,-1,-1,-1],"loss_changes":[1.2567123E3,2.983235E2,6.8488464E1,8.816467E1,6.2630615E0,1.2559631E1,2.6126099E0,4.357245E1,3.5145596E1,4.127022E0,9.9261856E-1,1.7029694E1,8.830719E-1,0E0,2.1954346E0,6.777153E0,2.6869263E1,1.049892E1,1.872187E1,3.4352012E0,5.321373E0,0E0,0E0,5.3825073E0,7.809616E0,0E0,3.0634832E0,2.050476E0,9.0641785E-1,0E0,0E0,0E0,0E0,0E0,0E0,0E0,0E0,0E0,0E0,0E0,0E0,0E0,0E0,0E0,0E0,0E0,0E0,0E0,0E0,0E0,0E0],"parents":[2147483647,0,0,1,1,2,2,3,3,4,4,5,5,6,6,7,7,8,8,9,9,10,10,11,11,12,12,14,14,15,15,16,16,17,17,18,18,19,19,20,20,23,23,24,24,26,26,27,27,28,28],"right_children":[2,4,6,8,10,12,14,16,18,20,22,24,26,-1,28,30,32,34,36,38,40,-1,-1,42,44,-1,46,48,50,-1,-1,-1,-1,-1,-1,-1,-1,-1,-1,-1,-1,-1,-1,-1,-1,-1,-1,-1,-1,-1,-1],"split_conditions":[8.351982E-2,1E0,1.8209808E-1,2.2463154E-2,8.314807E-2,1.3418448E0,2.105242E-3,5.85343E-6,1.3455235E-4,8.333308E-3,6.3112855E-4,1.0002762E0,6.559599E-2,1.6051413E-3,6.44418E-2,2.105242E-3,7.906603E-3,2.07197E-5,7.906603E-3,5.9509855E-3,1.1335005E-2,1.3528281E-2,2.965883E-3,1.0441963E-1,1E0,1.7117696E-2,8.0978915E-2,1E0,3E0,-8.3873E-3,-2.041407E-3,-6.821901E-3,3.1532382E-3,-1.3702734E-4,6.3828803E-3,-3.7044112E-3,4.923873E-3,6.026669E-3,-1.0421872E-3,1.3939569E-2,7.187931E-3,1.9093968E-2,1.0398285E-2,1.5758579E-3,1.0362285E-2,5.168054E-4,1.4498817E-2,1.2921644E-2,1.8177379E-2,2.189417E-2,1.0413142E-2],"split_indices":[5,0,5,1,1,3,1,3,3,1,3,3,1,0,1,1,3,5,3,1,1,0,0,5,0,0,1,0,0,0,0,0,0,0,0,0,0,0,0,0,0,0,0,0,0,0,0,0,0,0,0],"split_type":[0,0,0,0,0,0,0,0,0,0,0,0,0,0,0,0,0,0,0,0,0,0,0,0,0,0,0,0,0,0,0,0,0,0,0,0,0,0,0,0,0,0,0,0,0,0,0,0,0,0,0],"sum_hessian":[3.3728337E3,2.946905E3,4.2592865E2,2.728672E3,2.1823293E2,1.8545305E2,2.4047559E2,1.595512E3,1.1331602E3,1.9583696E2,2.239597E1,1.5287949E2,3.2573566E1,1.1089399E0,2.3936665E2,3.0886517E2,1.2866469E3,3.8338287E2,7.497773E2,2.832247E1,1.6751448E2,2.079084E1,1.6051285E0,1.0315316E2,4.9726326E1,2.6709751E1,5.8638153E0,1.864874E2,5.2879257E1,1.7018082E1,2.9184708E2,1.259594E3,2.7052807E1,3.5785678E2,2.5526098E1,7.245593E2,2.5217962E1,1.7938358E1,1.0384111E1,1.318751E1,1.5432698E2,8.684937E0,9.446822E1,3.6470337E1,1.3255988E1,2.5975878E0,3.2662277E0,2.0032118E1,1.6645528E2,4.9435577E1,3.4436793E0],"tree_param":{"num_deleted":"0","num_feature":"6","num_nodes":"51","size_leaf_vector":"1"}},{"base_weights":[-1.0299015E-1,-3.4231648E-1,1.3208121E0,-4.2908743E-1,7.603688E-1,8.679699E-1,1.8357375E0,-6.5069E-1,-2.2625658E-1,8.474112E-1,3.0131403E-1,6.95858E-1,1.1867172E0,7.117449E-1,1.8561084E0,-5.022581E-1,-9.0265363E-1,-3.296057E-2,-4.3875796E-1,8.0115056E-1,1.7748046E0,5.8082664E-1,-3.97654E-1,3.9066344E-1,8.948264E-1,7.360418E-1,1.3380332E0,1.6657796E-4,1.3169885E-2,1.3842101E0,1.9106032E-2,-5.546874E-3,7.2594937E-3,-9.138354E-3,3.6273755E-3,-6.2853924E-4,1.2631378E-2,-5.1689274E-3,-3.4396984E-3,8.368696E-3,-1.0413253E-3,2.1273758E-2,2.8956565E-3,-9.3389576E-4,8.873016E-3,-8.269961E-3,1.5491035E-3,1.6987247E-3,1.0876405E-2,1.5203868E-3,9.629301E-3,3.638773E-3,1.414405E-2,1.3796048E-2,-4.06056E-3,1.7102705E-2,-3.0097775E-3],"categories":[],"categories_nodes":[],"categories_segments":[],"categories_sizes":[],"default_left":[0,0,0,0,0,0,0,0,0,0,0,0,0,0,0,0,0,0,0,0,0,0,0,0,0,0,0,0,0,0,0,0,0,0,0,0,0,0,0,0,0,0,0,0,0,0,0,0,0,0,0,0,0,0,0,0,0],"id":24,"left_children":[1,3,5,7,9,11,13,15,17,19,21,23,25,27,29,31,33,35,37,39,41,43,45,47,49,51,53,-1,-1,55,-1,-1,-1,-1,-1,-1,-1,-1,-1,-1,-1,-1,-1,-1,-1,-1,-1,-1,-1,-1,-1,-1,-1,-1,-1,-1,-1],"loss_changes":[1.1510924E3,2.770004E2,1.1176135E2,1.2037244E2,8.187836E0,1.346814E1,3.8666992E0,4.744922E1,5.7552643E1,6.1748962E0,7.1142E0,1.0071358E1,5.148613E0,2.357192E0,3.0621948E0,5.2450226E1,7.032135E0,2.855639E1,4.765869E0,5.5998764E0,3.3587036E0,5.3671923E0,2.6565773E0,1.0510556E1,5.0695877E0,5.7540064E0,5.353508E0,0E0,0E0,1.5132732E1,0E0,0E0,0E0,0E0,0E0,0E0,0E0,0E0,0E0,0E0,0E0,0E0,0E0,0E0,0E0,0E0,0E0,0E0,0E0,0E0,0E0,0E0,0E0,0E0,0E0,0E0,0E0],"parents":[2147483647,0,0,1,1,2,2,3,3,4,4,5,5,6,6,7,7,8,8,9,9,10,10,11,11,12,12,13,13,14,14,15,15,16,16,17,17,18,18,19,19,20,20,21,21,22,22,23,23,24,24,25,25,26,26,29,29],"right_children":[2,4,6,8,10,12,14,16,18,20,22,24,26,28,30,32,34,36,38,40,42,44,46,48,50,52,54,-1,-1,56,-1,-1,-1,-1,-1,-1,-1,-1,-1,-1,-1,-1,-1,-1,-1,-1,-1,-1,-1,-1,-1,-1,-1,-1,-1,-1,-1],"split_conditions":[1.44133E1,1E0,2.0000684E-1,6.892392E-2,2E0,1E0,4.63594E1,4.90196E-5,4.71156E-5,3.550536E-1,1.59957E-5,5.88875E1,6.5286584E-2,1.6769435E-1,4.674069E-2,4.61261E-5,1.212E-1,4.61261E-5,1.4607528E-1,5.4E-2,7.5E-3,5.2270748E-2,2.95E-2,1.9764297E-1,2.8073888E-2,1.6669412E-1,2.261538E2,1.6657796E-4,1.3169885E-2,4.025072E-2,1.9106032E-2,-5.546874E-3,7.2594937E-3,-9.138354E-3,3.6273755E-3,-6.2853924E-4,1.2631378E-2,-5.1689274E-3,-3.4396984E-3,8.368696E-3,-1.0413253E-3,2.1273758E-2,2.8956565E-3,-9.3389576E-4,8.873016E-3,-8.269961E-3,1.5491035E-3,1.6987247E-3,1.0876405E-2,1.5203868E-3,9.629301E-3,3.638773E-3,1.414405E-2,1.3796048E-2,-4.06056E-3,1.7102705E-2,-3.0097775E-3],"split_indices":[4,0,5,2,0,0,4,5,5,2,5,4,2,2,2,5,4,5,2,4,4,2,4,2,2,5,4,0,0,2,0,0,0,0,0,0,0,0,0,0,0,0,0,0,0,0,0,0,0,0,0,0,0,0,0,0,0],"split_type":[0,0,0,0,0,0,0,0,0,0,0,0,0,0,0,0,0,0,0,0,0,0,0,0,0,0,0,0,0,0,0,0,0,0,0,0,0,0,0,0,0,0,0,0,0,0,0,0,0,0,0,0,0,0,0,0,0],"sum_hessian":[3.375754E3,2.890629E3,4.8512503E2,2.6803235E3,2.1030537E2,2.5955206E2,2.2557295E2,1.2798344E3,1.4004893E3,1.7607367E2,3.423171E1,1.706113E2,8.8940765E1,4.655211E0,2.2091776E2,8.0726654E2,4.7256778E2,7.3399036E2,6.664989E2,1.694833E2,6.5903716E0,2.4573824E1,9.657884E0,6.850144E1,1.0210986E2,2.3830112E1,6.511066E1,2.6450489E0,2.0101624E0,2.5603626E1,1.9531412E2,7.747429E2,3.252358E1,4.6870386E2,3.8639483E0,7.1837317E2,1.5617131E1,3.6290198E2,3.0359692E2,1.6312267E2,6.3606386E0,4.9766507E0,1.6137209E0,7.896825E0,1.6677E1,5.155451E0,4.5024333E0,5.2966305E1,1.5535133E1,8.847303E0,9.326256E1,1.6380066E1,7.450047E0,6.3798946E1,1.311709E0,2.1440334E1,4.1632915E0],"tree_param":{"num_deleted":"0","num_feature":"6","num_nodes":"57","size_leaf_vector":"1"}},{"base_weights":[-1.02885365E-1,-3.4691635E-1,1.3117994E0,-4.3197933E-1,8.225681E-1,8.611652E-1,1.7899805E0,-6.3230205E-1,-2.4286887E-1,7.113425E-1,1.4834304E-2,4.6546456E-1,9.9731445E-1,1.860292E-2,1.5334293E0,-2.692318E-1,-7.250101E-1,1.6835483E-2,-3.533542E-1,2.2767624E-1,8.8761044E-1,5.2032036E-1,-9.062776E-3,9.167816E-1,1.3031754E0,7.1429056E-1,1.6058704E0,-5.0329547E-3,-1.0326847E-3,-8.346127E-3,-6.31841E-3,-1.4090199E-3,1.9690788E-3,-3.8747024E-3,3.074521E-5,-3.2151226E-4,8.371063E-3,9.257645E-3,-5.5311383E-3,6.185536E-3,-7.788606E-4,1.39507055E-2,8.442189E-3,1.4052231E-2,-5.315029E-3,1.0140697E-2,-3.614121E-3,4.2463695E-3,1.6403206E-2],"categories":[],"categories_nodes":[],"categories_segments":[],"categories_sizes":[],"default_left":[0,0,0,0,0,0,0,0,0,0,0,0,0,0,0,0,0,0,0,0,0,0,0,0,0,0,0,0,0,0,0,0,0,0,0,0,0,0,0,0,0,0,0,0,0,0,0,0,0],"id":25,"left_children":[1,3,5,7,9,11,13,15,17,19,-1,21,23,-1,25,27,29,31,33,35,37,39,-1,41,43,45,47,-1,-1,-1,-1,-1,-1,-1,-1,-1,-1,-1,-1,-1,-1,-1,-1,-1,-1,-1,-1,-1,-1],"loss_changes":[1.1611833E3,2.8569904E2,1.0509332E2,1.01166016E2,1.3265686E1,1.3365082E1,1.4616089E0,4.349951E1,3.9528107E1,1.4179047E1,0E0,5.557353E0,3.4879913E0,0E0,2.2434692E0,1.0267069E1,1.0026306E1,1.1731531E1,1.1751884E1,7.374263E0,7.28891E0,3.9044628E0,0E0,4.1620483E0,7.7210083E0,2.444398E0,1.4071045E0,0E0,0E0,0E0,0E0,0E0,0E0,0E0,0E0,0E0,0E0,0E0,0E0,0E0,0E0,0E0,0E0,0E0,0E0,0E0,0E0,0E0,0E0],"parents":[2147483647,0,0,1,1,2,2,3,3,4,4,5,5,6,6,7,7,8,8,9,9,11,11,12,12,14,14,15,15,16,16,17,17,18,18,19,19,20,20,21,21,23,23,24,24,25,25,26,26],"right_children":[2,4,6,8,10,12,14,16,18,20,-1,22,24,-1,26,28,30,32,34,36,38,40,-1,42,44,46,48,-1,-1,-1,-1,-1,-1,-1,-1,-1,-1,-1,-1,-1,-1,-1,-1,-1,-1,-1,-1,-1,-1],"split_conditions":[1E0,1.44133E1,7.0525E1,6.956803E-2,2.391444E-1,6.670513E-2,2E0,7E-4,8.5E-3,5.01175E1,1.4834304E-2,3E0,7.592233E-2,1.860292E-2,9.543636E-3,2.9626168E-2,7.3683304E-3,3.53357E-2,2.7152535E-1,4.2727068E-2,2.2262916E-1,5.9956335E-2,-9.062776E-3,1.4837033E-2,3E0,3E0,2.9164584E-2,-5.0329547E-3,-1.0326847E-3,-8.346127E-3,-6.31841E-3,-1.4090199E-3,1.9690788E-3,-3.8747024E-3,3.074521E-5,-3.2151226E-4,8.371063E-3,9.257645E-3,-5.5311383E-3,6.185536E-3,-7.788606E-4,1.39507055E-2,8.442189E-3,1.4052231E-2,-5.315029E-3,1.0140697E-2,-3.614121E-3,4.2463695E-3,1.6403206E-2],"split_indices":[0,4,4,2,2,2,0,4,4,4,0,0,1,0,1,2,1,1,2,1,2,2,0,1,0,0,2,0,0,0,0,0,0,0,0,0,0,0,0,0,0,0,0,0,0,0,0,0,0],"split_type":[0,0,0,0,0,0,0,0,0,0,0,0,0,0,0,0,0,0,0,0,0,0,0,0,0,0,0,0,0,0,0,0,0,0,0,0,0,0,0,0,0,0,0,0,0,0,0,0,0],"sum_hessian":[3.361218E3,2.867358E3,4.9386014E2,2.6735283E3,1.938296E2,2.5569554E2,2.3816461E2,1.2971389E3,1.3763894E3,1.6768413E2,2.614548E1,6.658716E1,1.8910838E2,1.8202649E2,5.6138115E1,2.646399E2,1.032499E3,4.1104468E2,9.653448E2,4.5400402E1,1.2228373E2,6.462356E1,1.9636025E0,1.5285832E2,3.625006E1,5.4436407E0,5.0694477E1,1.0895061E2,1.556893E2,4.7075363E2,5.617454E2,2.1922678E2,1.9181789E2,8.8093756E2,8.440719E1,3.249399E1,1.2906408E1,1.194771E2,2.806633E0,5.5479153E1,9.144405E0,1.7734913E1,1.3512341E2,3.4561756E1,1.6883035E0,4.3020363E0,1.1416047E0,1.8142228E0,4.8880253E1],"tree_param":{"num_deleted":"0","num_feature":"6","num_nodes":"49","size_leaf_vector":"1"}},{"base_weights":[-9.9244185E-2,-3.2234034E-1,1.4863198E0,-4.1543624E-1,8.18147E-1,1.0078543E0,1.8254571E0,-6.4237314E-1,-2.7580288E-1,8.810669E-1,5.011649E-1,8.2201564E-1,1.3403507E0,1.723987E0,2.1343822E-2,-3.1074753E-1,-7.332727E-1,-1.3106064E-1,-4.538428E-1,8.2517904E-1,1.4781942E0,7.7648395E-1,5.812E-2,-7.3261466E-3,8.428507E-1,1.6155818E0,1.075993E0,1.5084948E-2,1.8435273E0,-3.4094963E-3,9.976708E-3,-7.550325E-3,2.0134372E-3,-1.5844312E-3,5.1413933E-3,-5.108716E-3,4.6245796E-3,9.185944E-3,6.0640574E-3,1.593406E-2,1.2489278E-3,1.0694226E-2,5.0250087E-3,-7.426426E-3,4.172274E-3,1.0296495E-2,6.1529013E-3,-6.1022094E-4,1.7126158E-2,1.3384625E-2,1.1891989E-3,1.8750018E-2,8.162499E-3],"categories":[],"categories_nodes":[],"categories_segments":[],"categories_sizes":[],"default_left":[0,0,0,0,0,0,0,0,0,0,0,0,0,0,0,0,0,0,0,0,0,0,0,0,0,0,0,0,0,0,0,0,0,0,0,0,0,0,0,0,0,0,0,0,0,0,0,0,0,0,0,0,0],"id":26,"left_children":[1,3,5,7,9,11,13,15,17,19,21,23,25,27,-1,29,31,33,35,37,39,41,43,-1,45,47,49,-1,51,-1,-1,-1,-1,-1,-1,-1,-1,-1,-1,-1,-1,-1,-1,-1,-1,-1,-1,-1,-1,-1,-1,-1,-1],"loss_changes":[1.1902161E3,3.134837E2,6.5507935E1,8.624893E1,4.0043945E0,9.673981E0,3.8953857E0,3.1067291E1,4.3497894E1,4.9433136E0,4.7411785E0,4.324707E0,2.6955261E0,2.0388794E0,0E0,9.234661E0,1.6708221E1,1.6577456E1,3.982158E1,2.9404068E0,2.0683022E0,1.3984394E0,4.9451814E0,0E0,4.187065E0,4.637207E0,8.40118E0,0E0,2.2151184E0,0E0,0E0,0E0,0E0,0E0,0E0,0E0,0E0,0E0,0E0,0E0,0E0,0E0,0E0,0E0,0E0,0E0,0E0,0E0,0E0,0E0,0E0,0E0,0E0],"parents":[2147483647,0,0,1,1,2,2,3,3,4,4,5,5,6,6,7,7,8,8,9,9,10,10,11,11,12,12,13,13,15,15,16,16,17,17,18,18,19,19,20,20,21,21,22,22,24,24,25,25,26,26,28,28],"right_children":[2,4,6,8,10,12,14,16,18,20,22,24,26,28,-1,30,32,34,36,38,40,42,44,-1,46,48,50,-1,52,-1,-1,-1,-1,-1,-1,-1,-1,-1,-1,-1,-1,-1,-1,-1,-1,-1,-1,-1,-1,-1,-1,-1,-1],"split_conditions":[9.097052E-2,1E0,1.8209808E-1,1.2716157E-2,2E0,1E0,6.44418E-2,2.750275E-5,3.1749325E-4,9.571098E-2,7.909605E-5,5.862469E-1,1.0000608E0,1.9549502E0,2.1343822E-2,4.9696E-6,7.906603E-3,2.9941913E-4,7.906603E-3,4.0034737E-2,6.3112855E-4,1.9780247E-2,4.08872E-5,-7.3261466E-3,1.0002762E0,4.5633786E-3,2E0,1.5084948E-2,5.7325553E-2,-3.4094963E-3,9.976708E-3,-7.550325E-3,2.0134372E-3,-1.5844312E-3,5.1413933E-3,-5.108716E-3,4.6245796E-3,9.185944E-3,6.0640574E-3,1.593406E-2,1.2489278E-3,1.0694226E-2,5.0250087E-3,-7.426426E-3,4.172274E-3,1.0296495E-2,6.1529013E-3,-6.1022094E-4,1.7126158E-2,1.3384625E-2,1.1891989E-3,1.8750018E-2,8.162499E-3],"split_indices":[5,0,5,1,0,0,1,3,3,1,3,3,3,3,0,5,3,3,3,1,3,1,5,0,3,1,0,0,1,0,0,0,0,0,0,0,0,0,0,0,0,0,0,0,0,0,0,0,0,0,0,0,0],"split_type":[0,0,0,0,0,0,0,0,0,0,0,0,0,0,0,0,0,0,0,0,0,0,0,0,0,0,0,0,0,0,0,0,0,0,0,0,0,0,0,0,0,0,0,0,0,0,0,0,0,0,0,0,0],"sum_hessian":[3.3623733E3,2.948327E3,4.1404648E2,2.7264106E3,2.2191615E2,1.7339175E2,2.4065471E2,1.0371683E3,1.6892423E3,1.8367728E2,3.823888E1,1.1345295E2,5.9938812E1,1.8610645E2,5.4548264E1,2.2408075E2,8.1308765E2,9.327085E2,7.5653375E2,1.7013544E2,1.3541833E1,2.311934E1,1.5119537E1,1.0485909E0,1.1240436E2,2.6861322E1,3.3077488E1,7.126256E1,1.1484389E2,2.1974776E2,4.332996E0,7.9477576E2,1.8311886E1,8.9545935E2,3.724913E1,7.126239E2,4.390989E1,1.1698462E2,5.3150826E1,1.2315912E1,1.2259215E0,9.770077E0,1.3349265E1,4.3504896E0,1.0769048E1,5.9795227E1,5.2609127E1,1.489862E0,2.537146E1,2.564583E1,7.43166E0,1.10629135E2,4.214753E0],"tree_param":{"num_deleted":"0","num_feature":"6","num_nodes":"53","size_leaf_vector":"1"}},{"base_weights":[-9.693397E-2,-3.4348294E-1,1.283471E0,-4.2817703E-1,7.8440154E-1,8.575514E-1,1.7410117E0,-6.3031924E-1,-2.414827E-1,5.5842775E-1,1.1221066E0,5.4800886E-1,9.914032E-1,1.6423519E0,2.0468146E-2,-2.757322E-1,-7.204489E-1,9.475941E-3,-3.4903267E-1,2.4671192E-1,1.0355513E0,7.588619E-1,1.3645947E0,6.0514826E-1,-9.728057E-3,9.4129044E-1,1.6382582E0,1.6582927E0,-1.633569E-3,-4.9063656E-3,-1.2186749E-3,-8.366767E-3,-5.849926E-3,-1.1359524E-3,2.3511471E-3,-4.231324E-3,-2.2924654E-3,-6.487619E-3,3.2091432E-3,8.448635E-3,1.6182948E-2,1.6252374E-2,6.103016E-3,1.754629E-2,1.1896914E-2,3.5820224E-3,1.0818624E-2,1.1563999E-2,7.444856E-3,5.6553483E-3,1.963795E-2,1.1710614E-2,1.6932417E-2],"categories":[],"categories_nodes":[],"categories_segments":[],"categories_sizes":[],"default_left":[0,0,0,0,0,0,0,0,0,0,0,0,0,0,0,0,0,0,0,0,0,0,0,0,0,0,0,0,0,0,0,0,0,0,0,0,0,0,0,0,0,0,0,0,0,0,0,0,0,0,0,0,0],"id":27,"left_children":[1,3,5,7,9,11,13,15,17,19,21,23,25,27,-1,29,31,33,35,37,39,41,43,45,-1,47,49,51,-1,-1,-1,-1,-1,-1,-1,-1,-1,-1,-1,-1,-1,-1,-1,-1,-1,-1,-1,-1,-1,-1,-1,-1,-1],"loss_changes":[1.1499962E3,2.7417084E2,9.829645E1,1.0049902E2,1.4679855E1,1.052626E1,4.057373E0,