{"learner":{"attributes":{"scikit_learn":"{\"_estimator_type\": \"classifier\"}"},"feature_names":["Education","JoiningYear","Age","Gender","PaymentTier","EverBenched"],"feature_types":["int","int","int","int","int","int"],"gradient_booster":{"model":{"gbtree_model_param":{"num_parallel_tree":"1","num_trees":"29"},"iteration_indptr":[0,1,2,3,4,5,6,7,8,9,10,11,12,13,14,15,16,17,18,19,20,21,22,23,24,25,26,27,28,29],"tree_info":[0,0,0,0,0,0,0,0,0,0,0,0,0,0,0,0,0,0,0,0,0,0,0,0,0,0,0,0,0],"trees":[{"base_weights":[-4.9189515E-3,5.0603175E-1,-3.3866057E-1,7.891264E-1,3.6921614E-1,-5.875722E-1,5.3002524E-1,6.8933594E-1,7.6353274E-2,4.544706E-1,9.1710754E-2,-6.5456444E-1,5.0253905E-3,7.7747214E-1,-5.034399E-1,7.296054E-1,-1.5196008E-2,3.5723916E-1,5.965195E-1,2.7591098E-2,7.7494556E-1,-6.30735E-1,-4.478684E-2,6.629401E-1,-1.5461956E-1,1.3805162E0,2.1690345E-1,-1.371055E-1,-6.672599E-1,4.156565E-2,2.7629677E-2,2.7523741E-2,1.2387704E-2,3.839892E-2,1.1225401E-2,-7.337127E-3,1.1778886E-2,6.2379867E-2,-1.3469042E-3,-3.51336E-2,-2.9199734E-2,6.728377E-3,5.22331E-2,-2.7884126E-2,9.683375E-3,5.9096266E-2,1.1666524E-1,6.69622E-3,3.7635658E-2,-4.2167652E-2,2.6273811E-2,-3.9543744E-2,-1.3211516E-2],"categories":[],"categories_nodes":[],"categories_segments":[],"categories_sizes":[],"default_left":[0,0,0,0,0,0,0,0,0,0,0,0,0,0,0,0,0,0,0,0,0,0,0,0,0,0,0,0,0,0,0,0,0,0,0,0,0,0,0,0,0,0,0,0,0,0,0,0,0,0,0,0,0],"id":0,"left_children":[1,3,5,7,9,11,13,15,-1,17,19,21,23,25,27,29,-1,31,33,35,37,39,-1,41,43,45,47,49,51,-1,-1,-1,-1,-1,-1,-1,-1,-1,-1,-1,-1,-1,-1,-1,-1,-1,-1,-1,-1,-1,-1,-1,-1],"loss_changes":[1.1426994E2,9.96347E0,8.795531E1,5.235157E0,4.225815E0,1.2529747E1,2.3611996E1,3.303112E0,0E0,1.6892242E0,1.8906379E0,1.0642624E0,3.5727758E0,2.4599075E1,9.9763584E-1,8.7882996E-1,0E0,1.6462278E0,3.3022594E0,1.5189089E0,1.4388306E0,4.6849823E-1,0E0,1.1988206E0,3.9543314E0,3.9207916E0,1.6490728E0,3.6563E0,4.029045E-1,0E0,0E0,0E0,0E0,0E0,0E0,0E0,0E0,0E0,0E0,0E0,0E0,0E0,0E0,0E0,0E0,0E0,0E0,0E0,0E0,0E0,0E0,0E0,0E0],"parents":[2147483647,0,0,1,1,2,2,3,3,4,4,5,5,6,6,7,7,9,9,10,10,11,11,12,12,13,13,14,14,15,15,17,17,18,18,19,19,20,20,21,21,23,23,24,24,25,25,26,26,27,27,28,28],"right_children":[2,4,6,8,10,12,14,16,-1,18,20,22,24,26,28,30,-1,32,34,36,38,40,-1,42,44,46,48,50,52,-1,-1,-1,-1,-1,-1,-1,-1,-1,-1,-1,-1,-1,-1,-1,-1,-1,-1,-1,-1,-1,-1,-1,-1],"split_conditions":[1E0,2.7E1,1E0,1E0,1E0,1E0,2E0,2E0,7.6353274E-2,3.2E1,1E0,3.9E1,2.6E1,2.8E1,2.7E1,2.6E1,-1.5196008E-2,2.8E1,3.8E1,3.2E1,3E1,2.7E1,-4.478684E-2,2.5E1,2.9E1,1E0,4E1,2.5E1,3.3E1,4.156565E-2,2.7629677E-2,2.7523741E-2,1.2387704E-2,3.839892E-2,1.1225401E-2,-7.337127E-3,1.1778886E-2,6.2379867E-2,-1.3469042E-3,-3.51336E-2,-2.9199734E-2,6.728377E-3,5.22331E-2,-2.7884126E-2,9.683375E-3,5.9096266E-2,1.1666524E-1,6.69622E-3,3.7635658E-2,-4.2167652E-2,2.6273811E-2,-3.9543744E-2,-1.3211516E-2],"split_indices":[3,2,0,5,0,5,0,0,0,2,5,2,2,2,2,2,0,2,2,2,2,2,0,2,2,5,2,2,2,0,0,0,0,0,0,0,0,0,0,0,0,0,0,0,0,0,0,0,0,0,0,0,0],"split_type":[0,0,0,0,0,0,0,0,0,0,0,0,0,0,0,0,0,0,0,0,0,0,0,0,0,0,0,0,0,0,0,0,0,0,0,0,0,0,0,0,0,0,0,0,0,0,0,0,0,0,0,0,0],"sum_hessian":[6.680997E2,2.6376514E2,4.0433456E2,8.438679E1,1.7937834E2,3.145326E2,8.980199E1,7.603837E1,8.348426E0,1.3673367E2,4.264466E1,2.8249268E2,3.2039906E1,7.265387E1,1.7148117E1,7.3330765E1,2.7075975E0,8.325862E1,5.347505E1,3.9937065E1,2.7075975E0,2.6038065E2,2.2112047E1,5.640828E0,2.6399076E1,3.4296234E1,3.835763E1,5.8664613E0,1.1281656E1,4.4224094E1,2.9106674E1,2.8655407E1,5.4603218E1,3.5875668E1,1.7599384E1,2.1886414E1,1.805065E1,1.3537987E0,1.3537987E0,9.702225E1,1.6335838E2,2.9332306E0,2.7075975E0,1.1958556E1,1.444052E1,3.0234838E1,4.061396E0,3.4296234E1,4.061396E0,2.7075975E0,3.1588638E0,7.8971596E0,3.384497E0],"tree_param":{"num_deleted":"0","num_feature":"6","num_nodes":"53","size_leaf_vector":"1"}},{"base_weights":[-1.1541269E-2,-2.64489E-1,1.4081343E-1,8.394074E-1,-6.667255E-1,1.6257772E0,-4.9267717E-2,-7.912295E-1,-9.22256E-3,4.017566E-1,2.194227E0,3.4350592E-1,-4.051212E-1,-4.224585E-1,-4.8503097E-2,3.5470495E-1,-5.7338662E-2,5.6194104E-2,-3.0312002E-2,1.2848014E-1,3.4940727E-2,3.7264414E-2,2.8304227E-3,-5.500057E-2,1.567968E-3,-3.0113224E-2,-1.2528765E-2,4.4482782E-2,1.321947E-2],"categories":[],"categories_nodes":[],"categories_segments":[],"categories_sizes":[],"default_left":[0,0,0,0,0,0,0,0,0,0,0,0,0,0,0,0,0,0,0,0,0,0,0,0,0,0,0,0,0],"id":1,"left_children":[1,3,-1,5,7,9,11,13,15,17,19,21,23,25,-1,27,-1,-1,-1,-1,-1,-1,-1,-1,-1,-1,-1,-1,-1],"loss_changes":[4.766137E2,2.7211505E2,0E0,1.1452914E2,3.67323E1,5.959497E1,1.1021053E1,2.4474731E1,3.0406553E1,2.1636396E1,3.1395782E1,4.286122E0,1.2563022E1,3.7122517E0,0E0,2.4542155E0,0E0,0E0,0E0,0E0,0E0,0E0,0E0,0E0,0E0,0E0,0E0,0E0,0E0],"parents":[2147483647,0,0,1,1,3,3,4,4,5,5,6,6,7,7,8,8,9,9,10,10,11,11,12,12,13,13,15,15],"right_children":[2,4,-1,6,8,10,12,14,16,18,20,22,24,26,-1,28,-1,-1,-1,-1,-1,-1,-1,-1,-1,-1,-1,-1,-1],"split_conditions":[2.018E3,3E0,1.4081343E-1,2.017E3,1E0,2E0,1E0,1E0,2E0,1E0,1E0,1E0,1E0,2.015E3,-4.8503097E-2,2.013E3,-5.7338662E-2,5.6194104E-2,-3.0312002E-2,1.2848014E-1,3.4940727E-2,3.7264414E-2,2.8304227E-3,-5.500057E-2,1.567968E-3,-3.0113224E-2,-1.2528765E-2,4.4482782E-2,1.321947E-2],"split_indices":[1,4,0,1,0,4,3,3,0,3,0,0,0,1,0,1,0,0,0,0,0,0,0,0,0,0,0,0,0],"split_type":[0,0,0,0,0,0,0,0,0,0,0,0,0,0,0,0,0,0,0,0,0,0,0,0,0,0,0,0,0],"sum_hessian":[6.6428284E2,6.105734E2,5.370936E1,1.62773E2,4.4780048E2,8.591722E1,7.6855774E1,3.7633475E2,7.146571E1,2.7788372E1,5.8128845E1,3.654923E1,4.0306545E1,1.2399873E2,2.5233601E2,5.466527E1,1.6800438E1,1.6122967E1,1.1665405E1,4.589104E1,1.2237807E1,1.4560453E1,2.1988775E1,1.4963701E1,2.5342846E1,5.9378902E1,6.4619835E1,6.617635E0,4.8047638E1],"tree_param":{"num_deleted":"0","num_feature":"6","num_nodes":"29","size_leaf_vector":"1"}},{"base_weights":[-5.076547E-3,-2.4684215E-1,1.2870154E-1,8.260193E-1,-6.5075505E-1,1.5709677E0,-2.874557E-2,-3.595888E-1,-7.9428965E-1,4.101459E-1,1.0373985E-1,6.274044E-1,-3.9435494E-1,-4.964982E-1,-2.2415411E-1,-8.353761E-1,-5.8333665E-1,4.8623223E-2,-2.0278951E-2,-2.2552652E-2,3.893764E-2,-5.582881E-3,-3.236624E-2,-8.012491E-3,-2.9153934E-2,1.1370789E-3,-1.8160077E-2,-1.1549841E-2,-4.2239945E-2,-2.1374434E-2,-3.4957167E-2],"categories":[],"categories_nodes":[],"categories_segments":[],"categories_sizes":[],"default_left":[0,0,0,0,0,0,0,0,0,0,0,0,0,0,0,0,0,0,0,0,0,0,0,0,0,0,0,0,0,0,0],"id":2,"left_children":[1,3,-1,5,7,9,11,13,15,17,-1,19,21,23,25,27,29,-1,-1,-1,-1,-1,-1,-1,-1,-1,-1,-1,-1,-1,-1],"loss_changes":[4.188724E2,2.6668454E2,0E0,1.072895E2,1.8385117E1,5.179216E1,1.9298082E1,2.657814E0,2.0990906E0,1.3462358E1,0E0,5.0523453E0,3.6186218E0,2.0446663E0,2.648164E0,1.2140656E0,6.389084E-1,0E0,0E0,0E0,0E0,0E0,0E0,0E0,0E0,0E0,0E0,0E0,0E0,0E0,0E0],"parents":[2147483647,0,0,1,1,3,3,4,4,5,5,6,6,7,7,8,8,9,9,11,11,12,12,13,13,14,14,15,15,16,16],"right_children":[2,4,-1,6,8,10,12,14,16,18,-1,20,22,24,26,28,30,-1,-1,-1,-1,-1,-1,-1,-1,-1,-1,-1,-1,-1,-1],"split_conditions":[2.018E3,3E0,1.2870154E-1,2.017E3,1E0,2E0,2.7E1,2.015E3,2.017E3,1E0,1.0373985E-1,2E0,1E0,2.6E1,2.016E3,2.3E1,2.8E1,4.8623223E-2,-2.0278951E-2,-2.2552652E-2,3.893764E-2,-5.582881E-3,-3.236624E-2,-8.012491E-3,-2.9153934E-2,1.1370789E-3,-1.8160077E-2,-1.1549841E-2,-4.2239945E-2,-2.1374434E-2,-3.4957167E-2],"split_indices":[1,4,0,1,3,4,2,1,1,3,0,4,3,2,1,2,2,0,0,0,0,0,0,0,0,0,0,0,0,0,0],"split_type":[0,0,0,0,0,0,0,0,0,0,0,0,0,0,0,0,0,0,0,0,0,0,0,0,0,0,0,0,0,0,0],"sum_hessian":[6.6974677E2,6.1317224E2,5.6574497E1,1.6742305E2,4.457492E2,8.9010414E1,7.8412636E1,1.4834007E2,2.9740912E2,2.748926E1,6.1521152E1,2.7801655E1,5.0610985E1,7.244266E1,7.5897415E1,2.4644919E2,5.0959938E1,1.615837E1,1.1330892E1,3.1777627E0,2.4623892E1,2.4581831E1,2.6029154E1,1.5417474E1,5.7025185E1,2.7645641E1,4.8251774E1,4.1750813E0,2.4227411E2,2.3724222E1,2.7235718E1],"tree_param":{"num_deleted":"0","num_feature":"6","num_nodes":"31","size_leaf_vector":"1"}},{"base_weights":[-1.3112757E-4,-2.344029E-1,1.1835255E-1,3.053978E-1,-6.1782455E-1,5.1525044E-1,-4.161315E-2,-4.362957E-2,2.606035E-1,2.560168E-1,9.0796494E-1,-1.1667564E-2,-4.920548E-2,4.9470508E-1,-8.320284E-1,8.7860925E-3,3.515018E-2,6.3797265E-2,-2.7957408E-2,-6.115575E-3,1.0663462E-2,4.17668E-2,1.8647525E-2,-2.4874585E-2,-5.2035388E-2],"categories":[],"categories_nodes":[],"categories_segments":[],"categories_sizes":[],"default_left":[0,0,0,0,0,0,0,0,0,0,0,0,0,0,0,0,0,0,0,0,0,0,0,0,0],"id":3,"left_children":[1,3,-1,5,7,9,11,-1,13,15,17,19,-1,21,23,-1,-1,-1,-1,-1,-1,-1,-1,-1,-1],"loss_changes":[3.7318985E2,1.2692571E2,0E0,1.8589338E1,8.042676E1,1.5951027E1,2.7265916E0,0E0,2.1216684E1,3.3632226E0,3.4626244E1,2.3913844E0,0E0,2.49259E0,5.10211E-1,0E0,0E0,0E0,0E0,0E0,0E0,0E0,0E0,0E0,0E0],"parents":[2147483647,0,0,1,1,3,3,4,4,5,5,6,6,8,8,9,9,10,10,11,11,13,13,14,14],"right_children":[2,4,-1,6,8,10,12,-1,14,16,18,20,-1,22,24,-1,-1,-1,-1,-1,-1,-1,-1,-1,-1],"split_conditions":[2.018E3,1E0,1.1835255E-1,2.016E3,1E0,2.015E3,2E0,-4.362957E-2,2E0,1E0,1E0,1E0,-4.920548E-2,2.014E3,2.014E3,8.7860925E-3,3.515018E-2,6.3797265E-2,-2.7957408E-2,-6.115575E-3,1.0663462E-2,4.17668E-2,1.8647525E-2,-2.4874585E-2,-5.2035388E-2],"split_indices":[1,3,0,1,0,1,0,0,0,0,0,0,0,1,1,0,0,0,0,0,0,0,0,0,0],"split_type":[0,0,0,0,0,0,0,0,0,0,0,0,0,0,0,0,0,0,0,0,0,0,0,0,0],"sum_hessian":[6.7094244E2,6.113411E2,5.9601326E1,2.5397939E2,3.5736172E2,1.5796577E2,9.60136E1,2.7702417E2,8.033755E1,9.614904E1,6.1816742E1,9.403815E1,1.9754597E0,6.661269E1,1.3724853E1,8.2688354E1,1.3460684E1,4.9525173E1,1.229157E1,6.333875E1,3.0699394E1,1.5997088E1,5.061561E1,6.5724564E0,7.152396E0],"tree_param":{"num_deleted":"0","num_feature":"6","num_nodes":"25","size_leaf_vector":"1"}},{"base_weights":[-8.410066E-3,-2.4059929E-1,1.11182146E-1,2.7764812E-1,-6.093782E-1,4.7146824E-1,-5.329639E-2,-8.446997E-1,1.4411327E-1,1.7627795E-1,9.0940523E-1,-2.4184275E-2,-3.9066255E-2,-7.079027E-1,-4.4841148E-2,3.8039422E-1,-9.2092264E-1,5.1575988E-3,3.2052387E-2,6.1731037E-2,-2.0427398E-2,3.7707498E-3,-3.2087488E-3,-4.5074772E-2,-2.6935313E-2,3.810695E-2,1.3359696E-2,-2.84381E-2,-6.231177E-2],"categories":[],"categories_nodes":[],"categories_segments":[],"categories_sizes":[],"default_left":[0,0,0,0,0,0,0,0,0,0,0,0,0,0,0,0,0,0,0,0,0,0,0,0,0,0,0,0,0],"id":4,"left_children":[1,3,-1,5,7,9,11,13,15,17,19,21,-1,23,-1,25,27,-1,-1,-1,-1,-1,-1,-1,-1,-1,-1,-1,-1],"loss_changes":[3.4768607E2,1.1629847E2,0E0,1.6273184E1,6.3124786E1,2.0504333E1,1.9830606E0,1.2967987E0,2.1844824E1,3.2213414E0,2.7988556E1,3.7070906E-1,0E0,2.1180916E0,0E0,2.8478422E0,1.1014099E0,0E0,0E0,0E0,0E0,0E0,0E0,0E0,0E0,0E0,0E0,0E0,0E0],"parents":[2147483647,0,0,1,1,3,3,4,4,5,5,6,6,7,7,8,8,9,9,10,10,11,11,13,13,15,15,16,16],"right_children":[2,4,-1,6,8,10,12,14,16,18,20,22,-1,24,-1,26,28,-1,-1,-1,-1,-1,-1,-1,-1,-1,-1,-1,-1],"split_conditions":[2.018E3,1E0,1.11182146E-1,2.016E3,1E0,2.015E3,2E0,2.014E3,2E0,1E0,1E0,2.017E3,-3.9066255E-2,2.013E3,-4.4841148E-2,2.014E3,2.015E3,5.1575988E-3,3.2052387E-2,6.1731037E-2,-2.0427398E-2,3.7707498E-3,-3.2087488E-3,-4.5074772E-2,-2.6935313E-2,3.810695E-2,1.3359696E-2,-2.84381E-2,-6.231177E-2],"split_indices":[1,3,0,1,0,1,0,1,0,0,0,1,0,1,0,1,1,0,0,0,0,0,0,0,0,0,0,0,0],"split_type":[0,0,0,0,0,0,0,0,0,0,0,0,0,0,0,0,0,0,0,0,0,0,0,0,0,0,0,0,0],"sum_hessian":[6.688413E2,6.0662897E2,6.2212345E1,2.5230716E2,3.5432178E2,1.5885054E2,9.345662E1,2.699067E2,8.4415085E1,9.572791E1,6.3122627E1,9.08567E1,2.599922E0,7.8490524E1,1.9141617E2,6.96139E1,1.48011875E1,8.376969E1,1.195822E1,5.068013E1,1.2442496E1,2.577548E1,6.5081215E1,3.4587646E1,4.3902878E1,1.4610458E1,5.5003445E1,8.4270315E0,6.3741555E0],"tree_param":{"num_deleted":"0","num_feature":"6","num_nodes":"29","size_leaf_vector":"1"}},{"base_weights":[2.802529E-3,7.274122E-1,-2.534392E-1,1.1210922E0,7.4538346E-3,-2.9610622E-1,1.0762709E-1,7.409083E-2,9.1525894E-1,8.10062E-1,-1.9515763E-1,-1.3283046E-1,-3.782903E-1,5.5874544E-1,-9.267307E-2,3.1283012E-1,1.0360078E0,-3.1838793E-2,6.619467E-2,-5.603565E-2,-3.3643514E-2,1.3923757E-1,-2.0736684E-1,-2.9322955E-1,-2.2563845E-2,9.870123E-3,6.7622405E-1,-1.6485234E-1,2.806024E-2,-2.5823636E-2,2.6263257E-2,4.489069E-2,5.9898533E-2,-6.9901682E-3,3.490239E-2,-4.0223762E-2,9.906869E-3,-1.4127812E-2,-6.363096E-3,-2.1480478E-2,-1.2589931E-2,5.1342465E-2,1.6751667E-2,3.8508847E-4,-2.7864186E-2],"categories":[],"categories_nodes":[],"categories_segments":[],"categories_sizes":[],"default_left":[0,0,0,0,0,0,0,0,0,0,0,0,0,0,0,0,0,0,0,0,0,0,0,0,0,0,0,0,0,0,0,0,0,0,0,0,0,0,0,0,0,0,0,0,0],"id":5,"left_children":[1,3,5,7,9,11,13,-1,15,17,19,21,23,25,27,29,31,-1,-1,33,-1,35,37,39,-1,-1,41,43,-1,-1,-1,-1,-1,-1,-1,-1,-1,-1,-1,-1,-1,-1,-1,-1,-1],"loss_changes":[1.2428807E2,4.9556114E1,7.650257E0,7.0373535E0,1.0374582E1,5.887844E0,4.840348E0,0E0,5.1018944E0,1.0401433E1,3.3496509E0,3.0647545E0,1.6917839E0,5.6427526E-1,1.8650991E0,2.7178204E0,3.0553436E-1,0E0,0E0,2.6598983E0,0E0,1.9821324E0,6.742401E-1,6.74633E-1,0E0,0E0,1.0905919E0,2.3470385E0,0E0,0E0,0E0,0E0,0E0,0E0,0E0,0E0,0E0,0E0,0E0,0E0,0E0,0E0,0E0,0E0,0E0],"parents":[2147483647,0,0,1,1,2,2,3,3,4,4,5,5,6,6,8,8,9,9,10,10,11,11,12,12,13,13,14,14,15,15,16,16,19,19,21,21,22,22,23,23,26,26,27,27],"right_children":[2,4,6,8,10,12,14,-1,16,18,20,22,24,26,28,30,32,-1,-1,34,-1,36,38,40,-1,-1,42,44,-1,-1,-1,-1,-1,-1,-1,-1,-1,-1,-1,-1,-1,-1,-1,-1,-1],"split_conditions":[3E0,1E0,1E0,2.7E1,2.6E1,1E0,2.7E1,7.409083E-2,2E0,2E0,3.6E1,2.6E1,2.8E1,2.5E1,4E1,2.8E1,3.2E1,-3.1838793E-2,6.619467E-2,1E0,-3.3643514E-2,2.3E1,2.9E1,2.5E1,-2.2563845E-2,9.870123E-3,2.6E1,3.3E1,2.806024E-2,-2.5823636E-2,2.6263257E-2,4.489069E-2,5.9898533E-2,-6.9901682E-3,3.490239E-2,-4.0223762E-2,9.906869E-3,-1.4127812E-2,-6.363096E-3,-2.1480478E-2,-1.2589931E-2,5.1342465E-2,1.6751667E-2,3.8508847E-4,-2.7864186E-2],"split_indices":[4,3,5,2,2,3,2,0,4,4,2,2,2,2,2,2,2,0,0,5,0,2,2,2,0,0,2,2,0,0,0,0,0,0,0,0,0,0,0,0,0,0,0,0,0],"split_type":[0,0,0,0,0,0,0,0,0,0,0,0,0,0,0,0,0,0,0,0,0,0,0,0,0,0,0,0,0,0,0,0,0,0,0,0,0,0,0,0,0,0,0,0,0],"sum_hessian":[6.673914E2,1.7387175E2,4.9351965E2,1.120465E2,6.182525E1,4.4152478E2,5.199486E1,3.8454895E1,7.3591606E1,1.1857163E1,4.9968086E1,1.487059E2,2.9281888E2,1.5437284E1,3.6557575E1,1.288712E1,6.0704483E1,3.044694E0,8.8124695E0,3.9563496E1,1.0404589E1,3.1792149E1,1.1691376E2,1.375415E2,1.5527737E2,4.4451456E0,1.099214E1,3.359683E1,2.9607499E0,2.336133E0,1.0550987E1,3.628653E1,2.4417953E1,3.634113E1,3.2223663E0,1.1240399E0,3.066811E1,5.900355E1,5.791021E1,2.986484E1,1.0767667E2,4.430018E0,6.5621214E0,2.4016863E1,9.579965E0],"tree_param":{"num_deleted":"0","num_feature":"6","num_nodes":"45","size_leaf_vector":"1"}},{"base_weights":[-1.8543659E-3,-2.342072E-1,1.0424011E-1,6.7899805E-1,-5.860979E-1,1.2925242E0,-1.3119908E-1,-7.2285783E-1,1.2436952E-1,1.7223874E-1,1.7348347E0,-2.1644749E-1,4.3521713E-2,-6.841444E-1,-7.9564786E-1,4.342231E-1,-5.3341027E-2,-2.590706E-2,1.6271707E-2,1.026541E-1,2.625591E-2,-1.55754825E-2,-7.209728E-3,-3.6784533E-2,-2.587068E-2,-3.699931E-2,-5.9717596E-2,1.794741E-2,5.738431E-2],"categories":[],"categories_nodes":[],"categories_segments":[],"categories_sizes":[],"default_left":[0,0,0,0,0,0,0,0,0,0,0,0,0,0,0,0,0,0,0,0,0,0,0,0,0,0,0,0,0],"id":6,"left_children":[1,3,-1,5,7,9,11,13,15,17,19,21,-1,23,25,27,-1,-1,-1,-1,-1,-1,-1,-1,-1,-1,-1,-1,-1],"loss_changes":[3.222573E2,1.9258463E2,0E0,8.309028E1,4.20885E1,4.6786102E1,6.4041324E0,4.7750854E-1,2.6531174E1,3.1307657E0,2.5106903E1,4.213555E-1,0E0,1.7151413E0,1.7740707E0,2.6362925E0,0E0,0E0,0E0,0E0,0E0,0E0,0E0,0E0,0E0,0E0,0E0,0E0,0E0],"parents":[2147483647,0,0,1,1,3,3,4,4,5,5,6,6,7,7,8,8,9,9,10,10,11,11,13,13,14,14,15,15],"right_children":[2,4,-1,6,8,10,12,14,16,18,20,22,-1,24,26,28,-1,-1,-1,-1,-1,-1,-1,-1,-1,-1,-1,-1,-1],"split_conditions":[2.018E3,3E0,1.0424011E-1,2.017E3,1E0,2E0,1E0,2.016E3,2E0,2.013E3,1E0,1E0,4.3521713E-2,2.015E3,1E0,1E0,-5.3341027E-2,-2.590706E-2,1.6271707E-2,1.026541E-1,2.625591E-2,-1.55754825E-2,-7.209728E-3,-3.6784533E-2,-2.587068E-2,-3.699931E-2,-5.9717596E-2,1.794741E-2,5.738431E-2],"split_indices":[1,4,0,1,0,4,5,1,0,1,0,0,0,1,5,5,0,0,0,0,0,0,0,0,0,0,0,0,0],"split_type":[0,0,0,0,0,0,0,0,0,0,0,0,0,0,0,0,0,0,0,0,0,0,0,0,0,0,0,0,0],"sum_hessian":[6.6265955E2,5.9706323E2,6.5596275E1,1.6581659E2,4.3124667E2,9.402235E1,7.179425E1,3.6161993E2,6.9626724E1,2.7007378E1,6.701497E1,6.688557E1,4.9086847E0,2.4285567E2,1.18764275E2,5.5758293E1,1.3868433E1,4.471989E0,2.2535389E1,5.2505005E1,1.450996E1,2.745372E1,3.9431843E1,1.8289851E2,5.995715E1,1.0672126E2,1.2043017E1,5.1796535E1,3.961759E0],"tree_param":{"num_deleted":"0","num_feature":"6","num_nodes":"29","size_leaf_vector":"1"}},{"base_weights":[9.6702436E-4,-2.1057399E-1,9.8565936E-2,2.8542152E-1,-5.763847E-1,4.4856575E-1,3.3643746E-3,-4.388804E-1,-6.964206E-1,3.3549136E-1,1.2847797E0,3.8599098E-1,-1.01411134E-1,-5.4985815E-1,-1.22963004E-1,-4.5755738E-1,-7.7767766E-1,-5.962147E-3,2.0851577E-2,-4.613017E-2,7.679222E-2,8.093662E-3,2.8427158E-2,-2.647865E-3,-3.533576E-2,-1.6293045E-2,-3.5960786E-2,-1.1436871E-2,3.708691E-2,-1.718629E-2,-3.676489E-2,-3.6629766E-2,-5.6221075E-2],"categories":[],"categories_nodes":[],"categories_segments":[],"categories_sizes":[],"default_left":[0,0,0,0,0,0,0,0,0,0,0,0,0,0,0,0,0,0,0,0,0,0,0,0,0,0,0,0,0,0,0,0,0],"id":7,"left_children":[1,3,-1,5,7,9,11,13,15,17,19,21,23,25,27,29,31,-1,-1,-1,-1,-1,-1,-1,-1,-1,-1,-1,-1,-1,-1,-1,-1],"loss_changes":[2.780712E2,1.0947585E2,0E0,1.1796833E1,5.422844E0,1.4927662E1,3.8462477E0,5.6985874E0,3.207718E0,5.405346E0,1.1943762E1,7.516897E-1,2.1723E0,4.371914E0,4.1980524E0,1.2974682E0,1.2954407E0,0E0,0E0,0E0,0E0,0E0,0E0,0E0,0E0,0E0,0E0,0E0,0E0,0E0,0E0,0E0,0E0],"parents":[2147483647,0,0,1,1,3,3,4,4,5,5,6,6,7,7,8,8,9,9,10,10,11,11,12,12,13,13,14,14,15,15,16,16],"right_children":[2,4,-1,6,8,10,12,14,16,18,20,22,24,26,28,30,32,-1,-1,-1,-1,-1,-1,-1,-1,-1,-1,-1,-1,-1,-1,-1,-1],"split_conditions":[2.018E3,1E0,9.8565936E-2,2.016E3,2.8E1,1E0,2.6E1,2.017E3,2.014E3,2.013E3,2.013E3,2.5E1,1E0,2.014E3,1E0,3.7E1,1E0,-5.962147E-3,2.0851577E-2,-4.613017E-2,7.679222E-2,8.093662E-3,2.8427158E-2,-2.647865E-3,-3.533576E-2,-1.6293045E-2,-3.5960786E-2,-1.1436871E-2,3.708691E-2,-1.718629E-2,-3.676489E-2,-3.6629766E-2,-5.6221075E-2],"split_indices":[1,3,0,1,2,5,2,1,1,1,1,2,5,1,5,2,5,0,0,0,0,0,0,0,0,0,0,0,0,0,0,0,0],"split_type":[0,0,0,0,0,0,0,0,0,0,0,0,0,0,0,0,0,0,0,0,0,0,0,0,0,0,0,0,0,0,0,0,0],"sum_hessian":[6.6514514E2,6.0146387E2,6.3681267E1,2.5539653E2,3.4606732E2,1.6143236E2,9.3964165E1,1.634674E2,1.8259993E2,1.4343765E2,1.7994701E1,1.9622253E1,7.434191E1,1.2042362E2,4.3043785E1,4.8033005E1,1.3456693E2,2.1739288E1,1.2169837E2,1.5645216E0,1.643018E1,9.655276E0,9.966977E0,6.983888E1,4.5030265E0,5.3106934E1,6.731669E1,3.9007652E1,4.036132E0,3.5656723E1,1.2376283E1,1.218387E2,1.2728225E1],"tree_param":{"num_deleted":"0","num_feature":"6","num_nodes":"33","size_leaf_vector":"1"}},{"base_weights":[6.124602E-4,-1.9824152E-1,9.3673095E-2,2.5440317E-1,-5.4907006E-1,4.2283466E-1,-3.4401625E-2,-1.9826397E-1,-6.319224E-1,2.1295264E-1,7.3117024E-1,9.189805E-2,-1.6011849E-1,1.2577425E-1,-3.4112585E-1,-5.935373E-1,-3.8270667E-2,-8.503507E-3,1.7108142E-2,2.7770296E-2,7.60089E-2,1.3934364E-2,1.665639E-3,-3.8388118E-3,-4.7891524E-2,-2.712099E-2,2.6828602E-2,-4.6413686E-2,-4.574587E-3,-2.4691634E-2,-3.375861E-2],"categories":[],"categories_nodes":[],"categories_segments":[],"categories_sizes":[],"default_left":[0,0,0,0,0,0,0,0,0,0,0,0,0,0,0,0,0,0,0,0,0,0,0,0,0,0,0,0,0,0,0],"id":8,"left_children":[1,3,-1,5,7,9,11,13,15,17,19,21,23,25,27,29,-1,-1,-1,-1,-1,-1,-1,-1,-1,-1,-1,-1,-1,-1,-1],"loss_changes":[2.4609497E2,9.500234E1,0E0,1.2735815E1,9.665314E0,1.0538862E1,1.5590093E0,3.0896113E0,9.396286E-1,4.994299E0,8.38065E0,5.286013E-1,3.1912565E0,6.019254E0,6.6494184E0,1.4225311E0,0E0,0E0,0E0,0E0,0E0,0E0,0E0,0E0,0E0,0E0,0E0,0E0,0E0,0E0,0E0],"parents":[2147483647,0,0,1,1,3,3,4,4,5,5,6,6,7,7,8,8,9,9,10,10,11,11,12,12,13,13,14,14,15,15],"right_children":[2,4,-1,6,8,10,12,14,16,18,20,22,24,26,28,30,-1,-1,-1,-1,-1,-1,-1,-1,-1,-1,-1,-1,-1,-1,-1],"split_conditions":[2.018E3,1E0,9.3673095E-2,2.016E3,2.6E1,2.015E3,2.8E1,2.014E3,3.6E1,2.013E3,1E0,2.5E1,1E0,2.013E3,2.015E3,2.015E3,-3.8270667E-2,-8.503507E-3,1.7108142E-2,2.7770296E-2,7.60089E-2,1.3934364E-2,1.665639E-3,-3.8388118E-3,-4.7891524E-2,-2.712099E-2,2.6828602E-2,-4.6413686E-2,-4.574587E-3,-2.4691634E-2,-3.375861E-2],"split_indices":[1,3,0,1,2,1,2,1,2,1,5,2,5,1,1,1,0,0,0,0,0,0,0,0,0,0,0,0,0,0,0],"split_type":[0,0,0,0,0,0,0,0,0,0,0,0,0,0,0,0,0,0,0,0,0,0,0,0,0,0,0,0,0,0,0],"sum_hessian":[6.58796E2,5.963693E2,6.2426697E1,2.605187E2,3.358506E2,1.6425867E2,9.626005E1,6.4813965E1,2.7103662E2,9.8738594E1,6.5520065E1,4.8152912E1,4.8107136E1,1.9868345E1,4.4945618E1,2.1473587E2,5.630076E1,2.482693E1,7.391167E1,5.497698E1,1.0543089E1,1.0599916E1,3.7552994E1,4.4549046E1,3.5580883E0,7.442364E0,1.2425981E1,1.2597451E1,3.2348167E1,9.984263E1,1.1489325E2],"tree_param":{"num_deleted":"0","num_feature":"6","num_nodes":"31","size_leaf_vector":"1"}},{"base_weights":[-2.8172424E-2,-2.2670367E-1,8.940051E-2,2.3142129E-1,-5.766863E-1,2.676079E-1,-8.831656E-1,-7.858732E-1,1.438868E-1,4.1523156E-1,3.0835762E-3,-8.911616E-3,-5.619638E-2,-5.713164E-1,-8.3407E-1,6.38431E-1,-3.6340326E-1,9.602643E-3,3.782984E-2,8.852169E-3,-7.746371E-3,-8.949307E-3,-3.7428446E-2,-5.4387975E-2,-3.874132E-2,4.92674E-2,-5.2851003E-2,-2.128639E-2,3.3855148E-2],"categories":[],"categories_nodes":[],"categories_segments":[],"categories_sizes":[],"default_left":[0,0,0,0,0,0,0,0,0,0,0,0,0,0,0,0,0,0,0,0,0,0,0,0,0,0,0,0,0],"id":9,"left_children":[1,3,-1,5,7,9,11,13,15,17,19,-1,-1,21,23,25,27,-1,-1,-1,-1,-1,-1,-1,-1,-1,-1,-1,-1],"loss_changes":[2.3461412E2,9.41597E1,0E0,1.0508846E1,5.0268707E1,9.661659E0,1.1984267E0,2.191803E0,1.9225653E1,1.1953751E1,2.4913988E0,0E0,0E0,3.378231E0,2.2912598E0,2.3803411E1,2.7531815E0,0E0,0E0,0E0,0E0,0E0,0E0,0E0,0E0,0E0,0E0,0E0,0E0],"parents":[2147483647,0,0,1,1,3,3,4,4,5,5,6,6,7,7,8,8,9,9,10,10,13,13,14,14,15,15,16,16],"right_children":[2,4,-1,6,8,10,12,14,16,18,20,-1,-1,22,24,26,28,-1,-1,-1,-1,-1,-1,-1,-1,-1,-1,-1,-1],"split_conditions":[2.018E3,1E0,8.940051E-2,2E0,1E0,2.016E3,2.014E3,2.6E1,2.8E1,2.015E3,2.8E1,-8.911616E-3,-5.619638E-2,2.014E3,2.7E1,2E0,4.1E1,9.602643E-3,3.782984E-2,8.852169E-3,-7.746371E-3,-8.949307E-3,-3.7428446E-2,-5.4387975E-2,-3.874132E-2,4.92674E-2,-5.2851003E-2,-2.128639E-2,3.3855148E-2],"split_indices":[1,3,0,0,0,1,1,2,2,1,2,0,0,1,2,0,2,0,0,0,0,0,0,0,0,0,0,0,0],"split_type":[0,0,0,0,0,0,0,0,0,0,0,0,0,0,0,0,0,0,0,0,0,0,0,0,0,0,0,0,0],"sum_hessian":[6.485533E2,5.8543335E2,6.3119938E1,2.5369154E2,3.317418E2,2.464501E2,7.2414393E0,2.5703293E2,7.470888E1,1.5781064E2,8.863945E1,2.286633E0,4.9548063E0,4.9505306E1,2.0752762E2,3.769878E1,3.7010098E1,9.6368904E1,6.1441742E1,4.2133152E1,4.65063E1,1.6031342E1,3.3473965E1,3.600185E1,1.7152576E2,3.1642946E1,6.0558352E0,3.547599E1,1.5341061E0],"tree_param":{"num_deleted":"0","num_feature":"6","num_nodes":"29","size_leaf_vector":"1"}},{"base_weights":[6.4151394E-3,-1.7284442E-1,8.642709E-2,6.940654E-1,-5.292562E-1,1.2255576E0,3.1369645E-2,-4.357897E-1,-6.0703206E-1,2.3978397E-1,1.658382E0,6.462436E-1,-3.4020588E-1,-4.825939E-1,5.9568144E-2,-6.92457E-1,-5.566622E-1,2.106185E-2,-1.8728279E-2,9.430436E-2,7.2106674E-2,-2.3777094E-2,4.0424522E-2,-1.8180016E-2,1.0747547E-2,-1.1447701E-2,-2.615884E-2,-3.4847673E-2,1.1015552E-2,-2.8482694E-2,-4.4813167E-2,-1.9371862E-2,-3.221076E-2],"categories":[],"categories_nodes":[],"categories_segments":[],"categories_sizes":[],"default_left":[0,0,0,0,0,0,0,0,0,0,0,0,0,0,0,0,0,0,0,0,0,0,0,0,0,0,0,0,0,0,0,0,0],"id":10,"left_children":[1,3,-1,5,7,9,11,13,15,17,19,21,23,25,27,29,31,-1,-1,-1,-1,-1,-1,-1,-1,-1,-1,-1,-1,-1,-1,-1,-1],"loss_changes":[1.985506E2,1.8036578E2,0E0,5.9895233E1,2.7406616E0,3.9880478E1,1.7757162E1,4.4641457E0,5.744858E-1,3.4988937E0,5.018616E-1,5.709695E0,7.080622E-1,1.6805496E0,2.2701328E0,1.457962E0,1.9053154E0,0E0,0E0,0E0,0E0,0E0,0E0,0E0,0E0,0E0,0E0,0E0,0E0,0E0,0E0,0E0,0E0],"parents":[2147483647,0,0,1,1,3,3,4,4,5,5,6,6,7,7,8,8,9,9,10,10,11,11,12,12,13,13,14,14,15,15,16,16],"right_children":[2,4,-1,6,8,10,12,14,16,18,20,22,24,26,28,30,32,-1,-1,-1,-1,-1,-1,-1,-1,-1,-1,-1,-1,-1,-1,-1,-1],"split_conditions":[2.018E3,3E0,8.642709E-2,2.017E3,2.8E1,2E0,2.7E1,1E0,3E1,3.5E1,2.015E3,2E0,4.1E1,2.013E3,2.013E3,2.016E3,3.4E1,2.106185E-2,-1.8728279E-2,9.430436E-2,7.2106674E-2,-2.3777094E-2,4.0424522E-2,-1.8180016E-2,1.0747547E-2,-1.1447701E-2,-2.615884E-2,-3.4847673E-2,1.1015552E-2,-2.8482694E-2,-4.4813167E-2,-1.9371862E-2,-3.221076E-2],"split_indices":[1,4,0,1,2,4,2,5,2,2,1,4,2,1,1,1,2,0,0,0,0,0,0,0,0,0,0,0,0,0,0,0,0],"split_type":[0,0,0,0,0,0,0,0,0,0,0,0,0,0,0,0,0,0,0,0,0,0,0,0,0,0,0,0,0,0,0,0,0],"sum_hessian":[6.411992E2,5.815628E2,5.963639E1,1.6916092E2,4.1240192E2,9.340184E1,7.575907E1,1.9030615E2,2.2209576E2,2.8971704E1,6.443014E1,2.8258467E1,4.7500607E1,1.7390079E2,1.6405352E1,7.765282E1,1.4444295E2,2.2608454E1,6.3632507E0,2.762244E1,3.6807697E1,3.3266716E0,2.4931795E1,4.5910957E1,1.5896499E0,2.4902678E1,1.4899812E2,2.2903242E0,1.4115027E1,5.0823994E1,2.6828823E1,5.110019E1,9.334276E1],"tree_param":{"num_deleted":"0","num_feature":"6","num_nodes":"33","size_leaf_vector":"1"}},{"base_weights":[8.375429E-3,-1.727093E-1,8.41001E-2,5.9366137E-1,-4.944796E-1,1.1596744E0,-1.18608184E-1,-3.357882E-1,-5.773543E-1,2.4877474E-1,7.630681E-2,-1.9326171E-1,3.866968E-2,-4.36927E-1,-2.4297826E-1,-2.9913297E-2,-2.316011E-2,3.0518899E-2,-1.9262314E-2,-3.9135665E-2,-5.9800786E-3,-1.8042037E-2,-2.7650971E-2,-7.3652053E-3,-1.4771548E-2],"categories":[],"categories_nodes":[],"categories_segments":[],"categories_sizes":[],"default_left":[0,0,0,0,0,0,0,0,0,0,0,0,0,0,0,0,0,0,0,0,0,0,0,0,0],"id":11,"left_children":[1,3,-1,5,7,9,11,13,15,17,-1,19,-1,21,23,-1,-1,-1,-1,-1,-1,-1,-1,-1,-1],"loss_changes":[1.9358116E2,1.424352E2,0E0,6.9038376E1,5.152382E0,3.143985E1,5.2491684E0,1.2253685E0,3.5703278E-1,6.778734E0,0E0,3.0094645E0,0E0,3.889761E-1,3.3900833E-1,0E0,0E0,0E0,0E0,0E0,0E0,0E0,0E0,0E0,0E0],"parents":[2147483647,0,0,1,1,3,3,4,4,5,5,6,6,7,7,8,8,9,9,11,11,13,13,14,14],"right_children":[2,4,-1,6,8,10,12,14,16,18,-1,20,-1,22,24,-1,-1,-1,-1,-1,-1,-1,-1,-1,-1],"split_conditions":[2.018E3,3E0,8.41001E-2,2.017E3,1E0,2E0,1E0,2.015E3,2.017E3,1E0,7.630681E-2,2E0,3.866968E-2,2.014E3,2.016E3,-2.9913297E-2,-2.316011E-2,3.0518899E-2,-1.9262314E-2,-3.9135665E-2,-5.9800786E-3,-1.8042037E-2,-2.7650971E-2,-7.3652053E-3,-1.4771548E-2],"split_indices":[1,4,0,1,3,4,5,1,1,3,0,4,0,1,1,0,0,0,0,0,0,0,0,0,0],"split_type":[0,0,0,0,0,0,0,0,0,0,0,0,0,0,0,0,0,0,0,0,0,0,0,0,0],"sum_hessian":[6.3677936E2,5.754167E2,6.1362705E1,1.6990456E2,4.0551212E2,9.4322205E1,7.558235E1,1.4085326E2,2.6465887E2,2.7541716E1,6.678049E1,7.046807E1,5.1142826E0,6.562799E1,7.522526E1,2.2009799E2,4.4560886E1,1.756252E1,9.979197E0,6.758491E0,6.370958E1,4.2126656E1,2.3501333E1,2.7986311E1,4.723895E1],"tree_param":{"num_deleted":"0","num_feature":"6","num_nodes":"25","size_leaf_vector":"1"}},{"base_weights":[-1.9804945E-2,-1.8850732E-1,8.11728E-2,5.3203255E-1,-4.9070886E-1,1.0899094E0,-1.9268335E-1,-3.327064E-1,-5.7300806E-1,2.2734228E-1,7.254356E-2,5.8256105E-2,-4.3600956E-1,-3.7186602E-1,3.5224985E-2,-2.9942716E-2,-2.2083854E-2,2.9123643E-2,-1.6414529E-2,-3.3612593E-4,3.940403E-2,-2.4916576E-2,9.334773E-3,-2.0387242E-2,-1.0501794E-2,2.8828809E-2,-5.8358904E-2],"categories":[],"categories_nodes":[],"categories_segments":[],"categories_sizes":[],"default_left":[0,0,0,0,0,0,0,0,0,0,0,0,0,0,0,0,0,0,0,0,0,0,0,0,0,0,0],"id":12,"left_children":[1,3,-1,5,7,9,11,13,15,17,-1,19,21,23,25,-1,-1,-1,-1,-1,-1,-1,-1,-1,-1,-1,-1],"loss_changes":[1.7798909E2,1.2702598E2,0E0,6.995147E1,5.1494217E0,3.0064087E1,4.6586246E0,2.073884E0,6.473465E-1,6.1079187E0,0E0,1.8186386E0,1.5926671E0,6.6544724E-1,1.022335E1,0E0,0E0,0E0,0E0,0E0,0E0,0E0,0E0,0E0,0E0,0E0,0E0],"parents":[2147483647,0,0,1,1,3,3,4,4,5,5,6,6,7,7,8,8,9,9,11,11,12,12,13,13,14,14],"right_children":[2,4,-1,6,8,10,12,14,16,18,-1,20,22,24,26,-1,-1,-1,-1,-1,-1,-1,-1,-1,-1,-1,-1],"split_conditions":[2.018E3,3E0,8.11728E-2,2.017E3,1E0,2E0,1E0,1E0,2.017E3,1E0,7.254356E-2,1E0,1E0,2.017E3,2.016E3,-2.9942716E-2,-2.2083854E-2,2.9123643E-2,-1.6414529E-2,-3.3612593E-4,3.940403E-2,-2.4916576E-2,9.334773E-3,-2.0387242E-2,-1.0501794E-2,2.8828809E-2,-5.8358904E-2],"split_indices":[1,4,0,1,3,4,3,5,1,3,0,5,5,1,1,0,0,0,0,0,0,0,0,0,0,0,0],"split_type":[0,0,0,0,0,0,0,0,0,0,0,0,0,0,0,0,0,0,0,0,0,0,0,0,0,0,0],"sum_hessian":[6.399414E2,5.811627E2,5.8778717E1,1.7149832E2,4.0966437E2,9.661864E1,7.4879684E1,1.4203008E2,2.676343E2,2.898496E1,6.7633675E1,3.7237583E1,3.7642105E1,1.28358E2,1.3672076E1,2.2065001E2,4.6984303E1,1.7653494E1,1.1331468E1,3.5103035E1,2.1345475E0,3.4399082E1,3.2430203E0,1.03820694E2,2.4537304E1,9.786455E0,3.885621E0],"tree_param":{"num_deleted":"0","num_feature":"6","num_nodes":"27","size_leaf_vector":"1"}},{"base_weights":[-2.3138436E-4,5.82726E-1,-2.268241E-1,-9.7819895E-2,7.631182E-1,-3.9845037E-1,5.0958353E-1,1.632907E-2,-1.6843837E-1,1.0844579E0,2.86752E-1,-1.8433647E-1,-4.5538425E-1,7.294452E-1,-2.9641825E-1,-3.9424557E-2,-4.553942E-1,7.271099E-2,1.0246176E0,7.449172E-1,-1.9288002E-1,-2.7555183E-2,-1.4171183E-1,-5.1250535E-1,-3.921325E-1,1.1033467E0,4.0201774E-1,-4.9084744E-1,3.6847746E-1,-2.363649E-2,2.1008772E-3,-1.3675788E-2,-4.523966E-2,3.9033186E-2,5.965205E-2,2.8840914E-2,8.511273E-2,-2.763592E-2,-3.3981204E-3,-9.359862E-3,1.2171832E-2,-2.683999E-2,-1.5784295E-2,-1.2665922E-2,-2.3851128E-2,3.2675084E-2,6.650085E-2,1.550481E-2,4.5516662E-2,-1.6519444E-2,-4.250615E-2,5.3197432E-2,-1.5485786E-2],"categories":[],"categories_nodes":[],"categories_segments":[],"categories_sizes":[],"default_left":[0,0,0,0,0,0,0,0,0,0,0,0,0,0,0,0,0,0,0,0,0,0,0,0,0,0,0,0,0,0,0,0,0,0,0,0,0,0,0,0,0,0,0,0,0,0,0,0,0,0,0,0,0],"id":13,"left_children":[1,3,5,7,9,11,13,-1,15,17,19,21,23,25,27,29,31,-1,33,35,37,-1,39,41,43,45,47,49,51,-1,-1,-1,-1,-1,-1,-1,-1,-1,-1,-1,-1,-1,-1,-1,-1,-1,-1,-1,-1,-1,-1,-1,-1],"loss_changes":[8.3879196E1,2.1894367E1,5.7994797E1,1.1977042E0,2.1212677E1,4.4434967E0,1.5609478E1,0E0,1.2166255E0,3.5993958E-1,1.2889357E1,1.1677547E0,8.565674E-1,7.9471397E0,2.6794767E0,8.7032473E-1,5.901649E-1,0E0,2.164444E0,3.8249798E0,1.2718699E0,0E0,1.319893E0,5.504036E-1,1.5660973E0,2.335083E0,1.498528E0,6.0597324E-1,2.6615613E0,0E0,0E0,0E0,0E0,0E0,0E0,0E0,0E0,0E0,0E0,0E0,0E0,0E0,0E0,0E0,0E0,0E0,0E0,0E0,0E0,0E0,0E0,0E0,0E0],"parents":[2147483647,0,0,1,1,2,2,3,3,4,4,5,5,6,6,8,8,9,9,10,10,11,11,12,12,13,13,14,14,15,15,16,16,18,18,19,19,20,20,22,22,23,23,24,24,25,25,26,26,27,27,28,28],"right_children":[2,4,6,8,10,12,14,-1,16,18,20,22,24,26,28,30,32,-1,34,36,38,-1,40,42,44,46,48,50,52,-1,-1,-1,-1,-1,-1,-1,-1,-1,-1,-1,-1,-1,-1,-1,-1,-1,-1,-1,-1,-1,-1,-1,-1],"split_conditions":[3E0,2E0,1E0,2.5E1,1E0,2.6E1,2E0,1.632907E-2,1E0,2.5E1,2.8E1,2.4E1,2.9E1,2.8E1,3.3E1,2.6E1,3.8E1,7.271099E-2,2.8E1,1E0,2.9E1,-2.7555183E-2,1E0,1E0,3.3E1,2.6E1,4E1,2.9E1,3.7E1,-2.363649E-2,2.1008772E-3,-1.3675788E-2,-4.523966E-2,3.9033186E-2,5.965205E-2,2.8840914E-2,8.511273E-2,-2.763592E-2,-3.3981204E-3,-9.359862E-3,1.2171832E-2,-2.683999E-2,-1.5784295E-2,-1.2665922E-2,-2.3851128E-2,3.2675084E-2,6.650085E-2,1.550481E-2,4.5516662E-2,-1.6519444E-2,-4.250615E-2,5.3197432E-2,-1.5485786E-2],"split_indices":[4,4,0,2,0,2,0,0,0,2,2,2,2,2,2,2,2,0,2,5,2,0,5,5,2,2,2,2,2,0,0,0,0,0,0,0,0,0,0,0,0,0,0,0,0,0,0,0,0,0,0,0,0],"split_type":[0,0,0,0,0,0,0,0,0,0,0,0,0,0,0,0,0,0,0,0,0,0,0,0,0,0,0,0,0,0,0,0,0,0,0,0,0,0,0,0,0,0,0,0,0,0,0,0,0,0,0,0,0],"sum_hessian":[6.3299603E2,1.767354E2,4.5626065E2,3.712725E1,1.3960815E2,3.7039563E2,8.586503E1,4.779419E0,3.234783E1,8.260754E1,5.7000618E1,7.869215E1,2.917035E2,6.753718E1,1.8327852E1,2.3099712E1,9.248117E0,8.260865E0,7.434667E1,2.886982E1,2.8130798E1,6.951153E0,7.174099E1,1.4954793E2,1.4215556E2,3.0424536E1,3.7112644E1,1.4383568E1,3.9442832E0,2.8946266E0,2.0205086E1,7.728788E0,1.5193295E0,3.2666225E1,4.1680447E1,2.5920893E1,2.948927E0,6.366567E0,2.1764233E1,6.462308E1,7.117917E0,1.3157906E2,1.7968868E1,5.5456287E1,8.669927E1,1.1494953E1,1.8929583E1,3.2792618E1,4.320026E0,1.1269856E1,3.113712E0,1.6665137E0,2.2777696E0],"tree_param":{"num_deleted":"0","num_feature":"6","num_nodes":"53","size_leaf_vector":"1"}},{"base_weights":[-8.8939833E-4,5.4997975E-1,-2.0541035E-1,8.452296E-1,-1.5917065E-2,-3.5786453E-1,4.5242104E-1,1.3209625E0,-1.4932482E-1,-6.144955E-1,2.3522636E-1,-2.3129469E-1,-4.2417964E-1,6.777846E-1,-1.9371781E-2,3.5713337E-2,7.260708E-2,-2.8055418E-1,4.4848617E-2,-3.368835E-2,3.172184E-3,-8.536432E-3,2.2870287E-2,-1.2928456E-2,-2.0811148E-4,-2.2457536E-2,-1.1437604E-2,3.0274058E-2,6.358635E-2,-1.1055639E-2,-3.0375212E-2],"categories":[],"categories_nodes":[],"categories_segments":[],"categories_sizes":[],"default_left":[0,0,0,0,0,0,0,0,0,0,0,0,0,0,0,0,0,0,0,0,0,0,0,0,0,0,0,0,0,0,0],"id":14,"left_children":[1,3,5,7,9,11,13,15,17,19,21,23,25,27,-1,-1,-1,29,-1,-1,-1,-1,-1,-1,-1,-1,-1,-1,-1,-1,-1],"loss_changes":[7.115916E1,2.8585361E1,4.6354538E1,5.337568E1,9.105987E0,3.045185E0,1.6748646E1,5.0215454E0,5.368345E0,7.618437E-1,3.9308913E0,8.101597E-1,1.0906258E0,2.194765E0,0E0,0E0,0E0,5.239918E-1,0E0,0E0,0E0,0E0,0E0,0E0,0E0,0E0,0E0,0E0,0E0,0E0,0E0],"parents":[2147483647,0,0,1,1,2,2,3,3,4,4,5,5,6,6,7,7,8,8,9,9,10,10,11,11,12,12,13,13,17,17],"right_children":[2,4,6,8,10,12,14,16,18,20,22,24,26,28,-1,-1,-1,30,-1,-1,-1,-1,-1,-1,-1,-1,-1,-1,-1,-1,-1],"split_conditions":[3E0,1E0,1E0,1E0,2E0,1E0,2E0,2E0,1E0,1E0,1E0,1E0,1E0,1E0,-1.9371781E-2,3.5713337E-2,7.260708E-2,2E0,4.4848617E-2,-3.368835E-2,3.172184E-3,-8.536432E-3,2.2870287E-2,-1.2928456E-2,-2.0811148E-4,-2.2457536E-2,-1.1437604E-2,3.0274058E-2,6.358635E-2,-1.1055639E-2,-3.0375212E-2],"split_indices":[4,3,0,0,4,3,0,4,5,5,0,5,5,5,0,0,0,0,0,0,0,0,0,0,0,0,0,0,0,0,0],"split_type":[0,0,0,0,0,0,0,0,0,0,0,0,0,0,0,0,0,0,0,0,0,0,0,0,0,0,0,0,0,0,0],"sum_hessian":[6.296008E2,1.7000633E2,4.595945E2,1.1139416E2,5.8612175E1,3.7349258E2,8.610191E1,7.512895E1,3.6265205E1,1.6895777E1,4.17164E1,1.2995215E2,2.4354044E2,6.803789E1,1.8064022E1,1.4502169E1,6.062678E1,3.287393E1,3.3912756E0,1.554302E1,1.3527563E0,1.4837549E1,2.687885E1,1.1589669E2,1.4055465E1,2.147962E2,2.8744232E1,6.2454433E1,5.583456E0,2.923511E1,3.6388226E0],"tree_param":{"num_deleted":"0","num_feature":"6","num_nodes":"31","size_leaf_vector":"1"}},{"base_weights":[-1.6455557E-2,-1.8690506E-1,7.745185E-2,-2.957962E-1,1.6010529E-1,-1.9762422E-1,-4.8239842E-1,3.2771802E-1,-8.1620544E-1,-3.6969864E-1,2.306273E-1,-4.1448367E-1,-5.9703972E-2,8.108465E-1,-1.5439464E-1,-4.9935192E-2,-1.8607318E-1,-3.2797467E-2,-1.3584562E-2,4.567476E-3,4.5557957E-2,-2.5193099E-2,-1.2234866E-2,3.2417446E-2,9.435614E-2,2.8616948E-2,-1.6262842E-2,2.1345144E-2,-3.6619246E-2],"categories":[],"categories_nodes":[],"categories_segments":[],"categories_sizes":[],"default_left":[0,0,0,0,0,0,0,0,0,0,0,0,0,0,0,0,0,0,0,0,0,0,0,0,0,0,0,0,0],"id":15,"left_children":[1,3,-1,5,7,9,11,13,15,17,19,21,-1,23,25,-1,27,-1,-1,-1,-1,-1,-1,-1,-1,-1,-1,-1,-1],"loss_changes":[1.6813701E2,2.151585E1,0E0,7.8332405E0,2.2580313E1,2.1108923E1,6.683052E0,2.7397163E1,2.14464E0,5.542223E0,7.7260437E0,1.9572754E0,0E0,9.03241E0,7.567485E0,0E0,2.2482746E0,0E0,0E0,0E0,0E0,0E0,0E0,0E0,0E0,0E0,0E0,0E0,0E0],"parents":[2147483647,0,0,1,1,3,3,4,4,5,5,6,6,7,7,8,8,9,9,10,10,11,11,13,13,14,14,16,16],"right_children":[2,4,-1,6,8,10,12,14,16,18,20,22,-1,24,26,-1,28,-1,-1,-1,-1,-1,-1,-1,-1,-1,-1,-1,-1],"split_conditions":[2.018E3,1E0,7.745185E-2,2.016E3,2E0,2.015E3,1E0,2.8E1,3.2E1,2.013E3,1E0,3E1,-5.9703972E-2,1E0,2.014E3,-4.9935192E-2,3.7E1,-3.2797467E-2,-1.3584562E-2,4.567476E-3,4.5557957E-2,-2.5193099E-2,-1.2234866E-2,3.2417446E-2,9.435614E-2,2.8616948E-2,-1.6262842E-2,2.1345144E-2,-3.6619246E-2],"split_indices":[1,0,0,1,0,1,5,2,2,1,5,2,0,5,1,0,2,0,0,0,0,0,0,0,0,0,0,0,0],"split_type":[0,0,0,0,0,0,0,0,0,0,0,0,0,0,0,0,0,0,0,0,0,0,0,0,0,0,0,0,0],"sum_hessian":[6.280254E2,5.6715466E2,6.0870716E1,4.3180325E2,1.353514E2,2.8429428E2,1.4750897E2,1.160861E2,1.9265293E1,2.0290312E2,8.139116E1,1.3610323E2,1.1405745E1,5.7641388E1,5.8444706E1,1.4485192E1,4.7801003E0,5.029972E1,1.5260341E2,6.850512E1,1.2886039E1,8.787617E1,4.8227062E1,5.1472416E1,6.1689715E0,1.0677986E1,4.776672E1,2.3556132E0,2.424487E0],"tree_param":{"num_deleted":"0","num_feature":"6","num_nodes":"29","size_leaf_vector":"1"}},{"base_weights":[-8.626336E-3,5.08937E-1,-2.0420794E-1,7.6971E-1,1.2391037E-1,-3.2621413E-1,3.2940742E-1,2.5098848E-1,9.4652843E-1,7.1521914E-1,-2.3032512E-1,-8.5790485E-2,-3.8786647E-1,5.0155044E-1,-2.8191596E-1,1.1703278E-1,5.4118294E-1,6.32247E-2,8.511113E-1,5.2354914E-1,7.701873E-2,1.5091994E-1,-3.2138357E-1,-6.5433304E-3,2.6006308E-1,-5.992105E-1,-3.426535E-1,8.839837E-1,1.6035265E-1,-5.3446954E-1,5.549728E-1,1.7566402E-2,-6.047703E-3,7.212382E-2,-4.57935E-3,1.5334672E-2,4.861113E-2,3.5183363E-2,1.4638144E-2,-4.2694986E-2,2.005064E-2,-3.3700284E-2,-1.0166293E-2,-3.4584624E-3,2.882056E-2,-3.318792E-2,-3.4140125E-3,-1.8129192E-2,-9.528465E-3,2.2902332E-2,4.848834E-2,3.2636807E-3,3.6272287E-2,-1.867233E-2,-4.2605814E-2,5.97994E-2,-1.8331617E-2],"categories":[],"categories_nodes":[],"categories_segments":[],"categories_sizes":[],"default_left":[0,0,0,0,0,0,0,0,0,0,0,0,0,0,0,0,0,0,0,0,0,0,0,0,0,0,0,0,0,0,0,0,0,0,0,0,0,0,0,0,0,0,0,0,0,0,0,0,0,0,0,0,0,0,0,0,0],"id":16,"left_children":[1,3,5,7,9,11,13,15,17,19,21,23,25,27,29,31,33,-1,35,37,-1,39,41,-1,43,45,47,49,51,53,55,-1,-1,-1,-1,-1,-1,-1,-1,-1,-1,-1,-1,-1,-1,-1,-1,-1,-1,-1,-1,-1,-1,-1,-1,-1,-1],"loss_changes":[6.2649776E1,1.6947536E1,2.934854E1,9.026905E0,1.4771316E1,5.39275E0,8.989492E0,9.8775864E-1,1.1983109E0,3.3638935E0,1.5886693E0,1.2187853E0,2.5759583E0,8.465761E0,4.336551E0,1.1451583E0,4.8449316E0,0E0,3.705677E0,7.464514E-1,0E0,2.6628942E0,1.3670964E0,0E0,9.873854E-1,1.6667957E0,6.6475296E-1,6.841564E-1,1.8913729E0,4.5885086E-1,3.3459845E0,0E0,0E0,0E0,0E0,0E0,0E0,0E0,0E0,0E0,0E0,0E0,0E0,0E0,0E0,0E0,0E0,0E0,0E0,0E0,0E0,0E0,0E0,0E0,0E0,0E0,0E0],"parents":[2147483647,0,0,1,1,2,2,3,3,4,4,5,5,6,6,7,7,8,8,9,9,10,10,11,11,12,12,13,13,14,14,15,15,16,16,18,18,19,19,21,21,22,22,24,24,25,25,26,26,27,27,28,28,29,29,30,30],"right_children":[2,4,6,8,10,12,14,16,18,20,22,24,26,28,30,32,34,-1,36,38,-1,40,42,-1,44,46,48,50,52,54,56,-1,-1,-1,-1,-1,-1,-1,-1,-1,-1,-1,-1,-1,-1,-1,-1,-1,-1,-1,-1,-1,-1,-1,-1,-1,-1],"split_conditions":[3E0,1E0,1E0,2E0,2.7E1,2.6E1,2E0,3.1E1,2.6E1,1E0,2.8E1,1E0,2.7E1,2.8E1,3.2E1,2.7E1,3.5E1,6.32247E-2,2.7E1,2.6E1,7.701873E-2,2E0,2.9E1,-6.5433304E-3,2.5E1,1E0,1E0,2.5E1,4E1,2.9E1,3.8E1,1.7566402E-2,-6.047703E-3,7.212382E-2,-4.57935E-3,1.5334672E-2,4.861113E-2,3.5183363E-2,1.4638144E-2,-4.2694986E-2,2.005064E-2,-3.3700284E-2,-1.0166293E-2,-3.4584624E-3,2.882056E-2,-3.318792E-2,-3.4140125E-3,-1.8129192E-2,-9.528465E-3,2.2902332E-2,4.848834E-2,3.2636807E-3,3.6272287E-2,-1.867233E-2,-4.2605814E-2,5.97994E-2,-1.8331617E-2],"split_indices":[4,0,0,4,2,2,0,2,2,5,2,5,2,2,2,2,2,0,2,2,0,4,2,0,2,5,5,2,2,2,2,0,0,0,0,0,0,0,0,0,0,0,0,0,0,0,0,0,0,0,0,0,0,0,0,0,0],"split_type":[0,0,0,0,0,0,0,0,0,0,0,0,0,0,0,0,0,0,0,0,0,0,0,0,0,0,0,0,0,0,0,0,0,0,0,0,0,0,0,0,0,0,0,0,0,0,0,0,0,0,0,0,0,0,0,0,0],"sum_hessian":[6.16884E2,1.6874242E2,4.4814157E2,1.000088E2,6.873363E1,3.6506216E2,8.3079384E1,2.6039057E1,7.396974E1,2.5368357E1,4.3365265E1,7.4995636E1,2.9006653E2,6.496532E1,1.8114067E1,1.8775465E1,7.263591E0,1.4245644E1,5.9724094E1,2.191285E1,3.4555078E0,8.233927E0,3.513134E1,6.689821E1,8.097427E0,4.8958984E1,2.4110756E2,2.988158E1,3.508374E1,1.419247E1,3.921597E0,9.221126E0,9.554339E0,2.4682655E0,4.7953253E0,1.1511241E1,4.8212856E1,1.1156623E1,1.07562275E1,1.1597935E0,7.0741334E0,7.630618E0,2.7500721E1,4.3507895E0,3.7466378E0,4.3428932E1,5.5300517E0,2.1194806E2,2.9159492E1,6.072001E0,2.380958E1,3.0985775E1,4.097964E0,1.0861946E1,3.3305235E0,2.1372952E0,1.7843015E0],"tree_param":{"num_deleted":"0","num_feature":"6","num_nodes":"57","size_leaf_vector":"1"}},{"base_weights":[-1.4966367E-2,2.3627226E-1,-2.0730734E-1,2.7246225E-1,-1.0531767E-1,-4.0985286E-1,4.1842952E-1,2.9323047E-1,-2.677262E-1,-2.6749922E-2,-3.523401E-2,-1.9208212E-1,-4.6598563E-1,8.15397E-1,-2.9818645E-2,2.626957E-1,5.4438055E-1,-2.1629652E-2,1.0662609E-2,1.3616342E-2,-2.2857944E-2,-2.382144E-1,5.803565E-3,-3.352705E-2,-4.2073202E-1,1.012782E0,-1.7693197E-2,-3.0442202E-1,1.0718681E-1,1.5733771E-2,3.5476317E-3,4.0284988E-2,7.993626E-3,-3.5741318E-3,8.424859E-3,2.1624155E-3,-1.3066175E-2,-2.2484409E-2,-1.0030887E-2,4.472546E-2,8.1289366E-2,-5.2879904E-3,-3.2627225E-2,9.666726E-3,-3.4041446E-2],"categories":[],"categories_nodes":[],"categories_segments":[],"categories_sizes":[],"default_left":[0,0,0,0,0,0,0,0,0,0,0,0,0,0,0,0,0,0,0,0,0,0,0,0,0,0,0,0,0,0,0,0,0,0,0,0,0,0,0,0,0,0,0,0,0],"id":17,"left_children":[1,3,5,7,9,11,13,15,17,19,-1,21,23,25,27,29,31,-1,-1,33,-1,35,-1,-1,37,39,-1,41,43,-1,-1,-1,-1,-1,-1,-1,-1,-1,-1,-1,-1,-1,-1,-1,-1],"loss_changes":[2.9880018E1,3.3435268E0,4.455284E1,2.8016968E0,1.2247391E0,3.1504822E0,1.5349515E1,1.6532288E0,8.463298E-1,4.2993072E-1,0E0,8.240149E-1,1.6621094E0,1.0908184E1,1.5907468E0,2.0783472E0,2.3286777E0,0E0,0E0,3.18713E-1,0E0,3.303585E-1,0E0,0E0,1.0230503E0,1.3999557E0,0E0,9.023564E-1,2.0575037E0,0E0,0E0,0E0,0E0,0E0,0E0,0E0,0E0,0E0,0E0,0E0,0E0,0E0,0E0,0E0,0E0],"parents":[2147483647,0,0,1,1,2,2,3,3,4,4,5,5,6,6,7,7,8,8,9,9,11,11,12,12,13,13,14,14,15,15,16,16,19,19,21,21,24,24,25,25,27,27,28,28],"right_children":[2,4,6,8,10,12,14,16,18,20,-1,22,24,26,28,30,32,-1,-1,34,-1,36,-1,-1,38,40,-1,42,44,-1,-1,-1,-1,-1,-1,-1,-1,-1,-1,-1,-1,-1,-1,-1,-1],"split_conditions":[1E0,3.8E1,1E0,2E0,4.1E1,2.6E1,2.8E1,1E0,3.2E1,1E0,-3.523401E-2,1E0,2.7E1,2E0,3E1,1E0,2.8E1,-2.1629652E-2,1.0662609E-2,4E1,-2.2857944E-2,2.3E1,5.803565E-3,-3.352705E-2,1E0,1E0,-1.7693197E-2,2.9E1,1E0,1.5733771E-2,3.5476317E-3,4.0284988E-2,7.993626E-3,-3.5741318E-3,8.424859E-3,2.1624155E-3,-1.3066175E-2,-2.2484409E-2,-1.0030887E-2,4.472546E-2,8.1289366E-2,-5.2879904E-3,-3.2627225E-2,9.666726E-3,-3.4041446E-2],"split_indices":[3,2,0,0,2,2,2,5,2,5,0,5,2,0,2,0,2,0,0,2,0,2,0,0,5,5,0,2,5,0,0,0,0,0,0,0,0,0,0,0,0,0,0,0,0],"split_type":[0,0,0,0,0,0,0,0,0,0,0,0,0,0,0,0,0,0,0,0,0,0,0,0,0,0,0,0,0,0,0,0,0,0,0,0,0,0,0,0,0,0,0,0,0],"sum_hessian":[6.163197E2,2.6714392E2,3.4917575E2,2.4173547E2,2.5408464E1,2.6405008E2,8.512569E1,2.3322597E2,8.509501E0,2.3387352E1,2.0211124E0,5.5019638E1,2.0903044E2,4.4710815E1,4.0414867E1,2.0976833E2,2.345764E1,6.4121737E0,2.0973277E0,2.2267353E1,1.1199983E0,4.8052826E1,6.966812E0,3.5363388E1,1.7366705E2,3.8367725E1,6.343093E0,1.3045494E1,2.7369373E1,1.6452582E2,4.5242516E1,1.3313869E1,1.014377E1,1.4718673E1,7.54868E0,3.579841E0,4.4472984E1,1.5255534E2,2.1111708E1,3.4223827E1,4.1438966E0,9.135794E0,3.9097006E0,2.5352442E1,2.0169315E0],"tree_param":{"num_deleted":"0","num_feature":"6","num_nodes":"45","size_leaf_vector":"1"}},{"base_weights":[-2.1059867E-3,-1.6279326E-1,7.7840656E-2,4.6732235E-1,-4.3397483E-1,9.141578E-1,-5.921446E-2,-3.1965625E-1,-4.6258366E-1,2.1536492E-1,1.2027456E0,4.5260978E-1,-3.4063333E-1,-3.2153346E-2,-4.326642E-1,-4.9520823E-1,-3.1184936E-1,-3.523175E-2,2.1109063E-2,6.988967E-2,5.16459E-2,1.4178172E-2,7.097371E-2,-2.6110595E-2,-9.776063E-3,-6.3437554E-3,1.8197013E-2,-3.5547934E-2,-1.562512E-2,-2.6657963E-2,-1.8501192E-2,-1.2715592E-2,-4.0270444E-2],"categories":[],"categories_nodes":[],"categories_segments":[],"categories_sizes":[],"default_left":[0,0,0,0,0,0,0,0,0,0,0,0,0,0,0,0,0,0,0,0,0,0,0,0,0,0,0,0,0,0,0,0,0],"id":18,"left_children":[1,3,-1,5,7,9,11,13,15,17,19,21,23,25,27,29,31,-1,-1,-1,-1,-1,-1,-1,-1,-1,-1,-1,-1,-1,-1,-1,-1],"loss_changes":[1.5585345E2,9.658065E1,0E0,4.009429E1,1.1434631E0,1.8318283E1,1.1542291E1,2.659007E0,1.3875961E0,5.652229E0,7.0854187E-1,4.252218E0,1.2571201E0,9.576228E-1,1.7499876E0,1.01931E0,1.4562821E0,0E0,0E0,0E0,0E0,0E0,0E0,0E0,0E0,0E0,0E0,0E0,0E0,0E0,0E0,0E0,0E0],"parents":[2147483647,0,0,1,1,3,3,4,4,5,5,6,6,7,7,8,8,9,9,10,10,11,11,12,12,13,13,14,14,15,15,16,16],"right_children":[2,4,-1,6,8,10,12,14,16,18,20,22,24,26,28,30,32,-1,-1,-1,-1,-1,-1,-1,-1,-1,-1,-1,-1,-1,-1,-1,-1],"split_conditions":[2.018E3,3E0,7.7840656E-2,2.017E3,2.6E1,2E0,2.7E1,2.014E3,2.017E3,2.013E3,2.015E3,1E0,2.9E1,1E0,2.015E3,3.5E1,1E0,-3.523175E-2,2.1109063E-2,6.988967E-2,5.16459E-2,1.4178172E-2,7.097371E-2,-2.6110595E-2,-9.776063E-3,-6.3437554E-3,1.8197013E-2,-3.5547934E-2,-1.562512E-2,-2.6657963E-2,-1.8501192E-2,-1.2715592E-2,-4.0270444E-2],"split_indices":[1,4,0,1,2,4,2,1,1,1,1,5,2,5,1,2,5,0,0,0,0,0,0,0,0,0,0,0,0,0,0,0,0],"split_type":[0,0,0,0,0,0,0,0,0,0,0,0,0,0,0,0,0,0,0,0,0,0,0,0,0,0,0,0,0,0,0,0,0],"sum_hessian":[6.201616E2,5.63023E2,5.7138634E1,1.691843E2,3.938387E2,9.112047E1,7.806383E1,8.126871E1,3.1257E2,2.7142729E1,6.3977737E1,2.7478893E1,5.058493E1,2.3293175E1,5.7975533E1,2.5507655E2,5.7493435E1,4.539996E0,2.2602734E1,2.6412363E1,3.7565376E1,2.4490297E1,2.9885962E0,2.1314917E1,2.9270016E1,1.934637E1,3.9468036E0,1.6000868E1,4.1974663E1,1.9323593E2,6.1840633E1,5.284787E1,4.645567E0],"tree_param":{"num_deleted":"0","num_feature":"6","num_nodes":"33","size_leaf_vector":"1"}},{"base_weights":[-2.3787995E-3,-1.5199485E-1,1.4630839E0,3.7200835E-1,-3.7977156E-1,2.5817126E-2,7.605742E-2,8.9912426E-1,-2.552191E-1,-5.187859E-1,2.4531972E-1,1.996325E-1,1.1984378E0,-2.4199408E-2,-4.7178462E-1,-3.522552E-1,-6.15158E-1,5.3005415E-1,-4.704679E-2,2.8505249E-2,-2.0468647E-2,7.49036E-2,1.05923815E-2,7.954592E-3,-8.198774E-3,-5.1273156E-2,-7.1371733E-3,-2.4097448E-2,-1.1595476E-2,-3.8144674E-2,-2.926631E-2,1.634424E-2,3.3541925E-2],"categories":[],"categories_nodes":[],"categories_segments":[],"categories_sizes":[],"default_left":[0,0,0,0,0,0,0,0,0,0,0,0,0,0,0,0,0,0,0,0,0,0,0,0,0,0,0,0,0,0,0,0,0],"id":19,"left_children":[1,3,5,7,9,-1,-1,11,13,15,17,19,21,23,25,27,29,31,-1,-1,-1,-1,-1,-1,-1,-1,-1,-1,-1,-1,-1,-1,-1],"loss_changes":[1.3433879E2,6.649444E1,2.3347092E0,5.608532E1,3.3841934E1,0E0,0E0,1.9026299E1,3.8871942E0,4.8823776E0,2.4569939E1,6.7255974E0,1.8673859E1,1.0190531E0,7.171218E0,1.7425699E0,4.345169E-1,1.4428539E0,0E0,0E0,0E0,0E0,0E0,0E0,0E0,0E0,0E0,0E0,0E0,0E0,0E0,0E0,0E0],"parents":[2147483647,0,0,1,1,2,2,3,3,4,4,7,7,8,8,9,9,10,10,11,11,12,12,13,13,14,14,15,15,16,16,17,17],"right_children":[2,4,6,8,10,-1,-1,12,14,16,18,20,22,24,26,28,30,32,-1,-1,-1,-1,-1,-1,-1,-1,-1,-1,-1,-1,-1,-1,-1],"split_conditions":[2.018E3,3E0,3E0,2.017E3,1E0,2.5817126E-2,7.605742E-2,2E0,1E0,1E0,2E0,1E0,1E0,1E0,1E0,2.015E3,2.013E3,2.015E3,-4.704679E-2,2.8505249E-2,-2.0468647E-2,7.49036E-2,1.05923815E-2,7.954592E-3,-8.198774E-3,-5.1273156E-2,-7.1371733E-3,-2.4097448E-2,-1.1595476E-2,-3.8144674E-2,-2.926631E-2,1.634424E-2,3.3541925E-2],"split_indices":[1,4,4,1,0,0,0,4,3,3,0,3,0,0,0,1,1,1,0,0,0,0,0,0,0,0,0,0,0,0,0,0,0],"split_type":[0,0,0,0,0,0,0,0,0,0,0,0,0,0,0,0,0,0,0,0,0,0,0,0,0,0,0,0,0,0,0,0,0],"sum_hessian":[6.1068665E2,5.549277E2,5.5758923E1,1.6794194E2,3.8698575E2,3.7937856E0,5.1965137E1,9.101789E1,7.692405E1,3.1672025E2,7.02655E1,2.7775015E1,6.3242878E1,3.7757866E1,3.9166183E1,1.17806366E2,1.9891388E2,5.711055E1,1.3154954E1,1.7309258E1,1.0465757E1,4.8112385E1,1.5130493E1,1.627627E1,2.1481598E1,1.3810574E1,2.5355612E1,5.5254818E1,6.2551548E1,2.9289782E1,1.696241E2,2.4735716E1,3.2374832E1],"tree_param":{"num_deleted":"0","num_feature":"6","num_nodes":"33","size_leaf_vector":"1"}},{"base_weights":[-3.144181E-3,-1.4657785E-1,1.418542E0,4.2151406E-1,-3.9064193E-1,-3.2473143E-2,7.359873E-2,8.111077E-1,-3.774989E-2,-5.1242065E-1,1.5873592E-1,1.0128706E-1,1.1396853E0,6.082309E-1,-2.1338296E-1,-2.9731503E-1,-5.640516E-1,4.101727E-1,-8.622794E-1,-3.3084907E-2,1.2841994E-2,7.1149014E-2,1.1773664E-2,-4.1059762E-2,3.8842484E-2,-1.2153661E-3,-1.6103702E-2,-6.504161E-3,-3.0807659E-2,-3.9831813E-2,-2.6128292E-2,4.0153418E-2,1.9875521E-4,-5.020673E-2,-9.013845E-3],"categories":[],"categories_nodes":[],"categories_segments":[],"categories_sizes":[],"default_left":[0,0,0,0,0,0,0,0,0,0,0,0,0,0,0,0,0,0,0,0,0,0,0,0,0,0,0,0,0,0,0,0,0,0,0],"id":20,"left_children":[1,3,5,7,9,-1,-1,11,13,15,17,19,21,23,25,27,29,31,33,-1,-1,-1,-1,-1,-1,-1,-1,-1,-1,-1,-1,-1,-1,-1,-1],"loss_changes":[1.2401851E2,7.675864E1,7.1147537E0,2.9820402E1,2.5968056E1,0E0,0E0,2.0904007E1,8.907734E0,3.352501E0,1.8573345E1,3.6847768E0,1.5420738E1,4.6868744E0,1.2574952E0,3.303918E0,2.039299E0,9.193297E0,1.2069063E0,0E0,0E0,0E0,0E0,0E0,0E0,0E0,0E0,0E0,0E0,0E0,0E0,0E0,0E0,0E0,0E0],"parents":[2147483647,0,0,1,1,2,2,3,3,4,4,7,7,8,8,9,9,10,10,11,11,12,12,13,13,14,14,15,15,16,16,17,17,18,18],"right_children":[2,4,6,8,10,-1,-1,12,14,16,18,20,22,24,26,28,30,32,34,-1,-1,-1,-1,-1,-1,-1,-1,-1,-1,-1,-1,-1,-1,-1,-1],"split_conditions":[2.018E3,3E0,2E0,2.017E3,1E0,-3.2473143E-2,7.359873E-2,2E0,2.6E1,2.6E1,2E0,2.013E3,1E0,2E0,2.8E1,2.016E3,2.013E3,2.8E1,3.3E1,-3.3084907E-2,1.2841994E-2,7.1149014E-2,1.1773664E-2,-4.1059762E-2,3.8842484E-2,-1.2153661E-3,-1.6103702E-2,-6.504161E-3,-3.0807659E-2,-3.9831813E-2,-2.6128292E-2,4.0153418E-2,1.9875521E-4,-5.020673E-2,-9.013845E-3],"split_indices":[1,4,4,1,0,0,0,4,2,2,0,1,0,4,2,1,1,2,2,0,0,0,0,0,0,0,0,0,0,0,0,0,0,0,0],"split_type":[0,0,0,0,0,0,0,0,0,0,0,0,0,0,0,0,0,0,0,0,0,0,0,0,0,0,0,0,0,0,0,0,0,0,0],"sum_hessian":[6.061596E2,5.514235E2,5.4736122E1,1.6549187E2,3.8593164E2,1.0976794E0,5.3638443E1,8.912285E1,7.636902E1,3.159609E2,6.997072E1,2.8614872E1,6.050798E1,1.5798574E1,6.0570446E1,6.24673E1,2.534936E2,5.6624546E1,1.3346176E1,4.294845E0,2.4320026E1,4.563617E1,1.487181E1,1.2586379E0,1.4539937E1,2.2556131E1,3.8014317E1,4.189907E1,2.056823E1,3.561578E1,2.1787782E2,2.8286915E1,2.833763E1,1.0657175E1,2.6890018E0],"tree_param":{"num_deleted":"0","num_feature":"6","num_nodes":"35","size_leaf_vector":"1"}},{"base_weights":[-1.4306959E-2,4.0412977E-1,-1.774116E-1,6.98858E-1,-1.164543E-1,-3.059403E-1,3.3776155E-1,1.0669506E0,-8.663579E-2,-2.452098E-2,2.1840107E-1,-1.5623495E-1,-3.8927037E-1,4.841308E-1,-2.2902855E-1,2.7882045E-2,5.8749747E-2,8.938247E-3,-4.2789634E-2,-2.2073781E-2,1.6758729E-2,-9.010434E-3,3.160535E-3,-2.02566E-2,-1.3299028E-2,2.238402E-2,4.1076437E-2,6.587249E-3,-1.846429E-2,-3.0622594E-3,3.6826745E-2],"categories":[],"categories_nodes":[],"categories_segments":[],"categories_sizes":[],"default_left":[0,0,0,0,0,0,0,0,0,0,0,0,0,0,0,0,0,0,0,0,0,0,0,0,0,0,0,0,0,0,0],"id":21,"left_children":[1,3,5,7,9,11,13,15,17,-1,19,21,23,25,27,-1,-1,29,-1,-1,-1,-1,-1,-1,-1,-1,-1,-1,-1,-1,-1],"loss_changes":[4.0798264E1,2.5807308E1,2.857983E1,3.1088306E1,7.8044963E0,4.239521E0,7.2742577E0,3.365715E0,2.5902221E0,0E0,2.7002304E0,6.6867304E-1,3.2399368E-1,4.8013496E-1,9.797473E-1,0E0,0E0,1.6913677E0,0E0,0E0,0E0,0E0,0E0,0E0,0E0,0E0,0E0,0E0,0E0,0E0,0E0],"parents":[2147483647,0,0,1,1,2,2,3,3,4,4,5,5,6,6,7,7,8,8,10,10,11,11,12,12,13,13,14,14,17,17],"right_children":[2,4,6,8,10,12,14,16,18,-1,20,22,24,26,28,-1,-1,30,-1,-1,-1,-1,-1,-1,-1,-1,-1,-1,-1,-1,-1],"split_conditions":[3E0,1E0,1E0,1E0,1E0,1E0,2E0,2E0,2E0,-2.452098E-2,2E0,1E0,1E0,1E0,1E0,2.7882045E-2,5.8749747E-2,1E0,-4.2789634E-2,-2.2073781E-2,1.6758729E-2,-9.010434E-3,3.160535E-3,-2.02566E-2,-1.3299028E-2,2.238402E-2,4.1076437E-2,6.587249E-3,-1.846429E-2,-3.0622594E-3,3.6826745E-2],"split_indices":[4,3,0,0,0,3,0,4,0,0,4,5,5,5,3,0,0,5,0,0,0,0,0,0,0,0,0,0,0,0,0],"split_type":[0,0,0,0,0,0,0,0,0,0,0,0,0,0,0,0,0,0,0,0,0,0,0,0,0,0,0,0,0,0,0],"sum_hessian":[5.957352E2,1.6667113E2,4.2906412E2,1.0620232E2,6.046881E1,3.4371744E2,8.534669E1,7.207073E1,3.4131588E1,2.8346722E1,3.212209E1,1.23936356E2,2.1978107E2,6.7945984E1,1.7400702E1,1.3691545E1,5.837919E1,3.1238346E1,2.8932412E0,4.411646E0,2.7710442E1,1.1189138E2,1.2044979E1,1.9270317E2,2.7077906E1,6.34212E1,4.5247827E0,4.888096E0,1.2512605E1,2.9325459E1,1.9128867E0],"tree_param":{"num_deleted":"0","num_feature":"6","num_nodes":"31","size_leaf_vector":"1"}},{"base_weights":[-1.0872609E-2,2.2771786E-1,-1.9733721E-1,3.197315E-1,-5.412619E-2,-3.998526E-1,3.6973163E-1,3.363978E-1,1.4381407E-1,-1.4447503E-1,9.014102E-1,-2.421062E-1,-4.3916744E-1,7.425883E-1,-4.7253262E-2,2.8559536E-1,5.483338E-1,-1.4093329E-4,1.566691E-2,1.1619728E-1,-2.6404473E-1,5.875625E-2,1.3803499E-2,-2.9271114E-1,5.0384975E-3,-3.176582E-2,-3.951112E-1,8.920821E-1,-1.7091702E-1,-8.1979364E-2,2.1543948E-2,1.7350506E-2,8.332669E-3,4.011163E-2,2.0689843E-2,1.0615229E-2,-3.0316144E-2,-1.6610334E-2,-1.5178222E-3,1.18099665E-2,-1.6854836E-2,-1.5373148E-2,-2.6654555E-2,3.7731837E-2,7.674784E-2,5.552781E-3,-3.1190693E-2,1.7001911E-3,-1.7408723E-2],"categories":[],"categories_nodes":[],"categories_segments":[],"categories_sizes":[],"default_left":[0,0,0,0,0,0,0,0,0,0,0,0,0,0,0,0,0,0,0,0,0,0,0,0,0,0,0,0,0,0,0,0,0,0,0,0,0,0,0,0,0,0,0,0,0,0,0,0,0],"id":22,"left_children":[1,3,5,7,9,11,13,15,17,19,21,23,25,27,29,31,33,-1,-1,35,37,-1,-1,39,-1,-1,41,43,45,47,-1,-1,-1,-1,-1,-1,-1,-1,-1,-1,-1,-1,-1,-1,-1,-1,-1,-1,-1],"loss_changes":[2.6407043E1,6.7706356E0,3.840664E1,5.2762604E-1,5.7372146E0,1.4190674E0,1.374605E1,1.7675858E0,4.6693474E-1,1.9069779E0,6.595402E-1,9.1960025E-1,1.4398041E0,6.5186405E0,7.42146E-1,1.010459E0,8.11286E-1,0E0,0E0,1.4914209E0,6.5213656E-1,0E0,0E0,1.1350505E0,0E0,0E0,1.800354E0,2.395668E0,1.0136709E0,1.263106E0,0E0,0E0,0E0,0E0,0E0,0E0,0E0,0E0,0E0,0E0,0E0,0E0,0E0,0E0,0E0,0E0,0E0,0E0,0E0],"parents":[2147483647,0,0,1,1,2,2,3,3,4,4,5,5,6,6,7,7,8,8,9,9,10,10,11,11,12,12,13,13,14,14,15,15,16,16,19,19,20,20,23,23,26,26,27,27,28,28,29,29],"right_children":[2,4,6,8,10,12,14,16,18,20,22,24,26,28,30,32,34,-1,-1,36,38,-1,-1,40,-1,-1,42,44,46,48,-1,-1,-1,-1,-1,-1,-1,-1,-1,-1,-1,-1,-1,-1,-1,-1,-1,-1,-1],"split_conditions":[1E0,1E0,1E0,3.8E1,1E0,2.6E1,2.8E1,3.2E1,4E1,2.7E1,2.9E1,1E0,2.7E1,2E0,4.1E1,2.8E1,3.4E1,-1.4093329E-4,1.566691E-2,2E0,3.7E1,5.875625E-2,1.3803499E-2,2.3E1,5.0384975E-3,-3.176582E-2,3.3E1,1E0,2.7E1,3.6E1,2.1543948E-2,1.7350506E-2,8.332669E-3,4.011163E-2,2.0689843E-2,1.0615229E-2,-3.0316144E-2,-1.6610334E-2,-1.5178222E-3,1.18099665E-2,-1.6854836E-2,-1.5373148E-2,-2.6654555E-2,3.7731837E-2,7.674784E-2,5.552781E-3,-3.1190693E-2,1.7001911E-3,-1.7408723E-2],"split_indices":[3,0,0,2,5,2,2,2,2,2,2,5,2,0,2,2,2,0,0,0,2,0,0,2,0,0,2,5,2,2,0,0,0,0,0,0,0,0,0,0,0,0,0,0,0,0,0,0,0],"split_type":[0,0,0,0,0,0,0,0,0,0,0,0,0,0,0,0,0,0,0,0,0,0,0,0,0,0,0,0,0,0,0,0,0,0,0,0,0,0,0,0,0,0,0,0,0,0,0,0,0],"sum_hessian":[5.915577E2,2.594095E2,3.321482E2,1.9546242E2,6.3947052E1,2.4496098E2,8.7187225E1,1.777137E2,1.774872E1,5.9198463E1,4.7485905E0,5.0299187E1,1.946618E2,4.561694E1,4.1570282E1,1.4524507E2,3.2468628E1,1.0044196E1,7.7045245E0,1.8624231E1,4.057423E1,2.6913815E0,2.0572088E0,4.3957783E1,6.3414025E0,3.3241604E1,1.614202E2,3.9221798E1,6.3951406E0,3.952796E1,2.0423205E0,9.452195E1,5.0723125E1,9.52676E0,2.2941868E1,1.7060995E1,1.5632368E0,3.108563E1,9.488599E0,3.0687082E0,4.0889076E1,1.0068859E2,6.07316E1,3.4104225E1,5.117572E0,4.40647E0,1.9886708E0,2.8139593E1,1.138837E1],"tree_param":{"num_deleted":"0","num_feature":"6","num_nodes":"49","size_leaf_vector":"1"}},{"base_weights":[3.0090708E-2,-1.1155697E-1,7.146639E-2,1.3893099E-1,-3.227732E-1,2.7534536E-1,-1.0532358E-1,-5.1189494E-1,2.2265628E-1,3.1252512E-1,-7.795987E-1,-3.970332E-3,-4.0715104E-1,-4.6974218E-1,-3.3646148E-2,3.5652834E-1,-5.9057647E-1,7.122339E-3,2.7957276E-2,-1.3283564E-3,-5.8235187E-2,-5.6890845E-2,3.4366872E-2,-3.0548329E-2,-2.184615E-2,3.788429E-2,1.5321928E-2,-9.098038E-3,-4.481341E-2],"categories":[],"categories_nodes":[],"categories_segments":[],"categories_sizes":[],"default_left":[0,0,0,0,0,0,0,0,0,0,0,0,0,0,0,0,0,0,0,0,0,0,0,0,0,0,0,0,0],"id":23,"left_children":[1,3,-1,5,7,9,11,13,15,17,19,-1,21,23,-1,25,27,-1,-1,-1,-1,-1,-1,-1,-1,-1,-1,-1,-1],"loss_changes":[1.1938667E2,2.8994724E1,0E0,8.392926E0,3.0767178E1,6.571903E0,6.769872E-1,1.1837082E0,8.615946E0,6.4873676E0,1.6448944E0,0E0,6.32256E0,5.6005096E-1,0E0,1.1124363E0,1.247086E0,0E0,0E0,0E0,0E0,0E0,0E0,0E0,0E0,0E0,0E0,0E0,0E0],"parents":[2147483647,0,0,1,1,3,3,4,4,5,5,6,6,7,7,8,8,9,9,10,10,12,12,13,13,15,15,16,16],"right_children":[2,4,-1,6,8,10,12,14,16,18,20,-1,22,24,-1,26,28,-1,-1,-1,-1,-1,-1,-1,-1,-1,-1,-1,-1],"split_conditions":[2.018E3,1E0,7.146639E-2,2.016E3,1E0,2E0,1E0,2.017E3,2E0,2.015E3,2.014E3,-3.970332E-3,1E0,2.013E3,-3.3646148E-2,2.013E3,2.014E3,7.122339E-3,2.7957276E-2,-1.3283564E-3,-5.8235187E-2,-5.6890845E-2,3.4366872E-2,-3.0548329E-2,-2.184615E-2,3.788429E-2,1.5321928E-2,-9.098038E-3,-4.481341E-2],"split_indices":[1,3,0,1,0,0,5,1,0,1,1,0,0,1,0,1,1,0,0,0,0,0,0,0,0,0,0,0,0],"split_type":[0,0,0,0,0,0,0,0,0,0,0,0,0,0,0,0,0,0,0,0,0,0,0,0,0,0,0,0,0],"sum_hessian":[6.005541E2,5.461831E2,5.4370975E1,2.5001941E2,2.9616367E2,1.603422E2,8.9677216E1,2.1995732E2,7.620634E1,1.5556337E2,4.778825E0,8.374904E1,5.928172E0,1.7742853E2,4.2528797E1,6.591688E1,1.0289458E1,9.3002846E1,6.256053E1,1.978692E0,2.8001328E0,3.5312014E0,2.3969705E0,3.0135677E1,1.4729285E2,5.7488804E0,6.0168E1,5.0861225E0,5.2033362E0],"tree_param":{"num_deleted":"0","num_feature":"6","num_nodes":"29","size_leaf_vector":"1"}},{"base_weights":[2.7837224E-2,4.0178907E-1,-1.1843224E-1,6.36279E-1,4.8576873E-2,-2.4276562E-1,3.99952E-1,1.6124403E-1,7.865588E-1,6.850699E-1,-1.4094473E-1,-1.07172444E-1,-2.7773425E-1,5.6492007E-1,-2.4223676E-1,5.1596504E-1,-4.9401015E-2,7.3928624E-1,5.6774653E-2,-1.1696554E-3,3.9168756E-2,1.2398993E-1,-2.9102236E-1,-1.0276682E-2,8.9255424E-4,-4.9411684E-1,-1.1632816E-2,8.395648E-1,3.0356908E-1,-2.6404297E-2,5.301932E-1,3.8989452E-3,5.2472558E-2,-1.908894E-2,1.6105024E-2,3.2054655E-2,4.372649E-2,-3.621947E-2,1.5127811E-2,-1.6662298E-2,2.4190186E-2,-1.6549748E-3,1.3293671E-2,-2.8473651E-2,2.6160264E-3,2.1249978E-2,5.4241933E-2,1.0843002E-2,4.0840182E-2,5.882726E-2,-1.5590185E-2],"categories":[],"categories_nodes":[],"categories_segments":[],"categories_sizes":[],"default_left":[0,0,0,0,0,0,0,0,0,0,0,0,0,0,0,0,0,0,0,0,0,0,0,0,0,0,0,0,0,0,0,0,0,0,0,0,0,0,0,0,0,0,0,0,0,0,0,0,0,0,0],"id":24,"left_children":[1,3,5,7,9,11,13,15,17,19,21,23,25,27,29,31,33,35,-1,-1,-1,37,39,-1,41,43,-1,45,47,-1,49,-1,-1,-1,-1,-1,-1,-1,-1,-1,-1,-1,-1,-1,-1,-1,-1,-1,-1,-1,-1],"loss_changes":[3.2419697E1,1.3770418E1,2.7566956E1,7.0166054E0,8.247265E0,1.6031017E0,8.91154E0,1.9163649E0,4.1018677E-1,1.109921E0,2.139219E0,7.6797277E-1,2.5493107E0,4.496767E0,4.172249E0,2.1416597E0,2.1961951E0,3.6344147E-1,0E0,0E0,0E0,3.223124E0,1.275712E0,0E0,3.2778448E-1,1.9322948E0,0E0,2.7634792E0,1.4020913E0,0E0,3.2297492E0,0E0,0E0,0E0,0E0,0E0,0E0,0E0,0E0,0E0,0E0,0E0,0E0,0E0,0E0,0E0,0E0,0E0,0E0,0E0,0E0],"parents":[2147483647,0,0,1,1,2,2,3,3,4,4,5,5,6,6,7,7,8,8,9,9,10,10,11,11,12,12,13,13,14,14,15,15,16,16,17,17,21,21,22,22,24,24,25,25,27,27,28,28,30,30],"right_children":[2,4,6,8,10,12,14,16,18,20,22,24,26,28,30,32,34,36,-1,-1,-1,38,40,-1,42,44,-1,46,48,-1,50,-1,-1,-1,-1,-1,-1,-1,-1,-1,-1,-1,-1,-1,-1,-1,-1,-1,-1,-1,-1],"split_conditions":[3E0,1E0,1E0,2E0,2.6E1,2.6E1,2E0,2.7E1,1E0,2E0,2.8E1,2.5E1,2.7E1,2.8E1,3.3E1,2.6E1,3.1E1,2.9E1,5.6774653E-2,-1.1696554E-3,3.9168756E-2,2E0,4.1E1,-1.0276682E-2,1E0,1E0,-1.1632816E-2,2.6E1,4E1,-2.6404297E-2,3.7E1,3.8989452E-3,5.2472558E-2,-1.908894E-2,1.6105024E-2,3.2054655E-2,4.372649E-2,-3.621947E-2,1.5127811E-2,-1.6662298E-2,2.4190186E-2,-1.6549748E-3,1.3293671E-2,-2.8473651E-2,2.6160264E-3,2.1249978E-2,5.4241933E-2,1.0843002E-2,4.0840182E-2,5.882726E-2,-1.5590185E-2],"split_indices":[4,0,0,4,2,2,0,2,5,4,2,2,2,2,2,2,2,2,0,0,0,4,2,0,5,5,0,2,2,0,2,0,0,0,0,0,0,0,0,0,0,0,0,0,0,0,0,0,0,0,0],"split_type":[0,0,0,0,0,0,0,0,0,0,0,0,0,0,0,0,0,0,0,0,0,0,0,0,0,0,0,0,0,0,0,0,0,0,0,0,0,0,0,0,0,0,0,0,0,0,0,0,0,0,0],"sum_hessian":[5.908364E2,1.6563298E2,4.2520343E2,9.906468E1,6.65683E1,3.433769E2,8.1826546E1,2.4306076E1,7.4758606E1,1.4673569E1,5.189473E1,7.123259E1,2.721443E2,6.5198425E1,1.6628117E1,8.51596E0,1.5790115E1,6.858554E1,6.1730657E0,1.8808382E0,1.279273E1,1.8829144E1,3.3065586E1,3.6818394E1,3.4414196E1,4.520248E1,2.2694182E2,3.0711924E1,3.4486504E1,1.2367625E1,4.260492E0,5.305979E0,3.209981E0,8.319287E0,7.470828E0,4.30613E1,2.5524242E1,2.742528E0,1.6086615E1,3.1897276E1,1.1683092E0,3.1277029E1,3.1371655E0,3.968727E1,5.5152073E0,1.2431979E1,1.8279943E1,3.0719154E1,3.7673495E0,2.1854908E0,2.075001E0],"tree_param":{"num_deleted":"0","num_feature":"6","num_nodes":"51","size_leaf_vector":"1"}},{"base_weights":[-2.2824693E-3,-1.3480443E-1,1.3748204E0,3.766562E-1,-3.6440527E-1,5.601012E-1,7.083231E-2,8.0573636E-1,-1.1629117E-1,-4.6120873E-1,7.663958E-2,-1.2803982E-2,4.5250114E-2,2.1113397E-1,1.0751292E0,3.9004028E-1,-3.8793823E-1,-3.3774093E-1,-4.921493E-1,2.9416543E-1,-8.699458E-1,2.013979E-2,-2.0232862E-2,6.811312E-2,7.5605023E-3,-9.485621E-3,3.824797E-2,-7.672559E-3,-2.243547E-2,-1.1766618E-2,-2.6188234E-2,-3.3026993E-2,-2.3090692E-2,2.9242793E-2,1.3284342E-3,-5.205374E-2,-4.490158E-3],"categories":[],"categories_nodes":[],"categories_segments":[],"categories_sizes":[],"default_left":[0,0,0,0,0,0,0,0,0,0,0,0,0,0,0,0,0,0,0,0,0,0,0,0,0,0,0,0,0,0,0,0,0,0,0,0,0],"id":25,"left_children":[1,3,5,7,9,11,-1,13,15,17,19,-1,-1,21,23,25,27,29,31,33,35,-1,-1,-1,-1,-1,-1,-1,-1,-1,-1,-1,-1,-1,-1,-1,-1],"loss_changes":[1.0866886E2,6.3922672E1,9.877701E-1,3.5793114E1,1.606247E1,1.4158628E0,0E0,1.4247314E1,1.1074807E1,1.0102768E0,1.434429E1,0E0,0E0,3.635146E0,1.622667E1,6.281043E0,6.748452E-1,1.1130838E0,9.417076E-1,4.3703933E0,1.647129E0,0E0,0E0,0E0,0E0,0E0,0E0,0E0,0E0,0E0,0E0,0E0,0E0,0E0,0E0,0E0,0E0],"parents":[2147483647,0,0,1,1,2,2,3,3,4,4,5,5,7,7,8,8,9,9,10,10,13,13,14,14,15,15,16,16,17,17,18,18,19,19,20,20],"right_children":[2,4,6,8,10,12,-1,14,16,18,20,-1,-1,22,24,26,28,30,32,34,36,-1,-1,-1,-1,-1,-1,-1,-1,-1,-1,-1,-1,-1,-1,-1,-1],"split_conditions":[2.018E3,3E0,3E0,2.017E3,1E0,2.8E1,7.083231E-2,2E0,2.7E1,2.6E1,2E0,-1.2803982E-2,4.5250114E-2,3.5E1,1E0,1E0,2.8E1,2.016E3,2.013E3,2.8E1,3.3E1,2.013979E-2,-2.0232862E-2,6.811312E-2,7.5605023E-3,-9.485621E-3,3.824797E-2,-7.672559E-3,-2.243547E-2,-1.1766618E-2,-2.6188234E-2,-3.3026993E-2,-2.3090692E-2,2.9242793E-2,1.3284342E-3,-5.205374E-2,-4.490158E-3],"split_indices":[1,4,4,1,0,2,0,4,2,2,0,0,0,2,0,0,2,1,1,2,2,0,0,0,0,0,0,0,0,0,0,0,0,0,0,0,0],"split_type":[0,0,0,0,0,0,0,0,0,0,0,0,0,0,0,0,0,0,0,0,0,0,0,0,0,0,0,0,0,0,0,0,0,0,0,0,0],"sum_hessian":[5.934421E2,5.4216986E2,5.1272213E1,1.6778041E2,3.7438943E2,3.2064064E0,4.8065807E1,8.936189E1,7.841852E1,3.069683E2,6.742116E1,1.0289664E0,2.17744E0,2.8419113E1,6.0942783E1,2.7229244E1,5.1189278E1,6.3898422E1,2.4306987E2,5.5383286E1,1.2037874E1,2.193717E1,6.4819417E0,4.6131664E1,1.4811118E1,1.0887482E1,1.6341763E1,1.126151E1,3.9927765E1,4.267199E1,2.1226433E1,3.3933308E1,2.0913657E2,2.5977898E1,2.9405386E1,9.598023E0,2.4398506E0],"tree_param":{"num_deleted":"0","num_feature":"6","num_nodes":"37","size_leaf_vector":"1"}},{"base_weights":[9.659683E-3,-1.1201848E-1,6.628945E-2,1.5459311E-1,-3.2579035E-1,1.876928E-1,-8.777295E-1,-4.848303E-1,1.1394585E-1,2.905072E-1,1.6402356E-2,-6.8147614E-4,-5.8940977E-2,-4.1909364E-1,-3.6628556E-2,2.459926E-1,-3.8820323E-2,-3.8401352E-3,1.8074945E-2,2.2185415E-3,-1.6825711E-2,-1.9823236E-2,-2.9321214E-2,2.471011E-2,7.815796E-3],"categories":[],"categories_nodes":[],"categories_segments":[],"categories_sizes":[],"default_left":[0,0,0,0,0,0,0,0,0,0,0,0,0,0,0,0,0,0,0,0,0,0,0,0,0],"id":26,"left_children":[1,3,-1,5,7,9,11,13,15,17,19,-1,-1,21,-1,23,-1,-1,-1,-1,-1,-1,-1,-1,-1],"loss_changes":[9.276908E1,3.0276278E1,0E0,8.251939E0,2.066219E1,4.048422E0,1.9427938E0,3.2201881E0,9.487432E0,3.7765045E0,8.7748665E-1,0E0,0E0,4.244709E-1,0E0,1.4723849E0,0E0,0E0,0E0,0E0,0E0,0E0,0E0,0E0,0E0],"parents":[2147483647,0,0,1,1,3,3,4,4,5,5,6,6,7,7,8,8,9,9,10,10,13,13,15,15],"right_children":[2,4,-1,6,8,10,12,14,16,18,20,-1,-1,22,-1,24,-1,-1,-1,-1,-1,-1,-1,-1,-1],"split_conditions":[2.018E3,1E0,6.628945E-2,2E0,1E0,2.016E3,2.014E3,2.017E3,2E0,2.013E3,1E0,-6.8147614E-4,-5.8940977E-2,1E0,-3.6628556E-2,2.014E3,-3.8820323E-2,-3.8401352E-3,1.8074945E-2,2.2185415E-3,-1.6825711E-2,-1.9823236E-2,-2.9321214E-2,2.471011E-2,7.815796E-3],"split_indices":[1,3,0,0,0,1,1,1,0,1,5,0,0,5,0,1,0,0,0,0,0,0,0,0,0],"split_type":[0,0,0,0,0,0,0,0,0,0,0,0,0,0,0,0,0,0,0,0,0,0,0,0,0],"sum_hessian":[5.773573E2,5.293344E2,4.802289E1,2.3567834E2,2.9365604E2,2.2914925E2,6.5291023E0,2.1558325E2,7.807281E1,1.4276237E2,8.638686E1,1.9572492E0,4.571853E0,1.7250237E2,4.3080875E1,6.8619644E1,9.453159E0,2.3109962E1,1.1965242E2,8.085354E1,5.5333295E0,1.5492104E2,1.7581331E1,1.7014767E1,5.1604877E1],"tree_param":{"num_deleted":"0","num_feature":"6","num_nodes":"25","size_leaf_vector":"1"}},{"base_weights":[-1.8918382E-2,-1.4317158E-1,1.3035524E0,3.5493717E-1,-3.587525E-1,-3.5267077E-2,6.804499E-2,7.682152E-1,-1.1021789E-1,-4.4758156E-1,3.9506648E-2,1.5577592E-1,1.0532017E0,4.9223882E-1,-2.7375466E-1,-2.673904E-1,-4.9279183E-1,1.9061306E-1,-6.697248E-1,2.2696016E-2,-2.685879E-4,6.497028E-2,7.7289655E-3,-3.7467547E-2,3.1487867E-2,-1.4849931E-2,2.4901653E-2,1.5167698E-2,-1.795291E-2,-2.9566804E-2,-2.2008894E-2,2.3873653E-2,-3.3668727E-3,-4.5657113E-2,1.53172435E-2],"categories":[],"categories_nodes":[],"categories_segments":[],"categories_sizes":[],"default_left":[0,0,0,0,0,0,0,0,0,0,0,0,0,0,0,0,0,0,0,0,0,0,0,0,0,0,0,0,0,0,0,0,0,0,0],"id":27,"left_children":[1,3,5,7,9,-1,-1,11,13,15,17,19,21,23,25,27,29,31,33,-1,-1,-1,-1,-1,-1,-1,-1,-1,-1,-1,-1,-1,-1,-1,-1],"loss_changes":[9.677356E1,5.7921936E1,6.787216E0,3.143445E1,1.332415E1,0E0,0E0,1.4929832E1,7.780001E0,2.37426E0,7.577374E0,1.3782657E0,1.2817947E1,3.3615856E0,1.2543049E0,3.451457E0,1.0085945E0,4.330029E0,3.233158E0,0E0,0E0,0E0,0E0,0E0,0E0,0E0,0E0,0E0,0E0,0E0,0E0,0E0,0E0,0E0,0E0],"parents":[2147483647,0,0,1,1,2,2,3,3,4,4,7,7,8,8,9,9,10,10,11,11,12,12,13,13,14,14,15,15,16,16,17,17,18,18],"right_children":[2,4,6,8,10,-1,-1,12,14,16,18,20,22,24,26,28,30,32,34,-1,-1,-1,-1,-1,-1,-1,-1,-1,-1,-1,-1,-1,-1,-1,-1],"split_conditions":[2.018E3,3E0,2E0,2.017E3,1E0,-3.5267077E-2,6.804499E-2,2E0,2.6E1,2.6E1,2E0,2.7E1,1E0,2E0,4.1E1,2.013E3,2.8E1,2.8E1,3.3E1,2.2696016E-2,-2.685879E-4,6.497028E-2,7.7289655E-3,-3.7467547E-2,3.1487867E-2,-1.4849931E-2,2.4901653E-2,1.5167698E-2,-1.795291E-2,-2.9566804E-2,-2.2008894E-2,2.3873653E-2,-3.3668727E-3,-4.5657113E-2,1.53172435E-2],"split_indices":[1,4,4,1,0,0,0,4,2,2,0,2,0,4,2,1,2,2,2,0,0,0,0,0,0,0,0,0,0,0,0,0,0,0,0],"split_type":[0,0,0,0,0,0,0,0,0,0,0,0,0,0,0,0,0,0,0,0,0,0,0,0,0,0,0,0,0,0,0,0,0,0,0],"sum_hessian":[5.867934E2,5.3721124E2,4.958213E1,1.6207765E2,3.751336E2,1.0625168E0,4.8519615E1,8.5479675E1,7.659797E1,3.0662018E2,6.851344E1,2.7636063E1,5.7843613E1,1.5924264E1,6.0673706E1,6.288775E1,2.4373244E2,5.7082813E1,1.1430627E1,9.058973E0,1.857709E1,4.5053814E1,1.2789802E1,1.1442534E0,1.478001E1,5.9497013E1,1.1766939E0,8.3831415E0,5.4504604E1,8.1272514E1,1.6245992E2,2.662397E1,3.0458843E1,9.200603E0,2.2300246E0],"tree_param":{"num_deleted":"0","num_feature":"6","num_nodes":"35","size_leaf_vector":"1"}},{"base_weights":[-7.0692427E-3,3.420998E-1,-1.4617428E-1,5.7174504E-1,-7.611629E-2,-2.177576E-1,1.4519906E-1,9.610097E-1,-1.6076873E-1,-2.6768511E-2,3.4985632E-1,-1.176815E-2,-3.6215335E-3,2.4672416E-1,-1.4209031E-2,5.586891E-1,5.2513666E-2,-2.529249E-1,2.8351177E-2,-4.9396395E-3,2.1087717E-2,1.0270934E-2,3.1576253E-2,3.1642534E-2,-7.2630877E-3,-9.309949E-3,-3.35868E-2],"categories":[],"categories_nodes":[],"categories_segments":[],"categories_sizes":[],"default_left":[0,0,0,0,0,0,0,0,0,0,0,0,0,0,0,0,0,0,0,0,0,0,0,0,0,0,0],"id":28,"left_children":[1,3,5,7,9,11,13,15,17,-1,19,-1,-1,21,-1,23,-1,25,-1,-1,-1,-1,-1,-1,-1,-1,-1],"loss_changes":[2.799309E1,1.5813297E1,8.627065E0,3.0411652E1,1.1746113E1,8.3041096E-1,3.6393292E0,1.906784E0,2.6705313E0,0E0,1.0499568E0,0E0,0E0,9.312916E-1,0E0,8.6168766E-1,0E0,8.2885194E-1,0E0,0E0,0E0,0E0,0E0,0E0,0E0,0E0,0E0],"parents":[2147483647,0,0,1,1,2,2,3,3,4,4,5,5,6,6,7,7,8,8,10,10,13,13,15,15,17,17],"right_children":[2,4,6,8,10,12,14,16,18,-1,20,-1,-1,22,-1,24,-1,26,-1,-1,-1,-1,-1,-1,-1,-1,-1],"split_conditions":[3E0,1E0,1E0,1E0,1E0,1E0,2E0,2E0,1E0,-2.6768511E-2,2E0,-1.176815E-2,-3.6215335E-3,1E0,-1.4209031E-2,1E0,5.2513666E-2,2E0,2.8351177E-2,-4.9396395E-3,2.1087717E-2,1.0270934E-2,3.1576253E-2,3.1642534E-2,-7.2630877E-3,-9.309949E-3,-3.35868E-2],"split_indices":[4,3,0,0,0,5,0,4,5,0,4,0,0,5,0,5,0,0,0,0,0,0,0,0,0,0,0],"split_type":[0,0,0,0,0,0,0,0,0,0,0,0,0,0,0,0,0,0,0,0,0,0,0,0,0,0,0],"sum_hessian":[5.743018E2,1.6319785E2,4.1110394E2,1.0511267E2,5.808518E1,3.302277E2,8.0876236E1,6.843418E1,3.667849E1,2.782711E1,3.0258066E1,2.9399286E2,3.6234856E1,6.5754295E1,1.5121943E1,1.3744615E1,5.4689564E1,3.3135242E1,3.5432494E0,4.1275797E0,2.6130487E1,6.0765415E1,4.98888E0,1.2525996E1,1.2186183E0,2.9827625E1,3.3076153E0],"tree_param":{"num_deleted":"0","num_feature":"6","num_nodes":"27","size_leaf_vector":"1"}}]},"name":"gbtree"},"learner_model_param":{"base_score":"3.4390113E-1","boost_from_average":"1","num_class":"0","num_feature":"6","num_target":"1"},"objective":{"name":"binary:logistic","reg_loss_param":{"scale_pos_weight":"1"}}},"version":[3,0,2]}